{"learner":{"attributes":{"scikit_learn":"{\"_estimator_type\": \"classifier\"}"},"feature_names":["was_clear_fair_lag1h","was_cloudy_overcast_lag1h","was_clear_fair_lag2h","was_cloudy_overcast_lag2h","was_clear_fair_lag3h","was_cloudy_overcast_lag3h","was_clear_fair_lag6h","was_cloudy_overcast_lag6h","temp_roll12h_range","tsun_roll24h_sum","tsun_roll24h_mean","temp_roll12h_std","temp_roll24h_std","temp_roll24h_range","tsun_roll12h_sum","tsun_roll12h_mean","spread_roll24h_std","spread_roll12h_max","rhum_roll12h_min","rhum_roll24h_min","spread_roll12h_range","spread_roll24h_range","spread_roll24h_max","spread_roll12h_std","tsun_roll12h_max","tsun_roll12h_std","abs_tsun_diff_12h","rhum_roll24h_std","tsun_roll24h_std","tsun_roll6h_mean"],"feature_types":["int","int","int","int","int","int","int","int","float","float","float","float","float","float","float","float","float","float","float","float","float","float","float","float","float","float","float","float","float","float"],"gradient_booster":{"model":{"gbtree_model_param":{"num_parallel_tree":"1","num_trees":"200"},"iteration_indptr":[0,1,2,3,4,5,6,7,8,9,10,11,12,13,14,15,16,17,18,19,20,21,22,23,24,25,26,27,28,29,30,31,32,33,34,35,36,37,38,39,40,41,42,43,44,45,46,47,48,49,50,51,52,53,54,55,56,57,58,59,60,61,62,63,64,65,66,67,68,69,70,71,72,73,74,75,76,77,78,79,80,81,82,83,84,85,86,87,88,89,90,91,92,93,94,95,96,97,98,99,100,101,102,103,104,105,106,107,108,109,110,111,112,113,114,115,116,117,118,119,120,121,122,123,124,125,126,127,128,129,130,131,132,133,134,135,136,137,138,139,140,141,142,143,144,145,146,147,148,149,150,151,152,153,154,155,156,157,158,159,160,161,162,163,164,165,166,167,168,169,170,171,172,173,174,175,176,177,178,179,180,181,182,183,184,185,186,187,188,189,190,191,192,193,194,195,196,197,198,199,200],"tree_info":[0,0,0,0,0,0,0,0,0,0,0,0,0,0,0,0,0,0,0,0,0,0,0,0,0,0,0,0,0,0,0,0,0,0,0,0,0,0,0,0,0,0,0,0,0,0,0,0,0,0,0,0,0,0,0,0,0,0,0,0,0,0,0,0,0,0,0,0,0,0,0,0,0,0,0,0,0,0,0,0,0,0,0,0,0,0,0,0,0,0,0,0,0,0,0,0,0,0,0,0,0,0,0,0,0,0,0,0,0,0,0,0,0,0,0,0,0,0,0,0,0,0,0,0,0,0,0,0,0,0,0,0,0,0,0,0,0,0,0,0,0,0,0,0,0,0,0,0,0,0,0,0,0,0,0,0,0,0,0,0,0,0,0,0,0,0,0,0,0,0,0,0,0,0,0,0,0,0,0,0,0,0,0,0,0,0,0,0,0,0,0,0,0,0,0,0,0,0,0,0],"trees":[{"base_weights":[7.785199E-3,1.7211425E0,-1.6868874E0,1.7934784E0,1.4199184E0,-1.7428758E0,-1.2091101E0,1.8473186E0,1.4959522E0,1.5249625E0,9.354379E-1,-1.6251649E0,-1.8782581E0,-1.0086275E0,-1.5031741E0,1.9345348E0,1.7815027E0,6.4047104E-1,1.5820984E0,-5E-2,1.5307064E0,7.415958E-1,1.516706E0,-1.3108889E0,-1.6761569E0,-1.7772503E0,-1.9353452E0,-1.0756457E0,-4.019319E-1,-1.1828731E0,-1.6608524E0,9.680928E-2,8.5576236E-1,1.548567E0,1.7940338E0,9.6071017E-1,-7.537871E-1,1.3235645E0,1.6781464E0,1.5587406E0,1.1283522E0,9.518673E-1,-2.3572792E-1,1.6897309E0,7.983763E-1,-5.682292E-1,-1.3481327E0,-1.6291392E0,-1.8999162E0,-1.6742046E0,-1.9288796E0,-2.0040551E-2,-9.68292E-2,-1.1282884E0,-3.5365662E-1,-6.3670196E-2,-1.1210543E0,5.8081906E-2,-1.3133568E0,-2.0040551E-2,-1.6698712E0,5.7091087E-2,7.6323026E-3,1.612974E0,2.277907E-1,8.98089E-2,9.3972796E-1,1.3065097E0,1.7024104E-1,8.5576236E-1,-1.4940444E0,1.6356717E0,1.0775843E0,7.6323026E-3,1.6833439E0,1.6427141E0,1.4076878E0,4.2667326E-1,1.4120045E0,3.0920723E-1,1.0347701E0,1.0574187E0,-1.1500682E0,8.76473E-2,1.993238E-2,1.258099E0,-3.5520792E-2,1.5204541E-1,-1.0292329E0,-1.2329975E0,-1.5447366E0,-1.6348729E0,2.8110867E-2,-1.43991E0,-1.9432486E0,-1.6832783E0,-1.5524627E-1,-9.4433457E-1,-1.9393708E0,-1.1424135E0,3.3270717E-2,-1.2766518E-1,-6.666667E-2,-5.1784384E-1,4.3294132E-1,-1.4940444E0,9.021061E-3,-1.4551654E0,5.227578E-2,-1.6790746E0,-2.0040551E-2,9.055713E-2,6.411805E-2,-4.1211545E-2,5.378611E-2,-2.0040551E-2,6.72224E-2,-2.861022E-2,7.1571335E-2,4.8862662E-2,-4.788039E-2,7.6323026E-3,5.7091087E-2,-8.1818186E-2,-2.0040551E-2,8.33286E-2,7.6323026E-3,1.3007181E-2,6.1145008E-2,8.4510945E-2,3.325818E-2,3.0690435E-2,8.2528576E-2,-1.2559413E-2,7.110407E-2,-2.0078007E-2,4.2528506E-2,9.021061E-3,7.401661E-2,-2.6004752E-2,6.3580446E-2,5.57173E-2,-9.174729E-3,1.7565155E-2,7.138254E-2,-7.4702226E-2,-2.9803801E-2,7.6323026E-3,7.309023E-2,4.7758948E-2,-3.6416005E-2,3.3270717E-2,-6.959636E-2,-8.086767E-2,-5.176388E-2,-1.2559413E-2,-7.832444E-2,-8.523845E-2,-7.529086E-2,3.325818E-2,-4.1211545E-2,7.6323026E-3,-7.583401E-2,-9.741599E-2,-3.5520792E-2,-6.33479E-2,-8.55531E-2,3.3270717E-2,-5E-2,7.6323026E-3,-6.923077E-2,-2.0040551E-2,-9.724422E-2,-6.0679357E-2,-3.9954256E-2,-5.2586056E-2,1.5530256E-2,2.4920743E-2,-5.00576E-2,5.856035E-2,-1.3126555E-2,-2.0040551E-2,-8.1818186E-2,-7.873395E-2,-3.5924863E-2,3.5636634E-2,-6.0000002E-2,-8.560885E-2,-5.00576E-2],"categories":[],"categories_nodes":[],"categories_segments":[],"categories_sizes":[],"default_left":[0,0,0,0,0,0,0,0,0,0,0,0,0,0,0,0,0,0,0,0,0,0,0,0,0,0,0,0,0,0,0,0,0,0,0,0,0,0,0,0,0,0,0,0,0,0,0,0,0,0,0,0,0,0,0,0,0,0,0,0,0,0,0,0,0,0,0,0,0,0,0,0,0,0,0,0,0,0,0,0,0,0,0,0,0,0,0,0,0,0,0,0,0,0,0,0,0,0,0,0,0,0,0,0,0,0,0,0,0,0,0,0,0,0,0,0,0,0,0,0,0,0,0,0,0,0,0,0,0,0,0,0,0,0,0,0,0,0,0,0,0,0,0,0,0,0,0,0,0,0,0,0,0,0,0,0,0,0,0,0,0,0,0,0,0,0,0,0,0,0,0,0,0,0,0,0,0,0,0,0,0,0,0,0,0,0,0,0,0],"id":0,"left_children":[1,3,5,7,9,11,13,15,17,19,21,23,25,27,29,31,33,35,37,-1,39,41,43,45,47,49,51,53,55,57,59,-1,61,63,65,67,69,71,73,75,77,79,81,83,85,87,89,91,93,95,97,-1,-1,99,101,103,105,-1,107,-1,109,-1,-1,111,113,-1,115,117,119,121,123,125,127,-1,129,131,133,135,137,139,141,143,145,-1,-1,147,-1,149,151,153,155,157,159,161,163,165,167,169,171,173,-1,175,-1,177,179,181,-1,183,185,187,-1,-1,-1,-1,-1,-1,-1,-1,-1,-1,-1,-1,-1,-1,-1,-1,-1,-1,-1,-1,-1,-1,-1,-1,-1,-1,-1,-1,-1,-1,-1,-1,-1,-1,-1,-1,-1,-1,-1,-1,-1,-1,-1,-1,-1,-1,-1,-1,-1,-1,-1,-1,-1,-1,-1,-1,-1,-1,-1,-1,-1,-1,-1,-1,-1,-1,-1,-1,-1,-1,-1,-1,-1,-1,-1,-1,-1,-1,-1],"loss_changes":[2.2468242E4,8.12959E1,1.0195703E2,4.687793E1,3.673706E1,5.2404297E1,2.2733643E1,1.1591797E1,3.4369263E1,1.0445679E1,1.4222137E1,2.7752441E1,5.855957E0,9.635849E0,6.353882E0,3.2861328E-1,1.6166992E0,2.1086187E1,8.593262E0,0E0,5.16333E0,2.1617294E1,2.7656937E0,6.577179E0,1.3783691E1,6.057251E0,1.1599121E0,8.053558E0,6.30884E0,1.9210724E1,5.5685425E-1,0E0,5.288217E-1,6.7932434E0,9.1845703E-1,1.0034977E1,1.2095294E1,7.6575317E0,2.2311401E0,4.9316406E0,8.07449E0,4.2549057E0,2.3956873E1,1.4055786E0,6.666179E0,4.9402614E0,3.8014832E0,1.2711182E1,2.6351318E0,4.720337E0,5.845947E-1,0E0,0E0,6.000244E0,3.4983454E0,4.486683E0,4.3135033E0,0E0,1.0772026E1,0E0,5.7458496E-1,0E0,0E0,2.9252472E0,5.4167967E0,0E0,3.6090794E0,6.910427E0,1.237685E1,5.288217E-1,3.683071E-1,2.135437E0,8.181244E0,0E0,1.064331E0,1.9058228E0,5.39624E0,5.2508225E0,2.3089867E0,9.630117E0,7.5363464E0,1.7172756E0,1.3477135E0,0E0,0E0,1.2944965E0,0E0,5.2870297E0,6.4045744E0,1.0783768E1,2.1148682E0,9.414307E0,3.5772488E0,3.5724487E0,1.5533447E-1,1.9868774E0,2.917033E0,2.3438358E0,1.1757812E0,4.0536194E0,0E0,6.2273045E0,0E0,5.5709167E0,5.2221956E0,3.683071E-1,0E0,3.2768478E0,5.950913E0,6.5856934E-1,0E0,0E0,0E0,0E0,0E0,0E0,0E0,0E0,0E0,0E0,0E0,0E0,0E0,0E0,0E0,0E0,0E0,0E0,0E0,0E0,0E0,0E0,0E0,0E0,0E0,0E0,0E0,0E0,0E0,0E0,0E0,0E0,0E0,0E0,0E0,0E0,0E0,0E0,0E0,0E0,0E0,0E0,0E0,0E0,0E0,0E0,0E0,0E0,0E0,0E0,0E0,0E0,0E0,0E0,0E0,0E0,0E0,0E0,0E0,0E0,0E0,0E0,0E0,0E0,0E0,0E0,0E0,0E0,0E0,0E0,0E0,0E0,0E0,0E0,0E0,0E0,0E0,0E0,0E0],"parents":[2147483647,0,0,1,1,2,2,3,3,4,4,5,5,6,6,7,7,8,8,9,9,10,10,11,11,12,12,13,13,14,14,15,15,16,16,17,17,18,18,20,20,21,21,22,22,23,23,24,24,25,25,26,26,27,27,28,28,29,29,30,30,32,32,33,33,34,34,35,35,36,36,37,37,38,38,39,39,40,40,41,41,42,42,43,43,44,44,45,45,46,46,47,47,48,48,49,49,50,50,53,53,54,54,55,55,56,56,58,58,60,60,63,63,64,64,66,66,67,67,68,68,69,69,70,70,71,71,72,72,74,74,75,75,76,76,77,77,78,78,79,79,80,80,81,81,82,82,85,85,87,87,88,88,89,89,90,90,91,91,92,92,93,93,94,94,95,95,96,96,97,97,98,98,99,99,101,101,103,103,104,104,105,105,107,107,108,108,109,109],"right_children":[2,4,6,8,10,12,14,16,18,20,22,24,26,28,30,32,34,36,38,-1,40,42,44,46,48,50,52,54,56,58,60,-1,62,64,66,68,70,72,74,76,78,80,82,84,86,88,90,92,94,96,98,-1,-1,100,102,104,106,-1,108,-1,110,-1,-1,112,114,-1,116,118,120,122,124,126,128,-1,130,132,134,136,138,140,142,144,146,-1,-1,148,-1,150,152,154,156,158,160,162,164,166,168,170,172,174,-1,176,-1,178,180,182,-1,184,186,188,-1,-1,-1,-1,-1,-1,-1,-1,-1,-1,-1,-1,-1,-1,-1,-1,-1,-1,-1,-1,-1,-1,-1,-1,-1,-1,-1,-1,-1,-1,-1,-1,-1,-1,-1,-1,-1,-1,-1,-1,-1,-1,-1,-1,-1,-1,-1,-1,-1,-1,-1,-1,-1,-1,-1,-1,-1,-1,-1,-1,-1,-1,-1,-1,-1,-1,-1,-1,-1,-1,-1,-1,-1,-1,-1,-1,-1,-1,-1],"split_conditions":[1E0,1.2E1,1E0,7.3E0,5.9E1,5.5E1,1.7833334E1,3E0,1E0,4.8798716E-1,3.2916668E1,4.7E0,1.8E1,6.8E1,3.1E1,6.209734E0,1E0,1E0,2.0412415E-1,-5E-2,2.7237782E1,2.639115E1,5.4666668E1,1.2027124E0,2.81718E1,1.01E1,7.119105E-1,4.7018156E0,6.666667E-1,5.0812244E0,7.32427E-1,9.680928E-2,2.6E0,1E0,1.67E1,1E0,4.3E1,8.005022E0,1.7817869E0,3E1,2.0333334E1,3.1E0,5.1E0,4.687626E0,1.1470188E1,7E1,2.1608799E1,8.3E1,1.8333334E0,1E0,6.723478E0,-2.0040551E-2,-9.68292E-2,1.51E1,1.67E1,1.50099E0,1.2530255E0,5.8081906E-2,4.122101E0,-2.0040551E-2,5.4304028E0,5.7091087E-2,7.6323026E-3,7.4E1,6.1E1,8.98089E-2,5.7648206E0,3.0401928E0,5.4E1,1.378099E1,1.1E1,1.5642751E1,9.235663E0,7.6323026E-3,1.59E1,1.732329E0,1.6E0,1E0,1.7833334E1,6.5E1,7.4E1,2.454927E0,2.2251978E0,8.76473E-2,1.993238E-2,2.6644058E1,-3.5520792E-2,2.1342912E0,1.7E0,2.857738E0,1E0,1.1333333E1,5.0833335E0,1E0,1.8975328E1,1E0,7.4E0,1.06E1,8.683396E0,8.166667E0,3.3270717E-2,9.180047E0,-6.666667E-2,3.6265926E0,2.2453656E0,8.03243E-1,9.021061E-3,8.6E0,1.19E1,5.5333332E1,-2.0040551E-2,9.055713E-2,6.411805E-2,-4.1211545E-2,5.378611E-2,-2.0040551E-2,6.72224E-2,-2.861022E-2,7.1571335E-2,4.8862662E-2,-4.788039E-2,7.6323026E-3,5.7091087E-2,-8.1818186E-2,-2.0040551E-2,8.33286E-2,7.6323026E-3,1.3007181E-2,6.1145008E-2,8.4510945E-2,3.325818E-2,3.0690435E-2,8.2528576E-2,-1.2559413E-2,7.110407E-2,-2.0078007E-2,4.2528506E-2,9.021061E-3,7.401661E-2,-2.6004752E-2,6.3580446E-2,5.57173E-2,-9.174729E-3,1.7565155E-2,7.138254E-2,-7.4702226E-2,-2.9803801E-2,7.6323026E-3,7.309023E-2,4.7758948E-2,-3.6416005E-2,3.3270717E-2,-6.959636E-2,-8.086767E-2,-5.176388E-2,-1.2559413E-2,-7.832444E-2,-8.523845E-2,-7.529086E-2,3.325818E-2,-4.1211545E-2,7.6323026E-3,-7.583401E-2,-9.741599E-2,-3.5520792E-2,-6.33479E-2,-8.55531E-2,3.3270717E-2,-5E-2,7.6323026E-3,-6.923077E-2,-2.0040551E-2,-9.724422E-2,-6.0679357E-2,-3.9954256E-2,-5.2586056E-2,1.5530256E-2,2.4920743E-2,-5.00576E-2,5.856035E-2,-1.3126555E-2,-2.0040551E-2,-8.1818186E-2,-7.873395E-2,-3.5924863E-2,3.5636634E-2,-6.0000002E-2,-8.560885E-2,-5.00576E-2],"split_indices":[0,29,5,8,26,26,29,8,1,16,15,8,29,19,26,12,1,2,28,0,28,28,29,20,28,8,16,16,29,27,12,0,8,2,13,6,19,20,12,26,15,8,8,23,27,19,28,18,15,3,20,0,0,8,13,12,23,0,23,0,12,0,0,18,19,0,20,17,18,17,8,27,20,0,8,20,8,5,29,18,19,12,23,0,0,28,0,12,8,28,2,29,15,6,20,6,8,8,17,29,0,20,0,27,28,12,0,8,8,29,0,0,0,0,0,0,0,0,0,0,0,0,0,0,0,0,0,0,0,0,0,0,0,0,0,0,0,0,0,0,0,0,0,0,0,0,0,0,0,0,0,0,0,0,0,0,0,0,0,0,0,0,0,0,0,0,0,0,0,0,0,0,0,0,0,0,0,0,0,0,0,0,0,0,0,0,0,0,0],"split_type":[0,0,0,0,0,0,0,0,0,0,0,0,0,0,0,0,0,0,0,0,0,0,0,0,0,0,0,0,0,0,0,0,0,0,0,0,0,0,0,0,0,0,0,0,0,0,0,0,0,0,0,0,0,0,0,0,0,0,0,0,0,0,0,0,0,0,0,0,0,0,0,0,0,0,0,0,0,0,0,0,0,0,0,0,0,0,0,0,0,0,0,0,0,0,0,0,0,0,0,0,0,0,0,0,0,0,0,0,0,0,0,0,0,0,0,0,0,0,0,0,0,0,0,0,0,0,0,0,0,0,0,0,0,0,0,0,0,0,0,0,0,0,0,0,0,0,0,0,0,0,0,0,0,0,0,0,0,0,0,0,0,0,0,0,0,0,0,0,0,0,0,0,0,0,0,0,0,0,0,0,0,0,0,0,0,0,0,0,0],"sum_hessian":[7.7361177E3,3.846844E3,3.8892734E3,3.0979495E3,7.4889453E2,3.4789443E3,4.1032898E2,2.6188362E3,4.7911325E2,6.136883E2,1.3520624E2,1.8678805E3,1.611064E3,2.4662122E2,1.6370778E2,1.114097E3,1.5047393E3,4.460403E1,4.3450922E2,1E0,6.126883E2,1.031001E2,3.2106144E1,2.644876E2,1.603393E3,5.933477E2,1.01771625E3,2.2139232E2,2.5228888E1,5.6809406E1,1.0689837E2,1.1116012E3,2.4957774E0,8.317639E1,1.4215629E3,3.6525623E1,8.078407E0,1.2170202E2,3.128072E2,5.700927E2,4.2595585E1,8.486699E1,1.8233109E1,2.478407E1,7.322073E0,1.3406814E1,2.5108081E2,1.331823E3,2.7156998E2,3.6043878E2,2.3290892E2,1.0826296E0,1.0166336E3,2.0582236E2,1.5569962E1,1.7898369E1,7.3305182E0,2.5784068E0,5.4231E1,1.0826296E0,1.0581574E2,1.3305182E0,1.1652591E0,7.9097984E1,4.078407E0,1.4169039E3,4.658925E0,2.4955662E1,1.1569962E1,2.4957774E0,5.5826297E0,5.115077E1,7.055125E1,1.1652591E0,3.1164194E2,3.600554E2,2.1003734E2,1.2983109E1,2.9612476E1,1.0237332E1,7.4629654E1,7.4873323E0,1.0745777E1,2.328618E1,1.4978887E0,5.7394433E0,1.5826296E0,5.493666E0,7.913148E0,1.6293456E2,8.8146255E1,1.3272445E3,4.578407E0,2.6326296E1,2.4524367E2,3.581909E2,2.2478886E0,3.4152591E0,2.2949367E2,2.0457448E2,1.2478887E0,1.3569962E1,2E0,9.326296E0,8.572073E0,5.5826297E0,1.7478887E0,4.906996E1,5.1610365E0,1.0473311E2,1.0826296E0,4.665499E1,3.2442993E1,1.8326296E0,2.2457774E0,1.0826296E0,3.5762956E0,1.3326296E0,2.3623034E1,6.822073E0,4.7478886E0,1.1652591E0,1.3305182E0,4.5E0,1.0826296E0,4.9985508E1,1.1652591E0,1.1069962E1,5.9481285E1,3.0889615E2,2.7457774E0,3.3284068E0,3.5672696E2,1.6652591E0,2.0837207E2,4.413148E0,8.569962E0,1.7478887E0,2.7864588E1,5.745777E0,4.4915547E0,7.013388E1,4.495777E0,3.2457774E0,4.2415547E0,5.5826297E0,5.163148E0,1.1652591E0,4.5741844E0,2.8284068E0,2.6652591E0,1.2478887E0,6.6652594E0,5.2906815E1,1.1002773E2,1.6652591E0,8.6480995E1,8.5303436E2,4.7421017E2,2.7457774E0,1.8326296E0,1.1652591E0,2.5161037E1,2.4366104E2,1.5826296E0,2.5324184E1,3.328667E2,1.2478887E0,1E0,1.1652591E0,2.25E0,1.0826296E0,2.2841104E2,1.673477E2,3.7226776E1,3.9152591E0,9.654702E0,2.9957774E0,6.3305182E0,3.8262956E0,4.745777E0,1.0826296E0,4.5E0,4.1241554E1,7.828407E0,3.6610365E0,1.5E0,9.840259E1,6.3305182E0],"tree_param":{"num_deleted":"0","num_feature":"30","num_nodes":"189","size_leaf_vector":"1"}},{"base_weights":[8.356554E-3,-1.1922779E0,1.4741396E0,4.4694814E-1,-1.4669849E0,1.5942587E0,8.5439306E-1,7.851772E-1,-1.0506629E0,-1.289014E0,-1.718412E0,1.7059118E0,1.3840762E0,1.0683013E0,2.3498437E-1,1.0034728E0,-2.3038201E-1,-6.898502E-1,-1.4615517E0,-8.245018E-1,-1.3822697E0,-1.5502402E0,-1.8005362E0,1.7300941E0,1.3436676E0,1.0948507E0,1.4556208E0,1.2508835E0,8.187862E-1,4.7162596E-2,1.0671022E0,5.291275E-1,1.3108366E0,-5.1310644E-2,-8.366239E-1,5.395949E-1,-8.446114E-1,1.9637588E-2,-1.5241628E0,-5.828078E-1,-1.3320698E0,-1.2953289E0,-1.6214299E0,-1.0816592E0,-1.6097689E0,-1.8079525E0,-1.2467272E0,1.7910606E0,1.6061344E0,4.6311086E-1,1.4030972E0,7.7747875E-1,1.580365E0,1.5729337E0,1.3185519E0,-6.257731E-1,1.2723876E0,7.029156E-1,1.4557639E0,9.719147E-1,-7.5740814E-2,5.714233E-1,1.5570823E0,1.1545457E0,3.3807537E-1,1.7093326E0,1.1085911E0,4.901801E-1,-2.4507079E-1,-1.2690604E0,6.487327E-1,-3.5636786E-2,9.8950917E-1,-5.6904596E-1,-1.3904852E0,-1.6388443E0,-7.073825E-1,8.3523834E-1,-6.525395E-1,-8.483339E-1,-1.5080367E0,-1.4845501E0,-1.1878117E0,-1.2698168E0,-1.7641923E0,-1.5817248E0,-7.89033E-1,-9.3200094E-1,-1.6384994E0,-1.7477654E0,-9.385567E-2,-1.4336411E0,1.078458E-2,1.7923874E0,8.290377E-1,5.9844935E-1,1.6097724E0,1.2301452E0,-5.043934E-1,1.4261161E0,3.1065726E-1,-6.381368E-2,8.1643146E-1,1.6886982E-1,8.2105234E-2,1.5765902E0,5.761948E-3,1.3317261E0,-2.2842294E-1,7.630554E-3,-5.48432E-2,1.2901596E0,-2.9768062E-1,8.791241E-1,1.8916026E-1,1.5749617E0,-1.2564159E-3,1.120441E0,-2.1902276E-2,7.23543E-2,-6.0736734E-1,9.854804E-1,-5.0950843E-1,8.3407395E-2,2.8307185E-2,6.674065E-2,-2.9423341E-2,-1.2226137E-2,2.7539385E-2,8.81922E-2,-7.896428E-3,5.736355E-2,-1.6831636E-2,5.255841E-2,-6.9833994E-3,-2.1463003E-2,3.346769E-2,1.9005938E-2,-7.32259E-2,-3.4908477E-2,7.1080476E-2,7.356446E-2,8.65718E-4,-6.438135E-2,-4.9129007E-3,-8.680112E-2,-4.1326787E-2,-8.556727E-2,-3.1342126E-2,-7.0163056E-2,4.9418326E-2,5.326196E-2,-5.5586467E-3,-1.8827036E-2,-4.6657756E-2,-9.053171E-3,-5.4466277E-2,-7.874208E-2,1.890902E-2,-5.904761E-2,-7.77194E-2,-5.0464135E-2,-6.637077E-2,-5.277396E-2,-8.382472E-2,-8.883365E-2,-5.7013035E-2,-2.0826287E-3,-8.452184E-2,1.2443173E-2,-4.48029E-2,8.578477E-3,-6.4641E-2,-8.219178E-2,8.145335E-3,-6.477863E-2,-8.788266E-2,-7.91728E-2,8.678824E-3,8.9977436E-2,7.369148E-2,6.8143667E-3,5.583427E-2,5.1695476E-3,3.9085124E-2,8.065694E-2,3.628669E-2,7.448117E-2,7.167332E-3,1.7400261E-2,-6.3771084E-2,6.680725E-2,8.898516E-2,-3.0545557E-2,5.49812E-2,4.86856E-2,8.8119535E-3,4.575214E-2,-3.690275E-2,7.1582995E-2,8.1287704E-2,-1.3967042E-2,6.6978656E-2,-6.0131162E-2,4.019963E-2,6.572369E-2,5.7392973E-3,-5.503078E-2,3.1927112E-2,4.902694E-2,1.8362548E-2,-5.8591466E-2,1.9799307E-2,6.5417564E-3,8.199818E-2,6.2728375E-2,7.608939E-3,8.994329E-3,-2.6153123E-2,-6.5275654E-3,-6.181822E-2,6.555441E-2,-1.9612232E-2,-5.4050077E-2,3.1401306E-2],"categories":[],"categories_nodes":[],"categories_segments":[],"categories_sizes":[],"default_left":[0,0,0,0,0,0,0,0,0,0,0,0,0,0,0,0,0,0,0,0,0,0,0,0,0,0,0,0,0,0,0,0,0,0,0,0,0,0,0,0,0,0,0,0,0,0,0,0,0,0,0,0,0,0,0,0,0,0,0,0,0,0,0,0,0,0,0,0,0,0,0,0,0,0,0,0,0,0,0,0,0,0,0,0,0,0,0,0,0,0,0,0,0,0,0,0,0,0,0,0,0,0,0,0,0,0,0,0,0,0,0,0,0,0,0,0,0,0,0,0,0,0,0,0,0,0,0,0,0,0,0,0,0,0,0,0,0,0,0,0,0,0,0,0,0,0,0,0,0,0,0,0,0,0,0,0,0,0,0,0,0,0,0,0,0,0,0,0,0,0,0,0,0,0,0,0,0,0,0,0,0,0,0,0,0,0,0,0,0,0,0,0,0,0,0,0,0,0,0,0,0,0,0,0,0,0,0,0,0,0,0,0,0,0,0,0,0,0,0,0,0,0,0,0,0],"id":1,"left_children":[1,3,5,7,9,11,13,15,17,19,21,23,25,27,29,31,33,35,37,39,41,43,45,47,49,51,53,55,57,59,61,63,65,67,69,71,73,-1,75,77,79,81,83,85,87,89,91,93,95,97,99,101,103,105,107,109,111,113,115,117,119,121,123,125,127,129,131,133,135,137,139,-1,141,143,145,147,149,151,153,155,157,159,161,163,165,167,169,171,173,175,-1,177,-1,179,181,183,185,187,189,191,193,-1,195,197,-1,199,-1,201,203,-1,-1,205,207,209,211,213,-1,215,-1,217,219,221,223,-1,-1,-1,-1,-1,-1,-1,-1,-1,-1,-1,-1,-1,-1,-1,-1,-1,-1,-1,-1,-1,-1,-1,-1,-1,-1,-1,-1,-1,-1,-1,-1,-1,-1,-1,-1,-1,-1,-1,-1,-1,-1,-1,-1,-1,-1,-1,-1,-1,-1,-1,-1,-1,-1,-1,-1,-1,-1,-1,-1,-1,-1,-1,-1,-1,-1,-1,-1,-1,-1,-1,-1,-1,-1,-1,-1,-1,-1,-1,-1,-1,-1,-1,-1,-1,-1,-1,-1,-1,-1,-1,-1,-1,-1,-1,-1,-1,-1,-1,-1,-1,-1],"loss_changes":[1.3643912E4,1.9198066E3,2.5851416E2,3.110645E2,1.6112842E2,6.6234375E1,7.512845E1,1.1112286E2,1.5784126E1,9.162427E1,1.80625E1,1.4359863E1,1.9499634E1,1.8227997E1,2.2974266E1,5.9359314E1,9.652672E0,1.22911E1,6.6433563E0,4.3450165E1,3.4950684E1,1.2278931E1,1.8874512E0,1.059082E1,5.82193E0,3.0542267E1,1.1018066E1,1.056781E1,1.2369904E1,1.3852842E1,5.687895E0,1.9161621E1,1.8194153E1,7.4656124E0,1.3862249E1,4.9675593E0,7.5780487E0,0E0,3.5775146E0,2.4870064E1,8.553528E0,2.4924805E1,2.1407837E1,7.4886246E0,7.1173096E0,8.5180664E-1,4.832035E0,2.758789E-2,1.225708E0,7.5306196E0,2.4578705E0,1.1174011E1,6.7409363E0,2.1290283E0,8.0824585E0,1.4190744E0,7.072998E0,1.3907845E1,4.8047256E0,3.4844007E0,8.542374E0,7.234776E0,4.9075317E-1,1.2686249E1,1.584307E1,8.63237E0,9.78833E0,6.783623E0,9.08387E0,5.7337666E0,6.446315E0,0E0,2.7773585E0,1.2954187E1,2.0672264E0,2.1250534E0,1.0810131E1,2.723672E0,1.7851631E1,5.125164E0,1.1106857E1,8.157349E0,1.9633423E1,1.039975E1,5.633545E-1,3.4529877E0,4.6284084E0,8.333599E0,4.348755E0,1.6113281E-1,0E0,3.8388863E0,0E0,4.7607422E-2,5.440097E-1,2.5846863E-1,5.983887E-1,1.3331356E0,3.6161807E0,1.2072449E0,3.3322155E0,0E0,1.2404961E1,3.7135992E0,0E0,7.531738E-1,0E0,5.1602173E0,5.0668316E0,0E0,0E0,6.6285706E0,3.3305209E0,5.635071E0,1.1999012E1,2.1321907E0,0E0,1.5251408E0,0E0,5.5566874E0,6.9239454E0,5.5463247E0,3.8159165E0,0E0,0E0,0E0,0E0,0E0,0E0,0E0,0E0,0E0,0E0,0E0,0E0,0E0,0E0,0E0,0E0,0E0,0E0,0E0,0E0,0E0,0E0,0E0,0E0,0E0,0E0,0E0,0E0,0E0,0E0,0E0,0E0,0E0,0E0,0E0,0E0,0E0,0E0,0E0,0E0,0E0,0E0,0E0,0E0,0E0,0E0,0E0,0E0,0E0,0E0,0E0,0E0,0E0,0E0,0E0,0E0,0E0,0E0,0E0,0E0,0E0,0E0,0E0,0E0,0E0,0E0,0E0,0E0,0E0,0E0,0E0,0E0,0E0,0E0,0E0,0E0,0E0,0E0,0E0,0E0,0E0,0E0,0E0,0E0,0E0,0E0,0E0,0E0,0E0,0E0,0E0,0E0,0E0,0E0,0E0,0E0,0E0,0E0,0E0,0E0,0E0,0E0],"parents":[2147483647,0,0,1,1,2,2,3,3,4,4,5,5,6,6,7,7,8,8,9,9,10,10,11,11,12,12,13,13,14,14,15,15,16,16,17,17,18,18,19,19,20,20,21,21,22,22,23,23,24,24,25,25,26,26,27,27,28,28,29,29,30,30,31,31,32,32,33,33,34,34,35,35,36,36,38,38,39,39,40,40,41,41,42,42,43,43,44,44,45,45,46,46,47,47,48,48,49,49,50,50,51,51,52,52,53,53,54,54,55,55,56,56,57,57,58,58,59,59,60,60,61,61,62,62,63,63,64,64,65,65,66,66,67,67,68,68,69,69,70,70,72,72,73,73,74,74,75,75,76,76,77,77,78,78,79,79,80,80,81,81,82,82,83,83,84,84,85,85,86,86,87,87,88,88,89,89,91,91,93,93,94,94,95,95,96,96,97,97,98,98,99,99,100,100,102,102,103,103,105,105,107,107,108,108,111,111,112,112,113,113,114,114,115,115,117,117,119,119,120,120,121,121,122,122],"right_children":[2,4,6,8,10,12,14,16,18,20,22,24,26,28,30,32,34,36,38,40,42,44,46,48,50,52,54,56,58,60,62,64,66,68,70,72,74,-1,76,78,80,82,84,86,88,90,92,94,96,98,100,102,104,106,108,110,112,114,116,118,120,122,124,126,128,130,132,134,136,138,140,-1,142,144,146,148,150,152,154,156,158,160,162,164,166,168,170,172,174,176,-1,178,-1,180,182,184,186,188,190,192,194,-1,196,198,-1,200,-1,202,204,-1,-1,206,208,210,212,214,-1,216,-1,218,220,222,224,-1,-1,-1,-1,-1,-1,-1,-1,-1,-1,-1,-1,-1,-1,-1,-1,-1,-1,-1,-1,-1,-1,-1,-1,-1,-1,-1,-1,-1,-1,-1,-1,-1,-1,-1,-1,-1,-1,-1,-1,-1,-1,-1,-1,-1,-1,-1,-1,-1,-1,-1,-1,-1,-1,-1,-1,-1,-1,-1,-1,-1,-1,-1,-1,-1,-1,-1,-1,-1,-1,-1,-1,-1,-1,-1,-1,-1,-1,-1,-1,-1,-1,-1,-1,-1,-1,-1,-1,-1,-1,-1,-1,-1,-1,-1,-1,-1,-1,-1,-1,-1,-1],"split_conditions":[1E0,1E0,1.6666666E1,2.05E1,2.5458334E1,1.6713948E0,5.7E1,1E0,5.8E1,1.4865049E0,2.81718E1,1.0166667E1,4.1666668E-2,2.85E1,3.95E2,6.4E1,5.4E1,9.932325E-1,2.4580123E0,3.6E1,5.7E1,5.9E1,1E0,1.1103848E0,1.8427664E0,5.5E1,7.8E1,3E0,3.8240466E0,5.9E1,2.6125E1,1E0,7.229464E-1,1.684398E0,1.1895318E1,7.7083335E0,4E1,1.9637588E-2,9.792703E0,2.5670335E0,8E0,4.082483E-1,1.6666667E-1,2.5944757E1,4.594101E0,4.0333332E1,1.5865753E1,6.209734E0,9.0693784E-1,6.3406434E0,2.775E1,6.1E0,5.4E0,2.1059206E1,3.4666668E1,1E0,3.1291666E1,1.3200495E1,1.9501991E1,1E0,3.6996255E0,1.3749309E1,5.84E2,1.1E1,5.1031036E0,7.6E1,1.33E2,9.416137E0,4.4232287E0,2.1854591E0,2.66E2,-3.5636786E-2,3E2,2.329334E0,2.7138813E0,1.5668313E1,4.5E1,2.7883265E0,1.8525932E0,1.1291667E1,8.345838E0,1.1867116E1,1E1,3.292266E0,5.574375E0,2.9636834E0,2.852135E0,2.1666666E1,1.88E1,9E0,-9.385567E-2,5.1E1,1.078458E-2,1E0,4E0,1.25E-1,3.4571407E0,5.6E1,4.3501654E-1,1.3422795E1,1.0639801E1,-6.381368E-2,1E0,2.952199E0,8.2105234E-2,2.2891006E0,5.761948E-3,4.1856813E0,2.777654E1,7.630554E-3,-5.48432E-2,7.6E1,4.826504E0,3.2215645E0,5.7E1,2.1953354E0,-1.2564159E-3,3.4563112E0,-2.1902276E-2,2.6331774E1,3.3833332E1,5.5E1,4.270422E0,8.3407395E-2,2.8307185E-2,6.674065E-2,-2.9423341E-2,-1.2226137E-2,2.7539385E-2,8.81922E-2,-7.896428E-3,5.736355E-2,-1.6831636E-2,5.255841E-2,-6.9833994E-3,-2.1463003E-2,3.346769E-2,1.9005938E-2,-7.32259E-2,-3.4908477E-2,7.1080476E-2,7.356446E-2,8.65718E-4,-6.438135E-2,-4.9129007E-3,-8.680112E-2,-4.1326787E-2,-8.556727E-2,-3.1342126E-2,-7.0163056E-2,4.9418326E-2,5.326196E-2,-5.5586467E-3,-1.8827036E-2,-4.6657756E-2,-9.053171E-3,-5.4466277E-2,-7.874208E-2,1.890902E-2,-5.904761E-2,-7.77194E-2,-5.0464135E-2,-6.637077E-2,-5.277396E-2,-8.382472E-2,-8.883365E-2,-5.7013035E-2,-2.0826287E-3,-8.452184E-2,1.2443173E-2,-4.48029E-2,8.578477E-3,-6.4641E-2,-8.219178E-2,8.145335E-3,-6.477863E-2,-8.788266E-2,-7.91728E-2,8.678824E-3,8.9977436E-2,7.369148E-2,6.8143667E-3,5.583427E-2,5.1695476E-3,3.9085124E-2,8.065694E-2,3.628669E-2,7.448117E-2,7.167332E-3,1.7400261E-2,-6.3771084E-2,6.680725E-2,8.898516E-2,-3.0545557E-2,5.49812E-2,4.86856E-2,8.8119535E-3,4.575214E-2,-3.690275E-2,7.1582995E-2,8.1287704E-2,-1.3967042E-2,6.6978656E-2,-6.0131162E-2,4.019963E-2,6.572369E-2,5.7392973E-3,-5.503078E-2,3.1927112E-2,4.902694E-2,1.8362548E-2,-5.8591466E-2,1.9799307E-2,6.5417564E-3,8.199818E-2,6.2728375E-2,7.608939E-3,8.994329E-3,-2.6153123E-2,-6.5275654E-3,-6.181822E-2,6.555441E-2,-1.9612232E-2,-5.4050077E-2,3.1401306E-2],"split_indices":[3,4,29,29,10,11,26,6,26,11,28,29,10,29,14,18,26,23,17,26,26,24,7,11,20,19,14,13,11,24,10,7,11,11,20,10,29,0,20,17,29,28,29,28,20,29,17,12,12,22,10,13,13,17,10,6,10,17,22,4,12,27,14,29,28,14,14,22,16,12,14,0,14,12,11,22,18,12,12,10,20,22,26,11,16,16,16,29,13,24,0,19,0,4,14,10,23,26,23,22,17,0,4,17,0,12,0,27,28,0,0,18,16,12,24,23,0,12,0,28,29,29,12,0,0,0,0,0,0,0,0,0,0,0,0,0,0,0,0,0,0,0,0,0,0,0,0,0,0,0,0,0,0,0,0,0,0,0,0,0,0,0,0,0,0,0,0,0,0,0,0,0,0,0,0,0,0,0,0,0,0,0,0,0,0,0,0,0,0,0,0,0,0,0,0,0,0,0,0,0,0,0,0,0,0,0,0,0,0,0,0,0,0,0,0,0,0,0,0,0,0,0,0,0,0],"split_type":[0,0,0,0,0,0,0,0,0,0,0,0,0,0,0,0,0,0,0,0,0,0,0,0,0,0,0,0,0,0,0,0,0,0,0,0,0,0,0,0,0,0,0,0,0,0,0,0,0,0,0,0,0,0,0,0,0,0,0,0,0,0,0,0,0,0,0,0,0,0,0,0,0,0,0,0,0,0,0,0,0,0,0,0,0,0,0,0,0,0,0,0,0,0,0,0,0,0,0,0,0,0,0,0,0,0,0,0,0,0,0,0,0,0,0,0,0,0,0,0,0,0,0,0,0,0,0,0,0,0,0,0,0,0,0,0,0,0,0,0,0,0,0,0,0,0,0,0,0,0,0,0,0,0,0,0,0,0,0,0,0,0,0,0,0,0,0,0,0,0,0,0,0,0,0,0,0,0,0,0,0,0,0,0,0,0,0,0,0,0,0,0,0,0,0,0,0,0,0,0,0,0,0,0,0,0,0,0,0,0,0,0,0,0,0,0,0,0,0,0,0,0,0,0,0],"sum_hessian":[7.7507993E3,4.260872E3,3.4899272E3,6.1147345E2,3.6493984E3,2.9220112E3,5.679159E2,4.992057E2,1.1226775E2,2.1404343E3,1.5089641E3,1.9036423E3,1.0183691E3,4.21596E2,1.4631984E2,4.1089517E2,8.831051E1,6.120281E1,5.1064945E1,3.5951434E2,1.7809199E3,5.0162485E2,1.0073393E3,1.7809735E3,1.226688E2,2.0518651E2,8.1318256E2,2.4113377E2,1.8046223E2,1.20237144E2,2.6082695E1,1.626318E2,2.4826337E2,6.901078E1,1.9299726E1,6.5647626E0,5.4638046E1,1.4956807E0,4.9569263E1,2.4499886E2,1.1451547E2,1.3108193E3,4.7010062E2,5.870425E1,4.429206E2,9.917932E2,1.5546086E1,1.1848076E3,5.9616583E2,8.311493E0,1.1435731E2,1.25651634E2,7.9534874E1,4.3252374E2,3.806588E2,2.4134614E0,2.3872032E2,1.5446713E2,2.5995111E1,1.3294967E1,1.0694218E2,1.4042794E1,1.2039902E1,3.687539E1,1.2575642E2,8.1071556E1,1.6719182E2,1.7783207E1,5.1227573E1,1.5060683E1,4.2390437E0,1.5807121E0,4.9840503E0,3.766608E1,1.6971966E1,4.2583744E1,6.985519E0,1.096849E1,2.3403036E2,3.2098137E1,8.2417336E1,4.703078E2,8.4051154E2,1.3860977E2,3.3149084E2,2.0044743E1,3.8659508E1,1.9371696E1,4.235489E2,5.4434766E2,4.474456E2,1.38017435E1,1.7443423E0,1.1823138E3,2.4937856E0,2.7399232E0,5.9342596E2,4.4846296E0,3.8268626E0,1.1169826E2,2.659045E0,1.7475698E0,1.2390407E2,3.4896476E0,7.604523E1,4.313601E2,1.1636118E0,3.7758243E2,3.0763721E0,1.1648408E0,1.2486206E0,2.3622472E2,2.4955964E0,1.1448852E2,3.997861E1,2.3999832E1,1.9952796E0,1.2213704E1,1.0812624E0,8.431771E1,2.2624472E1,1.0217302E1,3.8254917E0,1.0211932E1,1.827969E0,3.3631332E1,3.244055E0,3.359459E1,9.216183E1,7.882576E1,2.2457945E0,1.6303453E2,4.15729E0,9.051957E0,8.73125E0,4.3080578E1,8.1469965E0,1.4957225E0,1.35649605E1,1.5808091E0,2.6582346E0,2.9893045E0,1.994746E0,1.4222582E1,2.3443497E1,9.235164E0,7.736803E0,3.9092083E1,3.491661E0,5.075278E0,1.910241E0,8.723026E0,2.245463E0,1.1916641E2,1.1486395E2,8.981372E0,2.3116766E1,7.9757614E1,2.6597242E0,9.130357E1,3.790042E2,3.7244626E2,4.6806528E2,9.312437E1,4.5485405E1,3.2317862E2,8.312213E0,1.412841E0,1.8631903E1,3.48993E0,3.516958E1,4.902334E0,1.4469362E1,4.2238516E2,1.1637449E0,1.4473218E1,5.2987445E2,1.2638451E1,1.1632932E0,1.1517726E3,3.054122E1,1.1640848E0,1.3297008E0,1.1628044E0,1.5771189E0,5.9035315E2,3.0727549E0,3.321059E0,1.163571E0,2.0780993E0,1.7487633E0,9.285093E1,1.8847336E1,1.3305507E0,1.3284943E0,9.9049034E1,2.485503E1,1.9095845E0,1.580063E0,1.1689249E2,3.1446762E2,1.6624527E0,3.7591998E2,1.4979881E0,1.5783839E0,2.313212E2,4.903521E0,1.2489042E0,1.2466923E0,9.479225E1,1.9696268E1,4.6584616E0,3.532015E1,1.1635001E0,2.2836332E1,1.0467962E1,1.7457422E0,7.20105E1,1.2307214E1,1.3555884E1,9.068587E0,8.303292E0,1.9140102E0,2.5793393E0,1.2461524E0],"tree_param":{"num_deleted":"0","num_feature":"30","num_nodes":"225","size_leaf_vector":"1"}},{"base_weights":[5.3978125E-3,1.5789989E0,-1.5626061E0,1.6441939E0,1.3437136E0,-1.412079E0,-1.6781546E0,1.7151155E0,1.5078928E0,5.654134E-1,1.3758765E0,-1.4604757E0,-1.039151E0,-1.5766401E0,-1.7311114E0,1.7338485E0,1.5548099E0,1.3008318E0,1.570563E0,1.2448696E0,-1.03972614E-1,1.5533893E0,1.2357386E0,-1.2946076E0,-1.5227144E0,-1.0708243E0,7.1823883E-1,-1.2256469E0,-1.6064874E0,-1.3251055E0,-1.7382325E0,8.909553E-2,1.6916299E0,1.561998E0,6.2396103E-3,1.6250175E0,1.0666152E0,1.061327E0,1.5996857E0,1.4734049E0,-2.0164704E-2,-1.41008E0,5.2850467E-1,8.958384E-1,1.5685956E0,1.0598378E0,1.3850483E0,-1.843056E-1,-1.3110096E0,-1.5258843E0,1.3621203E-2,-6.616006E-1,-1.1628362E0,-6.1141136E-3,6.051285E-2,-1.2705331E0,1.1593799E-2,-1.6373328E0,-1.3562248E0,-1.490429E0,-5.14001E-1,-2.5705421E-2,-1.7390335E0,8.50674E-2,1.3716599E0,1.5199198E-2,1.5693687E0,4.1627958E-1,8.287296E-2,6.568998E-1,1.2259476E0,1.4245565E0,-3.5337317E-1,8.432587E-2,1.5178918E0,8.009926E-2,6.4028287E-1,-7.7231206E-2,-1.9669188E-2,9.030249E-1,-6.1374683E-2,8.482202E-2,1.1215146E0,8.219028E-2,1.4099184E0,1.0814408E0,-5.9500184E-2,1.4865168E0,1.1023965E0,3.7066424E-1,-4.666857E-2,1.0420316E-1,-1.3224015E0,-1.5279895E0,1.112807E-2,-9.373027E-1,2.0014483E-1,2.0335236E-1,-1.1900818E0,-1.579738E0,-1.0497551E0,-1.7252128E0,-1.5410221E0,-1.3804988E0,8.841342E-3,-1.5790336E0,-3.5407066E-3,3.7199005E-2,-9.6313334E-1,-9.312951E-1,-1.7406306E0,3.5663606E-3,7.082124E-2,7.882495E-2,1.675214E-2,-5.885213E-3,3.7748158E-2,-3.079353E-2,4.0296797E-2,6.92523E-2,4.915611E-2,8.0128185E-2,3.7635926E-2,1.6786344E-2,-5.4208346E-2,7.827443E-2,6.407442E-2,-1.923029E-2,6.0053278E-2,-1.5507728E-2,6.373858E-2,2.8921733E-2,-2.443858E-2,6.935381E-2,5.5475864E-3,-3.977369E-2,7.234797E-2,-6.6470183E-3,5.552088E-2,4.5631975E-3,7.476461E-2,4.1844618E-2,6.931951E-2,-2.1141822E-2,3.56407E-2,-2.823227E-2,3.094474E-2,-7.82594E-2,-6.296968E-2,-2.4707044E-2,-7.662594E-2,-2.7902855E-2,-7.769328E-2,3.455055E-2,-4.939224E-2,2.8780658E-2,-2.0012334E-2,-7.379139E-2,-4.9912784E-2,-1.9779794E-2,-8.0942184E-2,-1.693268E-2,-6.1065268E-2,-2.6379958E-2,-8.66398E-2,1.1390954E-2,-7.7430375E-2,-1.761977E-2,-7.060569E-2,-1.685928E-2,-8.136283E-2,-6.5694444E-2,-6.967835E-3,1.2153469E-2,-6.802076E-2,-8.54131E-2,-9.068782E-2],"categories":[],"categories_nodes":[],"categories_segments":[],"categories_sizes":[],"default_left":[0,0,0,0,0,0,0,0,0,0,0,0,0,0,0,0,0,0,0,0,0,0,0,0,0,0,0,0,0,0,0,0,0,0,0,0,0,0,0,0,0,0,0,0,0,0,0,0,0,0,0,0,0,0,0,0,0,0,0,0,0,0,0,0,0,0,0,0,0,0,0,0,0,0,0,0,0,0,0,0,0,0,0,0,0,0,0,0,0,0,0,0,0,0,0,0,0,0,0,0,0,0,0,0,0,0,0,0,0,0,0,0,0,0,0,0,0,0,0,0,0,0,0,0,0,0,0,0,0,0,0,0,0,0,0,0,0,0,0,0,0,0,0,0,0,0,0,0,0,0,0,0,0,0,0,0,0,0,0,0,0,0,0,0,0,0,0,0,0,0,0,0,0,0,0,0,0],"id":2,"left_children":[1,3,5,7,9,11,13,15,17,19,21,23,25,27,29,31,33,35,37,39,41,43,45,47,49,51,53,55,57,59,61,-1,63,65,-1,67,69,71,73,75,-1,77,79,81,83,85,87,89,91,93,-1,95,97,-1,-1,99,-1,101,103,105,107,-1,109,-1,111,-1,113,115,-1,117,119,121,123,-1,125,-1,127,-1,-1,129,-1,131,133,-1,135,137,-1,139,141,143,-1,145,147,149,-1,151,153,155,157,159,161,163,165,167,-1,169,-1,-1,171,173,175,-1,-1,-1,-1,-1,-1,-1,-1,-1,-1,-1,-1,-1,-1,-1,-1,-1,-1,-1,-1,-1,-1,-1,-1,-1,-1,-1,-1,-1,-1,-1,-1,-1,-1,-1,-1,-1,-1,-1,-1,-1,-1,-1,-1,-1,-1,-1,-1,-1,-1,-1,-1,-1,-1,-1,-1,-1,-1,-1,-1,-1,-1,-1,-1,-1,-1],"loss_changes":[1.8959375E4,5.6620117E1,6.4572266E1,2.6399902E1,2.0188477E1,2.876294E1,8.947266E0,3.2045898E0,1.1381348E1,1.601913E1,1.8071777E1,1.3333496E1,1.1689148E1,5.949463E0,1.7949219E0,5.3808594E-1,2.0180054E0,1.6959564E1,1.0008423E1,7.153757E0,1.604554E1,2.1009521E0,1.0455505E1,7.246521E0,6.5178223E0,6.501953E0,1.831866E0,4.446068E0,3.13208E0,3.0738754E0,4.6777344E-1,0E0,6.2597656E-1,1.5083618E0,0E0,3.2843018E0,8.714981E0,2.3971874E1,2.729004E0,6.3565063E-1,0E0,2.5625706E-1,9.793546E0,1.7822418E0,1.7565918E0,1.1624435E1,5.3103027E0,3.318029E0,6.6678467E0,4.2807617E0,0E0,9.161045E0,6.061508E0,0E0,0E0,2.5546417E0,0E0,2.5252686E0,3.292221E0,2.8140984E0,4.318394E0,0E0,1.6992188E-1,0E0,1.8323746E0,0E0,1.3432007E0,8.094582E-1,0E0,8.650734E0,2.650299E0,3.1635056E0,5.4662375E0,0E0,2.4209595E0,0E0,2.6110907E0,0E0,0E0,5.5641356E0,0E0,1.2212312E0,1.9776373E0,0E0,1.0693054E1,7.5792694E0,0E0,2.011383E0,3.95755E0,1.6106973E0,0E0,1.7819932E0,4.1765137E0,4.2509766E0,0E0,5.8649178E0,6.5017133E0,1.1091744E0,6.9368134E0,4.5836258E-1,4.342346E0,1.9182739E0,4.399292E0,2.1269226E0,0E0,7.596779E-1,0E0,0E0,1.3002071E0,2.7951593E0,1.7871094E-1,0E0,0E0,0E0,0E0,0E0,0E0,0E0,0E0,0E0,0E0,0E0,0E0,0E0,0E0,0E0,0E0,0E0,0E0,0E0,0E0,0E0,0E0,0E0,0E0,0E0,0E0,0E0,0E0,0E0,0E0,0E0,0E0,0E0,0E0,0E0,0E0,0E0,0E0,0E0,0E0,0E0,0E0,0E0,0E0,0E0,0E0,0E0,0E0,0E0,0E0,0E0,0E0,0E0,0E0,0E0,0E0,0E0,0E0,0E0,0E0,0E0,0E0,0E0,0E0,0E0,0E0],"parents":[2147483647,0,0,1,1,2,2,3,3,4,4,5,5,6,6,7,7,8,8,9,9,10,10,11,11,12,12,13,13,14,14,15,15,16,16,17,17,18,18,19,19,20,20,21,21,22,22,23,23,24,24,25,25,26,26,27,27,28,28,29,29,30,30,32,32,33,33,35,35,36,36,37,37,38,38,39,39,41,41,42,42,43,43,44,44,45,45,46,46,47,47,48,48,49,49,51,51,52,52,55,55,57,57,58,58,59,59,60,60,62,62,64,64,66,66,67,67,69,69,70,70,71,71,72,72,74,74,76,76,79,79,81,81,82,82,84,84,85,85,87,87,88,88,89,89,91,91,92,92,93,93,95,95,96,96,97,97,98,98,99,99,100,100,101,101,102,102,103,103,105,105,108,108,109,109,110,110],"right_children":[2,4,6,8,10,12,14,16,18,20,22,24,26,28,30,32,34,36,38,40,42,44,46,48,50,52,54,56,58,60,62,-1,64,66,-1,68,70,72,74,76,-1,78,80,82,84,86,88,90,92,94,-1,96,98,-1,-1,100,-1,102,104,106,108,-1,110,-1,112,-1,114,116,-1,118,120,122,124,-1,126,-1,128,-1,-1,130,-1,132,134,-1,136,138,-1,140,142,144,-1,146,148,150,-1,152,154,156,158,160,162,164,166,168,-1,170,-1,-1,172,174,176,-1,-1,-1,-1,-1,-1,-1,-1,-1,-1,-1,-1,-1,-1,-1,-1,-1,-1,-1,-1,-1,-1,-1,-1,-1,-1,-1,-1,-1,-1,-1,-1,-1,-1,-1,-1,-1,-1,-1,-1,-1,-1,-1,-1,-1,-1,-1,-1,-1,-1,-1,-1,-1,-1,-1,-1,-1,-1,-1,-1,-1,-1,-1,-1,-1,-1],"split_conditions":[1E0,5.7E1,4.65E2,1.5879279E0,1E0,1E0,6.27E2,6.6666665E0,2E0,1E0,1.25E1,1.7531574E0,8.6E1,3.4E1,7.5356693E0,7.5798774E-1,6.93E2,7.3027287E0,1E0,1.41E1,1.62E2,6.5E1,2.59E2,4.0330076E-1,2.2805256E1,5.5997853E0,1.2027124E0,7.6666665E0,1E0,2.4117076E0,5E0,8.909553E-2,1.23E1,3.010084E-1,6.2396103E-3,5.3E1,1E0,1E0,2.7E1,2.5333334E1,-2.0164704E-2,6.6E2,3.55E1,6.751401E0,2.571213E0,7.87E2,4.3333332E1,3.3333334E-1,2.6071197E-1,4.64E2,1.3621203E-2,1.85807E0,6.249369E-1,-6.1141136E-3,6.051285E-2,2.739853E1,1.1593799E-2,1.1950802E1,6.24E2,1E0,2.7190018E1,-2.5705421E-2,2.2971588E1,8.50674E-2,3.8185474E-1,1.5199198E-2,1.41E1,1.8027546E0,8.287296E-2,5.046226E0,3.1054919E0,1.2E1,1.221783E1,8.432587E-2,1E0,8.009926E-2,3.06E2,-7.7231206E-2,-1.9669188E-2,2.5197604E0,-6.1374683E-2,2.2268674E0,1.3861635E1,8.219028E-2,7.7E0,6.244391E-1,-5.9500184E-2,1.7890924E1,3.0533018E0,4.505949E0,-4.666857E-2,1E0,1E0,5.1E0,1.112807E-2,1.5709258E1,7.7E1,1.7171555E1,7.7E0,7.3E0,5.07E2,5.494337E-1,3.5455132E0,7E1,8.841342E-3,5.7E0,-3.5407066E-3,3.7199005E-2,1.11E1,1.1001353E1,5.4166668E1,3.5663606E-3,7.082124E-2,7.882495E-2,1.675214E-2,-5.885213E-3,3.7748158E-2,-3.079353E-2,4.0296797E-2,6.92523E-2,4.915611E-2,8.0128185E-2,3.7635926E-2,1.6786344E-2,-5.4208346E-2,7.827443E-2,6.407442E-2,-1.923029E-2,6.0053278E-2,-1.5507728E-2,6.373858E-2,2.8921733E-2,-2.443858E-2,6.935381E-2,5.5475864E-3,-3.977369E-2,7.234797E-2,-6.6470183E-3,5.552088E-2,4.5631975E-3,7.476461E-2,4.1844618E-2,6.931951E-2,-2.1141822E-2,3.56407E-2,-2.823227E-2,3.094474E-2,-7.82594E-2,-6.296968E-2,-2.4707044E-2,-7.662594E-2,-2.7902855E-2,-7.769328E-2,3.455055E-2,-4.939224E-2,2.8780658E-2,-2.0012334E-2,-7.379139E-2,-4.9912784E-2,-1.9779794E-2,-8.0942184E-2,-1.693268E-2,-6.1065268E-2,-2.6379958E-2,-8.66398E-2,1.1390954E-2,-7.7430375E-2,-1.761977E-2,-7.060569E-2,-1.685928E-2,-8.136283E-2,-6.5694444E-2,-6.967835E-3,1.2153469E-2,-6.802076E-2,-8.54131E-2,-9.068782E-2],"split_indices":[0,24,9,11,1,3,9,29,9,6,29,11,18,24,21,11,9,21,1,13,14,14,14,11,27,17,20,29,7,16,13,0,13,11,0,18,3,6,24,29,0,9,29,17,11,9,29,29,23,14,0,11,23,0,0,28,0,17,9,3,28,0,28,0,23,0,13,11,0,20,23,13,27,0,6,0,14,0,0,23,0,20,27,0,13,11,0,28,11,17,0,9,9,13,0,28,18,28,13,13,9,23,20,14,0,13,0,0,13,21,29,0,0,0,0,0,0,0,0,0,0,0,0,0,0,0,0,0,0,0,0,0,0,0,0,0,0,0,0,0,0,0,0,0,0,0,0,0,0,0,0,0,0,0,0,0,0,0,0,0,0,0,0,0,0,0,0,0,0,0,0,0,0,0,0,0,0],"split_type":[0,0,0,0,0,0,0,0,0,0,0,0,0,0,0,0,0,0,0,0,0,0,0,0,0,0,0,0,0,0,0,0,0,0,0,0,0,0,0,0,0,0,0,0,0,0,0,0,0,0,0,0,0,0,0,0,0,0,0,0,0,0,0,0,0,0,0,0,0,0,0,0,0,0,0,0,0,0,0,0,0,0,0,0,0,0,0,0,0,0,0,0,0,0,0,0,0,0,0,0,0,0,0,0,0,0,0,0,0,0,0,0,0,0,0,0,0,0,0,0,0,0,0,0,0,0,0,0,0,0,0,0,0,0,0,0,0,0,0,0,0,0,0,0,0,0,0,0,0,0,0,0,0,0,0,0,0,0,0,0,0,0,0,0,0,0,0,0,0,0,0,0,0,0,0,0,0],"sum_hessian":[7.681909E3,3.8341082E3,3.8478013E3,2.997536E3,8.3657214E2,1.6767235E3,2.171078E3,1.9640145E3,1.0335214E3,3.393635E1,8.026358E2,1.4815405E3,1.9518301E2,7.548516E2,1.4162262E3,1.7497306E3,2.1428395E2,2.4518637E2,7.88335E2,1.6414845E1,1.7521507E1,3.4964963E2,4.5298618E2,4.1018506E2,1.0713555E3,1.9211127E2,3.0717368E0,6.2455994E1,6.923956E2,2.7636238E1,1.38859E3,7.9896594E2,9.5076465E2,2.1312039E2,1.163561E0,1.00350426E2,1.4483595E2,4.4670868E1,7.436641E2,1.4509045E1,1.9057996E0,5.3154E0,1.2206107E1,9.257347E0,3.4039227E2,2.1169176E2,2.412944E2,6.149382E0,4.0403568E2,1.0696167E3,1.7387762E0,3.676942E1,1.5534186E2,1.4116553E0,1.6600816E0,6.0714508E1,1.7414856E0,6.1148627E2,8.090935E1,2.2261297E1,5.3749413E0,1.3282894E0,1.3872617E3,9.185496E2,3.2215008E1,1.4874401E0,2.1163295E2,2.9844599E0,9.736597E1,4.1988216E1,1.0284774E2,3.5539104E1,9.131762E0,3.5120706E2,3.9245706E2,1.1769694E1,2.7393508E0,4.235622E0,1.0797781E0,1.0460776E1,1.7453314E0,2.3147268E0,6.94262E0,2.245843E2,1.15807976E2,2.1019281E2,1.498946E0,1.7442043E2,6.687399E1,3.822513E0,2.326869E0,3.161318E0,4.0087436E2,1.0684563E3,1.1604E0,2.7790575E1,8.978845E0,2.911E0,1.5243085E2,2.2728027E1,3.798648E1,3.1089386E2,3.005924E2,7.974618E1,1.1631696E0,2.0847794E1,1.4135025E0,1.2414008E0,4.13354E0,3.890398E0,1.3833713E3,1.1584234E0,3.1056585E1,2.1014183E2,1.4911308E0,1.4114963E0,1.5729636E0,4.0729356E0,3.7915283E1,5.9294407E1,4.355333E1,2.699997E1,8.539135E0,4.97819E0,4.153572E0,3.2200366E2,7.04534E1,1.0798942E0,1.6594565E0,2.4924512E0,7.9683247E0,1.2395651E0,1.0751618E0,5.202815E0,1.7398044E0,1.5747248E0,1.1423325E2,4.814994E0,2.0537782E2,1.1614017E0,1.7325902E2,3.6601917E1,3.0272074E1,1.0806013E0,2.7419116E0,1.3325701E0,1.8287481E0,7.768666E1,3.2318768E2,5.140823E0,1.0633154E3,1.8386324E1,9.404252E0,6.6496196E0,2.3292248E0,1.8292204E0,1.0817796E0,5.8538242E1,9.389261E1,1.081953E0,2.1646074E1,7.9610023E0,3.0025476E1,2.4002206E0,3.0849365E2,1.1595579E0,2.9943286E2,2.7414784E0,7.70047E1,1.0780411E0,1.9769753E1,2.4818406E0,1.6516995E0,1.1571667E0,2.7332313E0,9.758003E2,4.0757095E2],"tree_param":{"num_deleted":"0","num_feature":"30","num_nodes":"177","size_leaf_vector":"1"}},{"base_weights":[-2.6336808E-3,-1.3533827E0,1.534548E0,-3.8493335E-1,-1.5344443E0,1.6209472E0,1.367054E0,6.2557894E-1,-7.981283E-1,-1.4309239E0,-1.643677E0,1.647492E0,1.2730901E0,1.482179E0,1.3015212E0,9.888409E-1,-6.5695643E-1,-9.02772E-1,1.0751944E0,-1.4478576E0,-5.7331795E-1,-1.6007216E0,-8.527805E-2,1.6983404E0,1.6041344E0,1.0398738E0,1.5251933E0,1.4873943E0,5.651002E-3,-4.8435344E-3,1.3041596E0,1.1715432E0,-3.1677258E-1,-1.2005934E0,4.1848314E-1,-6.369952E-1,-1.1717291E0,1.293101E0,-4.3436784E-2,-1.2090259E0,-1.4974947E0,-1.036656E-1,-1.0666522E0,-1.44816255E-2,-1.6018392E0,8.510458E-2,2.1400246E-1,8.0331646E-2,7.3771447E-1,1.6099442E0,9.1676176E-1,7.714586E-2,2.9963976E-2,1.4909182E0,4.6395618E-3,1.399866E0,1.2549497E0,1.2921118E0,4.7500297E-1,7.008388E-2,-7.744696E-1,6.674224E-1,-1.5058314E0,-1.1595485E-1,6.666005E-2,-1.1385188E-2,-7.7453524E-1,-7.9816544E-1,-1.3171363E0,7.370802E-2,4.590177E-1,-1.23796E0,-1.716017E-1,-1.4415966E0,-8.314359E-2,-4.224197E-1,5.769131E-1,-1.2394226E0,1.5765266E-2,-1.4786745E0,-8.1118934E-2,3.5630297E-2,-2.5295272E-2,6.6160046E-2,-1.7076742E-2,2.6809921E-2,8.333967E-2,-3.8207423E-2,9.614546E-1,1.4968106E0,7.304925E-1,1.4112263E0,2.1535772E-1,1.1590607E0,1.3907952E0,7.54453E-2,5.52949E-2,5.5227596E-2,-4.3855207E-3,-1.0435285E-2,-7.895499E-2,-1.1759749E-2,6.222995E-2,-2.58542E-2,-8.159823E-2,1.9743627E-2,-3.7038624E-2,5.627453E-3,-6.8113856E-2,5.2970525E-2,-4.0180944E-2,-5.1603865E-2,-4.930668E-3,1.3020212E-2,-6.716623E-2,6.04009E-2,-1.5546414E-2,-6.460702E-2,-4.2510998E-2,5.8331795E-2,-4.2390972E-2,-5.6588348E-2,-7.349735E-2,5.7224566E-3,-5.5815596E-2,6.3316345E-2,-1.4943996E-2,-7.788613E-2,-2.2395233E-2,-7.702198E-2,-2.5083203E-2,5.1761933E-2,2.07941E-2,4.4887286E-2,7.5128324E-2,-5.065773E-3,6.308764E-2,1.2996509E-2,7.0978224E-2,-3.39427E-2,5.094561E-2,6.1173912E-2,4.4502433E-2,1.8142892E-2,7.113763E-2],"categories":[],"categories_nodes":[],"categories_segments":[],"categories_sizes":[],"default_left":[0,0,0,0,0,0,0,0,0,0,0,0,0,0,0,0,0,0,0,0,0,0,0,0,0,0,0,0,0,0,0,0,0,0,0,0,0,0,0,0,0,0,0,0,0,0,0,0,0,0,0,0,0,0,0,0,0,0,0,0,0,0,0,0,0,0,0,0,0,0,0,0,0,0,0,0,0,0,0,0,0,0,0,0,0,0,0,0,0,0,0,0,0,0,0,0,0,0,0,0,0,0,0,0,0,0,0,0,0,0,0,0,0,0,0,0,0,0,0,0,0,0,0,0,0,0,0,0,0,0,0,0,0,0,0,0,0,0,0,0,0,0,0,0,0],"id":3,"left_children":[1,3,5,7,9,11,13,15,17,19,21,23,25,27,29,31,33,35,37,39,41,43,-1,45,47,49,51,53,-1,-1,55,57,59,61,63,65,67,69,-1,71,73,75,77,-1,79,-1,81,-1,83,85,87,-1,-1,89,-1,91,93,95,97,-1,99,101,103,105,-1,107,109,111,113,-1,115,117,119,121,-1,123,125,127,-1,129,-1,-1,-1,-1,-1,-1,-1,-1,131,133,135,137,139,141,143,-1,-1,-1,-1,-1,-1,-1,-1,-1,-1,-1,-1,-1,-1,-1,-1,-1,-1,-1,-1,-1,-1,-1,-1,-1,-1,-1,-1,-1,-1,-1,-1,-1,-1,-1,-1,-1,-1,-1,-1,-1,-1,-1,-1,-1,-1,-1,-1,-1,-1],"loss_changes":[1.5863185E4,7.12478E2,4.9495117E1,2.685042E2,3.6385742E1,1.9621094E1,7.293213E0,8.7700806E1,9.0365295E1,2.4824707E1,1.6826172E0,2.084961E0,8.476898E0,2.9466553E0,3.0307617E0,3.519893E1,2.4965189E1,3.0165497E1,1.1536224E1,1.871875E1,8.19835E0,9.9609375E-1,0E0,5.13208E0,1.4030762E0,4.9843674E0,3.8993835E-1,1.9968262E0,0E0,0E0,1.9440918E0,1.0160522E1,1.5801836E1,1.699945E1,7.385193E0,1.8895325E1,1.055896E1,2.7221794E0,0E0,8.887726E0,1.0817871E1,4.4694843E0,4.540966E0,0E0,1.184082E-1,0E0,1.6642715E0,0E0,3.7926304E0,2.3471832E-2,6.5962143E0,0E0,0E0,8.4814453E-1,0E0,3.1700745E0,5.2734985E0,2.7228546E0,7.363307E0,0E0,6.6897507E0,2.7062316E0,2.201439E0,3.565962E0,0E0,6.952355E0,1.04567795E1,1.0113087E1,6.642517E0,0E0,3.5279894E0,5.094116E0,9.483713E0,7.7871094E0,0E0,5.28481E0,4.385161E0,3.2459812E0,0E0,8.491516E0,0E0,0E0,0E0,0E0,0E0,0E0,0E0,0E0,2.6467667E0,1.303711E-1,2.4633632E0,2.0840454E0,3.3018785E0,4.384857E0,6.504669E0,0E0,0E0,0E0,0E0,0E0,0E0,0E0,0E0,0E0,0E0,0E0,0E0,0E0,0E0,0E0,0E0,0E0,0E0,0E0,0E0,0E0,0E0,0E0,0E0,0E0,0E0,0E0,0E0,0E0,0E0,0E0,0E0,0E0,0E0,0E0,0E0,0E0,0E0,0E0,0E0,0E0,0E0,0E0,0E0,0E0,0E0,0E0,0E0,0E0,0E0],"parents":[2147483647,0,0,1,1,2,2,3,3,4,4,5,5,6,6,7,7,8,8,9,9,10,10,11,11,12,12,13,13,14,14,15,15,16,16,17,17,18,18,19,19,20,20,21,21,23,23,24,24,25,25,26,26,27,27,30,30,31,31,32,32,33,33,34,34,35,35,36,36,37,37,39,39,40,40,41,41,42,42,44,44,46,46,48,48,49,49,50,50,53,53,55,55,56,56,57,57,58,58,60,60,61,61,62,62,63,63,65,65,66,66,67,67,68,68,70,70,71,71,72,72,73,73,75,75,76,76,77,77,79,79,88,88,89,89,90,90,91,91,92,92,93,93,94,94],"right_children":[2,4,6,8,10,12,14,16,18,20,22,24,26,28,30,32,34,36,38,40,42,44,-1,46,48,50,52,54,-1,-1,56,58,60,62,64,66,68,70,-1,72,74,76,78,-1,80,-1,82,-1,84,86,88,-1,-1,90,-1,92,94,96,98,-1,100,102,104,106,-1,108,110,112,114,-1,116,118,120,122,-1,124,126,128,-1,130,-1,-1,-1,-1,-1,-1,-1,-1,132,134,136,138,140,142,144,-1,-1,-1,-1,-1,-1,-1,-1,-1,-1,-1,-1,-1,-1,-1,-1,-1,-1,-1,-1,-1,-1,-1,-1,-1,-1,-1,-1,-1,-1,-1,-1,-1,-1,-1,-1,-1,-1,-1,-1,-1,-1,-1,-1,-1,-1,-1,-1,-1,-1],"split_conditions":[1E0,1E0,7.6E1,1E0,5.1E1,8.5E0,1.3E1,5.3E1,8.3E1,7.9E1,1.01E1,3E0,4.1666668E-2,2.8735394E1,2.962324E0,1E0,2.4883995E0,1.3E1,1.7567833E1,1E0,2.3487856E0,1.8E1,-8.527805E-2,7.4E1,2.9416666E1,9.647032E0,1.8545671E1,5.54E2,5.651002E-3,-4.8435344E-3,5.8E1,6.9E0,2.1678815E0,4.6E0,1E0,5.6639004E0,1.28E2,3.5E0,-4.3436784E-2,1E0,2.7436586E1,7E0,3.2248554E0,-1.44816255E-2,1.33E2,8.510458E-2,1E0,8.0331646E-2,7.3E0,4.9736624E0,2.595282E0,7.714586E-2,2.9963976E-2,8.2E1,4.6395618E-3,5.703811E0,2.5735556E1,2.7E0,5.8E1,7.008388E-2,9.458333E0,1.37E2,2.5431778E0,4.0085754E0,6.666005E-2,5.8E1,2.6E1,2.5056313E1,8.7576056E-1,7.370802E-2,2.047529E0,3.9E1,8.068328E0,1.9137943E0,-8.314359E-2,3E0,4.1671938E-1,8.4E1,1.5765266E-2,3.4076674E0,-8.1118934E-2,3.5630297E-2,-2.5295272E-2,6.6160046E-2,-1.7076742E-2,2.6809921E-2,8.333967E-2,-3.8207423E-2,1.529703E1,1.0305559E1,8.3E1,7.32427E-1,1.7647926E1,6E1,1.6354038E1,7.54453E-2,5.52949E-2,5.5227596E-2,-4.3855207E-3,-1.0435285E-2,-7.895499E-2,-1.1759749E-2,6.222995E-2,-2.58542E-2,-8.159823E-2,1.9743627E-2,-3.7038624E-2,5.627453E-3,-6.8113856E-2,5.2970525E-2,-4.0180944E-2,-5.1603865E-2,-4.930668E-3,1.3020212E-2,-6.716623E-2,6.04009E-2,-1.5546414E-2,-6.460702E-2,-4.2510998E-2,5.8331795E-2,-4.2390972E-2,-5.6588348E-2,-7.349735E-2,5.7224566E-3,-5.5815596E-2,6.3316345E-2,-1.4943996E-2,-7.788613E-2,-2.2395233E-2,-7.702198E-2,-2.5083203E-2,5.1761933E-2,2.07941E-2,4.4887286E-2,7.5128324E-2,-5.065773E-3,6.308764E-2,1.2996509E-2,7.0978224E-2,-3.39427E-2,5.094561E-2,6.1173912E-2,4.4502433E-2,1.8142892E-2,7.113763E-2],"split_indices":[1,4,14,5,26,8,26,24,18,18,8,8,10,28,27,6,23,26,25,6,12,18,0,14,10,27,17,14,0,0,24,8,12,8,7,17,14,8,0,3,28,10,17,0,14,0,6,0,8,27,12,0,0,18,0,12,28,8,19,0,10,14,12,12,0,24,19,28,12,0,17,26,17,12,0,14,23,18,0,23,0,0,0,0,0,0,0,0,21,25,19,12,27,26,25,0,0,0,0,0,0,0,0,0,0,0,0,0,0,0,0,0,0,0,0,0,0,0,0,0,0,0,0,0,0,0,0,0,0,0,0,0,0,0,0,0,0,0,0,0,0,0,0,0,0],"split_type":[0,0,0,0,0,0,0,0,0,0,0,0,0,0,0,0,0,0,0,0,0,0,0,0,0,0,0,0,0,0,0,0,0,0,0,0,0,0,0,0,0,0,0,0,0,0,0,0,0,0,0,0,0,0,0,0,0,0,0,0,0,0,0,0,0,0,0,0,0,0,0,0,0,0,0,0,0,0,0,0,0,0,0,0,0,0,0,0,0,0,0,0,0,0,0,0,0,0,0,0,0,0,0,0,0,0,0,0,0,0,0,0,0,0,0,0,0,0,0,0,0,0,0,0,0,0,0,0,0,0,0,0,0,0,0,0,0,0,0,0,0,0,0,0,0],"sum_hessian":[7.6379487E3,4.065575E3,3.5723738E3,6.408686E2,3.4247065E3,2.3509805E3,1.2213933E3,1.858467E2,4.5502188E2,1.7655685E3,1.659138E3,2.1808264E3,1.7015393E2,4.3521362E2,7.861797E2,1.4500488E2,4.0841812E1,4.3143976E2,2.3582111E1,1.7307072E3,3.4861385E1,9.952034E2,6.639346E2,9.861409E2,1.1946855E3,9.1049995E1,7.9103935E1,4.3347614E2,1.7374886E0,1.413316E0,7.8476636E2,1.2729449E2,1.7710398E1,2.7051067E1,1.3790744E1,2.1869704E2,2.1274272E2,2.150616E1,2.0759506E0,3.0216766E2,1.4285394E3,1.8479296E1,1.6382088E1,1.0692258E0,9.9413416E2,9.835088E2,2.6321652E0,1.1903987E3,4.28689E0,1.4025925E1,7.702407E1,7.696431E1,2.139623E0,4.3231473E2,1.1614276E0,2.571669E2,5.275994E2,1.0778268E2,1.9511818E1,3.291145E0,1.4419253E1,3.6327238E0,2.3418344E1,9.256011E0,4.5347333E0,3.9610203E1,1.7908684E2,6.1425217E1,1.513175E2,1.7039822E1,4.46634E0,2.9378073E2,8.386939E0,1.0749276E3,3.5361182E2,1.2843343E1,5.6359525E0,1.4653294E1,1.7287946E0,1.5252266E2,8.416115E2,1.5611005E0,1.0710647E0,2.6326528E0,1.6542373E0,1.2298026E0,1.2796123E1,1.5779792E0,7.544609E1,4.280296E2,4.285117E0,2.5453432E2,2.632585E0,3.1487308E2,2.1272636E2,4.6519978E1,6.12627E1,8.754552E0,1.0757265E1,9.205748E0,5.2135057E0,1.6480029E0,1.984721E0,3.226396E0,2.0191948E1,5.2950206E0,3.9609902E0,3.7121284E1,2.488916E0,2.2426708E0,1.7684418E2,4.567676E1,1.5748454E1,2.3249173E0,1.4899258E2,1.9755596E0,2.4907806E0,2.5571602E2,3.8064724E1,2.5719006E0,5.8150387E0,9.3543365E1,9.813843E2,7.7117643E0,5.131579E0,2.9040213E0,2.7319312E0,9.760286E0,4.8930073E0,1.4291136E2,9.611297E0,6.566759E1,9.778506E0,5.567261E0,4.2246234E2,1.9855628E0,2.2995543E0,2.0615325E0,2.524728E2,1.3194549E0,1.3131301E0,2.51178E2,6.3695084E1,6.786505E0,2.0593987E2],"tree_param":{"num_deleted":"0","num_feature":"30","num_nodes":"145","size_leaf_vector":"1"}},{"base_weights":[4.039944E-3,-1.0378193E0,1.2959903E0,-1.4892356E-1,-1.3142159E0,1.4462043E0,1.0210335E0,7.9549843E-1,-5.2776706E-1,-1.1526685E0,-1.5165385E0,1.5586852E0,1.2638736E0,1.1860512E0,8.859574E-1,1.0064842E0,-5.656049E-1,-2.971019E-1,-1.1864692E0,-1.1760027E0,1.2614253E-1,-1.5258417E0,-4.0663704E-1,1.5609949E0,4.7069743E-1,9.804028E-1,1.3855342E0,1.1971377E0,1.4104356E-1,8.35887E-1,1.1648748E0,1.4459722E0,6.601106E-1,9.884113E-1,-8.387541E-1,-2.0567392E-1,-7.15256E-1,5.6692164E-2,-1.2253994E0,-1.069655E0,-1.3950604E0,5.7954615E-1,-1.0037892E0,-1.294706E0,-1.5442208E0,-7.5504696E-1,5.921612E-1,1.600993E0,1.470538E0,2.678412E-3,3.0333925E-2,1.2836584E0,7.097791E-1,1.3879932E0,3.895885E-3,1.2073411E0,3.5188872E-1,-5.9653897E-2,6.561816E-1,9.7483146E-1,7.208626E-1,1.3349226E0,8.0305E-1,1.4890759E0,1.0836611E-1,8.2435536E-1,1.7081924E-1,7.357104E-2,-1.135414E-2,-2.0661902E-1,-1.1990553E0,-7.1714044E-1,-1.3572021E-1,-1.1981072E0,-4.707161E-1,-9.197847E-1,-1.4622331E0,-1.2925599E0,-9.345104E-1,-8.306064E-1,-1.4113632E0,6.9242084E-1,-3.1604197E-2,-2.6241463E-1,-1.3387468E0,-8.371501E-1,-1.6585261E0,-7.203586E-2,-1.5466955E0,2.9015658E-2,-1.003726E0,-1.6075145E-2,5.1969517E-2,8.105808E-2,1.4689387E0,7.39026E-2,1.8800995E-1,1.023346E0,1.4253969E0,9.124836E-1,5.470453E-1,1.3575324E0,1.5959307E0,1.2115947E0,-2.249364E-2,-7.2129315E-1,1.0499771E0,6.353867E-2,-1.776642E-1,1.0564197E0,5.305588E-1,-4.0380214E-3,7.6124716E-1,-5.983667E-3,1.3687085E0,7.510805E-2,1.2920848E0,7.634242E-2,4.7881924E-2,-4.371611E-2,5.5731248E-2,4.8343983E-2,1.4836567E-2,5.3257257E-2,-6.0099913E-3,-4.6862826E-2,5.323372E-2,2.8822382E-3,-7.1937144E-2,3.4506585E-2,-4.4207048E-2,7.2974763E-3,-1.6042802E-2,-6.453586E-2,5.7952623E-3,-5.784774E-2,-4.3621366E-3,-5.217095E-2,-3.4390904E-3,-4.0545765E-2,-7.726244E-2,-6.622604E-2,-2.091599E-2,-3.3666756E-2,-5.212894E-2,-5.357617E-2,2.241484E-2,-6.292E-2,-7.287255E-2,4.6000447E-2,4.3998775E-3,-5.3320896E-2,2.7055565E-2,-7.379061E-2,-1.650421E-2,-2.5839258E-2,-7.276851E-2,-2.8442075E-2,-8.387837E-2,1.01697305E-2,-1.6211571E-2,-5.9939403E-2,-7.787898E-2,-1.7078886E-2,-6.36253E-2,8.954201E-4,7.4705526E-2,-3.622682E-2,5.106702E-2,6.211068E-2,-1.7211819E-2,7.945529E-2,5.584489E-2,5.47504E-2,2.6479721E-2,-4.7333367E-2,3.1082574E-2,6.917402E-2,4.4512104E-2,8.167974E-2,1.23018995E-2,5.952313E-2,8.034852E-2,5.879387E-3,-5.7814516E-2,6.417515E-2,1.4304228E-2,-2.1135107E-2,7.0122825E-3,5.674642E-2,4.013233E-2,5.6690693E-2,1.4648082E-2,-2.4974963E-2,3.289043E-2,5.251158E-2,3.200421E-2,7.069456E-2,1.1317353E-2,6.08308E-2,-1.1631525E-2,-4.356805E-3,6.995642E-2],"categories":[],"categories_nodes":[],"categories_segments":[],"categories_sizes":[],"default_left":[0,0,0,0,0,0,0,0,0,0,0,0,0,0,0,0,0,0,0,0,0,0,0,0,0,0,0,0,0,0,0,0,0,0,0,0,0,0,0,0,0,0,0,0,0,0,0,0,0,0,0,0,0,0,0,0,0,0,0,0,0,0,0,0,0,0,0,0,0,0,0,0,0,0,0,0,0,0,0,0,0,0,0,0,0,0,0,0,0,0,0,0,0,0,0,0,0,0,0,0,0,0,0,0,0,0,0,0,0,0,0,0,0,0,0,0,0,0,0,0,0,0,0,0,0,0,0,0,0,0,0,0,0,0,0,0,0,0,0,0,0,0,0,0,0,0,0,0,0,0,0,0,0,0,0,0,0,0,0,0,0,0,0,0,0,0,0,0,0,0,0,0,0,0,0,0,0,0,0,0,0,0,0,0,0,0,0,0,0,0,0,0,0,0,0,0,0,0,0,0,0,0,0],"id":4,"left_children":[1,3,5,7,9,11,13,15,17,19,21,23,25,27,29,31,33,35,37,39,41,43,45,47,49,51,53,55,57,59,61,63,65,67,69,71,73,-1,75,77,79,81,83,85,87,89,91,93,95,-1,-1,97,99,101,-1,103,105,-1,107,109,111,113,115,117,119,121,123,-1,-1,125,127,129,131,133,135,137,139,141,143,145,147,149,-1,151,153,155,157,159,161,-1,163,-1,-1,-1,165,-1,167,169,171,173,175,177,179,181,-1,183,185,-1,187,189,191,193,195,-1,197,199,201,-1,-1,-1,-1,-1,-1,-1,-1,-1,-1,-1,-1,-1,-1,-1,-1,-1,-1,-1,-1,-1,-1,-1,-1,-1,-1,-1,-1,-1,-1,-1,-1,-1,-1,-1,-1,-1,-1,-1,-1,-1,-1,-1,-1,-1,-1,-1,-1,-1,-1,-1,-1,-1,-1,-1,-1,-1,-1,-1,-1,-1,-1,-1,-1,-1,-1,-1,-1,-1,-1,-1,-1,-1,-1,-1,-1,-1,-1,-1,-1,-1,-1,-1,-1,-1,-1],"loss_changes":[1.0189018E4,1.0293403E3,1.3809473E2,3.5643973E2,1.0272412E2,4.2799805E1,2.5636963E1,8.249361E1,1.0764307E2,5.3306885E1,1.4E1,2.6467285E0,2.7547485E1,6.0405884E0,8.276062E0,3.6699097E1,1.7352547E1,2.0029934E1,1.8011292E1,3.9267334E1,1.7399185E1,3.9638672E0,5.0172415E0,2.5031738E0,2.1041667E-1,2.0025986E1,1.7697754E0,4.147888E0,5.4286847E0,8.328217E0,4.973877E0,6.075943E0,1.11237335E1,4.020107E0,7.4159603E0,1.5447908E1,1.0569107E1,0E0,1.178891E1,3.44021E1,4.0594482E0,3.728197E0,2.0739183E0,1.6855011E1,4.6069336E0,3.9617019E0,1.9509975E0,6.7871094E-2,3.8070068E0,0E0,0E0,2.9345398E0,4.0216675E0,1.5253906E0,0E0,4.2351685E0,6.552502E0,0E0,3.0556672E0,8.61322E0,9.165604E0,3.3747787E0,1.198027E1,6.4004517E-1,5.3805666E0,7.5850525E0,9.624726E0,0E0,0E0,1.34669285E1,6.4759884E0,1.2840622E1,2.004206E1,3.9282227E0,1.6803055E1,8.547302E0,4.1829224E0,1.1839905E1,2.0171082E1,6.1463165E0,2.0510254E0,3.0123425E0,0E0,3.3440728E0,4.0916634E-1,9.261902E0,2.9129028E-1,2.897786E-1,3.0290527E0,0E0,1.1572781E0,0E0,0E0,0E0,4.8125305E0,0E0,3.4888196E0,1.4053181E1,1.9900818E0,3.5806198E0,9.338411E0,5.014099E0,3.0951538E0,2.4517212E0,0E0,1.4647628E0,5.4151344E-1,0E0,3.101519E-1,3.328949E0,5.5839443E0,6.070787E0,9.708511E0,0E0,2.97995E0,5.4450693E0,3.1088066E0,0E0,0E0,0E0,0E0,0E0,0E0,0E0,0E0,0E0,0E0,0E0,0E0,0E0,0E0,0E0,0E0,0E0,0E0,0E0,0E0,0E0,0E0,0E0,0E0,0E0,0E0,0E0,0E0,0E0,0E0,0E0,0E0,0E0,0E0,0E0,0E0,0E0,0E0,0E0,0E0,0E0,0E0,0E0,0E0,0E0,0E0,0E0,0E0,0E0,0E0,0E0,0E0,0E0,0E0,0E0,0E0,0E0,0E0,0E0,0E0,0E0,0E0,0E0,0E0,0E0,0E0,0E0,0E0,0E0,0E0,0E0,0E0,0E0,0E0,0E0,0E0,0E0,0E0,0E0,0E0,0E0,0E0,0E0,0E0,0E0,0E0],"parents":[2147483647,0,0,1,1,2,2,3,3,4,4,5,5,6,6,7,7,8,8,9,9,10,10,11,11,12,12,13,13,14,14,15,15,16,16,17,17,18,18,19,19,20,20,21,21,22,22,23,23,24,24,25,25,26,26,27,27,28,28,29,29,30,30,31,31,32,32,33,33,34,34,35,35,36,36,38,38,39,39,40,40,41,41,42,42,43,43,44,44,45,45,46,46,47,47,48,48,51,51,52,52,53,53,55,55,56,56,58,58,59,59,60,60,61,61,62,62,63,63,64,64,65,65,66,66,69,69,70,70,71,71,72,72,73,73,74,74,75,75,76,76,77,77,78,78,79,79,80,80,81,81,83,83,84,84,85,85,86,86,87,87,88,88,90,90,94,94,96,96,97,97,98,98,99,99,100,100,101,101,102,102,103,103,105,105,106,106,108,108,109,109,110,110,111,111,112,112,114,114,115,115,116,116],"right_children":[2,4,6,8,10,12,14,16,18,20,22,24,26,28,30,32,34,36,38,40,42,44,46,48,50,52,54,56,58,60,62,64,66,68,70,72,74,-1,76,78,80,82,84,86,88,90,92,94,96,-1,-1,98,100,102,-1,104,106,-1,108,110,112,114,116,118,120,122,124,-1,-1,126,128,130,132,134,136,138,140,142,144,146,148,150,-1,152,154,156,158,160,162,-1,164,-1,-1,-1,166,-1,168,170,172,174,176,178,180,182,-1,184,186,-1,188,190,192,194,196,-1,198,200,202,-1,-1,-1,-1,-1,-1,-1,-1,-1,-1,-1,-1,-1,-1,-1,-1,-1,-1,-1,-1,-1,-1,-1,-1,-1,-1,-1,-1,-1,-1,-1,-1,-1,-1,-1,-1,-1,-1,-1,-1,-1,-1,-1,-1,-1,-1,-1,-1,-1,-1,-1,-1,-1,-1,-1,-1,-1,-1,-1,-1,-1,-1,-1,-1,-1,-1,-1,-1,-1,-1,-1,-1,-1,-1,-1,-1,-1,-1,-1,-1,-1,-1,-1,-1,-1,-1],"split_conditions":[1E0,1E0,7.4E1,5.5997853E0,6.18E2,4.1E0,2.6E1,1.8743887E1,2.4535688E1,8.1E1,1E0,6.077362E0,1E0,5.09E2,1.31E1,2.6868606E0,2.4580123E0,1.3327726E1,4.59974E0,5.1E1,3.3E1,1.3E1,2.7603798E1,3E0,1E0,7.851278E0,1.9448236E1,7.26E2,6.45E2,2.173114E1,1.48300905E1,3.758729E0,2.577744E0,4.8E0,2.2827913E1,3.7012122E0,9.126411E0,5.6692164E-2,2.737769E1,1E0,3.2E1,2.318699E0,2.716122E0,7.75E2,5.7E0,9.3E1,1.02E1,4.041452E0,1.6798267E1,2.678412E-3,3.0333925E-2,2.025257E0,2.685316E0,1.5971014E1,3.895885E-3,5.9594765E0,8.6E0,-5.9653897E-2,1.4195734E1,2.27E2,1.87E2,7.477456E0,5.0970507E0,2.9374797E0,2.89E2,1E0,4.3E0,7.357104E-2,-1.135414E-2,6E0,1.5E1,6.1227244E-1,5.6E0,9.4E0,1.51E2,1.5018402E1,2.49E2,1E0,5.6E0,6.70312E0,5.8E0,2.79E2,-3.1604197E-2,1.33E2,1.21E1,5.65E2,7.262785E0,4E0,8.755865E0,2.9015658E-2,1.151017E1,-1.6075145E-2,5.1969517E-2,8.105808E-2,1.6E1,7.39026E-2,6.5E1,2.0152457E0,1.9224705E0,3.31137E0,1.0637301E1,1.6212358E1,1.5164752E1,2.7679441E1,-2.249364E-2,3.112065E0,2E0,6.353867E-2,1E0,5.9E1,2.0437846E0,6.8E0,5E0,-5.983667E-3,6.077362E0,1.04E2,1.51E1,7.634242E-2,4.7881924E-2,-4.371611E-2,5.5731248E-2,4.8343983E-2,1.4836567E-2,5.3257257E-2,-6.0099913E-3,-4.6862826E-2,5.323372E-2,2.8822382E-3,-7.1937144E-2,3.4506585E-2,-4.4207048E-2,7.2974763E-3,-1.6042802E-2,-6.453586E-2,5.7952623E-3,-5.784774E-2,-4.3621366E-3,-5.217095E-2,-3.4390904E-3,-4.0545765E-2,-7.726244E-2,-6.622604E-2,-2.091599E-2,-3.3666756E-2,-5.212894E-2,-5.357617E-2,2.241484E-2,-6.292E-2,-7.287255E-2,4.6000447E-2,4.3998775E-3,-5.3320896E-2,2.7055565E-2,-7.379061E-2,-1.650421E-2,-2.5839258E-2,-7.276851E-2,-2.8442075E-2,-8.387837E-2,1.01697305E-2,-1.6211571E-2,-5.9939403E-2,-7.787898E-2,-1.7078886E-2,-6.36253E-2,8.954201E-4,7.4705526E-2,-3.622682E-2,5.106702E-2,6.211068E-2,-1.7211819E-2,7.945529E-2,5.584489E-2,5.47504E-2,2.6479721E-2,-4.7333367E-2,3.1082574E-2,6.917402E-2,4.4512104E-2,8.167974E-2,1.23018995E-2,5.952313E-2,8.034852E-2,5.879387E-3,-5.7814516E-2,6.417515E-2,1.4304228E-2,-2.1135107E-2,7.0122825E-3,5.674642E-2,4.013233E-2,5.6690693E-2,1.4648082E-2,-2.4974963E-2,3.289043E-2,5.251158E-2,3.200421E-2,7.069456E-2,1.1317353E-2,6.08308E-2,-1.1631525E-2,-4.356805E-3,6.995642E-2],"split_indices":[3,6,14,17,9,8,26,25,25,18,5,12,9,14,13,17,17,17,27,26,26,26,25,8,9,21,17,9,9,25,21,12,12,8,25,20,20,0,25,9,14,20,12,9,13,14,8,25,25,0,0,12,23,22,0,12,8,0,17,14,9,17,12,25,9,5,8,0,0,8,26,23,8,8,9,17,14,5,8,25,8,9,0,9,13,14,21,8,21,0,21,0,0,0,14,0,14,23,16,16,27,27,25,25,0,16,26,0,5,26,23,13,8,0,12,14,13,0,0,0,0,0,0,0,0,0,0,0,0,0,0,0,0,0,0,0,0,0,0,0,0,0,0,0,0,0,0,0,0,0,0,0,0,0,0,0,0,0,0,0,0,0,0,0,0,0,0,0,0,0,0,0,0,0,0,0,0,0,0,0,0,0,0,0,0,0,0,0,0,0,0,0,0,0,0,0,0,0,0,0,0,0,0],"split_type":[0,0,0,0,0,0,0,0,0,0,0,0,0,0,0,0,0,0,0,0,0,0,0,0,0,0,0,0,0,0,0,0,0,0,0,0,0,0,0,0,0,0,0,0,0,0,0,0,0,0,0,0,0,0,0,0,0,0,0,0,0,0,0,0,0,0,0,0,0,0,0,0,0,0,0,0,0,0,0,0,0,0,0,0,0,0,0,0,0,0,0,0,0,0,0,0,0,0,0,0,0,0,0,0,0,0,0,0,0,0,0,0,0,0,0,0,0,0,0,0,0,0,0,0,0,0,0,0,0,0,0,0,0,0,0,0,0,0,0,0,0,0,0,0,0,0,0,0,0,0,0,0,0,0,0,0,0,0,0,0,0,0,0,0,0,0,0,0,0,0,0,0,0,0,0,0,0,0,0,0,0,0,0,0,0,0,0,0,0,0,0,0,0,0,0,0,0,0,0,0,0,0,0],"sum_hessian":[7.567679E3,4.189425E3,3.3782542E3,9.9405786E2,3.195367E3,2.1819531E3,1.196301E3,2.8427832E2,7.0977954E2,1.7804435E3,1.4149236E3,1.3447935E3,8.3715967E2,5.349686E2,6.6133246E2,2.4635168E2,3.7926632E1,5.267667E2,1.8301279E2,1.7486171E3,3.182636E1,1.4027906E3,1.2132896E1,1.3415109E3,3.282584E0,2.5411842E2,5.8304126E2,5.292087E2,5.759932E0,5.640693E2,9.726317E1,1.07181854E2,1.3916983E2,5.2783227E0,3.264831E1,4.3347968E2,9.3287056E1,2.5558207E0,1.8045697E2,1.1811013E3,5.675158E2,2.3060183E1,8.766179E0,1.0859129E2,1.2941993E3,9.176064E0,2.9568336E0,9.1861755E2,4.2289328E2,1.1497138E0,2.13287E0,1.18069145E2,1.3604929E2,5.818855E2,1.155749E0,5.2247327E2,6.7353826E0,1.2379118E0,4.5220203E0,2.520857E2,3.119836E2,6.433708E1,3.2926086E1,1.037261E2,3.4557564E0,1.0368138E2,3.548844E1,3.6266298E0,1.6516927E0,1.2424118E1,2.0224194E1,5.1041092E1,3.824386E2,3.0051004E1,6.323605E1,8.091997E1,9.9536995E1,4.4257022E2,7.3853107E2,1.7389427E1,5.5012634E2,2.1486988E1,1.5731936E0,3.2830672E0,5.4831123E0,4.9561543E1,5.902975E1,2.2223454E0,1.291977E3,1.2311945E0,7.944869E0,1.0640868E0,1.8927468E0,7.871251E2,1.3149243E2,4.2027856E2,2.6147175E0,4.4521797E1,7.354735E1,5.8532635E1,7.751665E1,5.141031E2,6.778244E1,5.214039E2,1.06943E0,2.6414304E0,4.093952E0,2.3016112E0,2.2204092E0,2.1181004E2,4.0275646E1,1.6511053E1,2.9547253E2,1.4027327E0,6.293435E1,1.3694714E1,1.9231375E1,9.509414E1,8.631963E0,1.8146899E0,1.6410666E0,8.09754E1,2.270598E1,8.059836E0,2.7428606E1,8.05659E0,4.367528E0,3.3611135E0,1.686308E1,5.0821924E0,4.59589E1,1.517597E2,2.306789E2,2.808905E1,1.9619536E0,2.1945961E1,4.129009E1,7.045771E1,1.04622555E1,1.2469908E1,8.7067085E1,4.2646423E2,1.6106005E1,2.1826584E2,5.2026526E2,1.4769361E1,2.6200655E0,1.3392822E2,4.1619815E2,1.5230142E1,6.256847E0,1.4775082E0,1.8055589E0,4.4194264E0,1.0636859E0,3.3854095E1,1.5707448E1,1.5440106E0,5.748574E1,1.154732E0,1.0676135E0,4.256463E1,1.2494124E3,2.949507E0,4.995362E0,2.271359E0,1.2922107E2,1.3103547E0,1.3043628E0,3.8458565E1,6.063231E0,4.5337402E1,2.8209944E1,3.837791E1,2.0154724E1,3.1314826E0,7.438516E1,4.8519995E2,2.8903128E1,6.573808E1,2.044358E0,4.987572E2,2.264667E1,1.1511494E0,1.4902809E0,2.6144779E0,1.4794742E0,1.0677681E0,1.152641E0,1.591136E2,5.2696445E1,1.031473E1,2.9960917E1,9.582698E0,6.9283547E0,8.50213E1,2.1045125E2,6.0311222E1,2.6231246E0,2.28085E0,1.1413863E1,1.398474E0,1.7832901E1],"tree_param":{"num_deleted":"0","num_feature":"30","num_nodes":"203","size_leaf_vector":"1"}},{"base_weights":[1.1764973E-3,1.4121786E0,-1.3932654E0,1.5299525E0,1.3106437E0,-1.2916114E0,-1.5324143E0,1.5604404E0,1.3838176E0,7.504756E-1,1.3435593E0,-5.9935683E-1,-1.3043852E0,-1.2199454E0,-1.5497793E0,7.807577E-2,2.8853297E-2,5.9366715E-1,1.3897142E0,1.0160363E0,-8.5324866E-1,1.3905009E0,1.2323238E0,1.7877063E-1,-7.2829276E-1,-1.3346416E0,-1.0257943E0,-8.986363E-1,-1.4017881E0,-1.5619053E0,-1.2233483E0,5.6837466E-2,-2.3196977E-2,7.8227544E-1,1.3989097E0,1.1643085E0,3.6701062E-1,-1.1069125E0,5.9695642E-2,1.2435895E0,1.4275967E0,-4.1437292E-1,1.2402039E0,-3.6208566E-2,5.994017E-1,-4.953561E-1,-1.1349909E0,-1.3066658E0,-1.5292612E0,-5.746641E-1,-1.0940382E0,-9.837346E-1,1.1994271E-1,-9.285508E-1,-1.5024513E0,-1.2508399E-2,-1.5626945E0,-4.3239248E-1,-1.3565049E0,-2.6550865E-2,1.1190032E0,2.2283038E-2,7.006257E-2,1.2214739E0,-3.291424E-1,9.4310385E-1,-4.29178E-1,1.23279635E-2,-1.297658E0,1.3526553E0,9.494097E-1,1.4906137E0,1.3447375E0,4.782984E-3,-3.5572294E-2,5.086019E-1,1.255313E0,9.068572E-1,-1.4643055E-2,-6.4646673E-1,3.2712358E-1,-4.8624113E-2,-7.269191E-2,-1.9779293E-1,-1.3108766E0,-1.9564724E-1,-1.5437417E0,-8.6597806E-1,3.400075E-1,6.289416E-3,-1.1063199E0,-1.0619137E0,7.2707175E-3,-2.7088422E-2,3.770994E-2,-6.92661E-2,3.1858876E-1,-1.521945E0,-1.9206127E-2,-7.445182E-2,-1.585534E0,-8.3449864E-1,4.102484E-1,1.4432793E-2,-1.4013078E0,6.818815E-2,3.7767317E-3,7.248549E-2,5.128895E-2,-5.3715188E-2,3.204508E-2,5.170069E-2,2.4188412E-3,-4.372018E-2,1.7799336E-2,-7.661646E-2,-8.41672E-3,6.860634E-2,3.5799284E-2,-4.004551E-2,4.9802117E-2,7.483838E-2,-1.2401549E-2,6.792244E-2,2.9009929E-2,-2.0406207E-2,3.791624E-2,7.190474E-2,6.023215E-2,6.622644E-2,3.2555533E-3,-4.3511815E-2,2.0180123E-3,4.07778E-2,-2.392015E-2,-3.4364056E-2,3.5343442E-2,-3.8661063E-2,4.3231614E-2,-6.137323E-2,-6.806238E-2,2.8793423E-2,-4.8175883E-2,-7.805183E-2,-5.3507537E-2,-5.2900728E-2,8.611492E-3,-5.3949695E-2,3.7932318E-2,-5.648885E-2,-1.9310987E-2,1.5082287E-2,-5.6301832E-2,5.3083207E-2,-2.732319E-2,-7.7239364E-2,-2.813836E-2,-2.5951585E-2,-7.932856E-2,9.073957E-3,-5.3380925E-2,6.546924E-2,-2.8119925E-2,-7.3449925E-2,-8.8826055E-3],"categories":[],"categories_nodes":[],"categories_segments":[],"categories_sizes":[],"default_left":[0,0,0,0,0,0,0,0,0,0,0,0,0,0,0,0,0,0,0,0,0,0,0,0,0,0,0,0,0,0,0,0,0,0,0,0,0,0,0,0,0,0,0,0,0,0,0,0,0,0,0,0,0,0,0,0,0,0,0,0,0,0,0,0,0,0,0,0,0,0,0,0,0,0,0,0,0,0,0,0,0,0,0,0,0,0,0,0,0,0,0,0,0,0,0,0,0,0,0,0,0,0,0,0,0,0,0,0,0,0,0,0,0,0,0,0,0,0,0,0,0,0,0,0,0,0,0,0,0,0,0,0,0,0,0,0,0,0,0,0,0,0,0,0,0,0,0,0,0,0,0,0,0,0,0,0,0,0,0,0,0,0,0,0,0],"id":5,"left_children":[1,3,5,7,9,11,13,15,17,19,21,23,25,27,29,-1,-1,31,33,35,37,39,41,43,45,47,49,51,53,55,57,-1,-1,59,61,63,65,67,-1,69,71,73,75,-1,77,79,81,83,85,87,89,91,93,95,97,-1,99,101,103,-1,105,-1,-1,107,109,111,113,-1,115,117,119,121,123,-1,-1,125,127,129,-1,131,133,135,-1,137,139,141,143,145,147,-1,149,151,-1,-1,-1,-1,153,155,-1,-1,157,159,161,-1,163,-1,-1,-1,-1,-1,-1,-1,-1,-1,-1,-1,-1,-1,-1,-1,-1,-1,-1,-1,-1,-1,-1,-1,-1,-1,-1,-1,-1,-1,-1,-1,-1,-1,-1,-1,-1,-1,-1,-1,-1,-1,-1,-1,-1,-1,-1,-1,-1,-1,-1,-1,-1,-1,-1,-1,-1,-1,-1,-1,-1],"loss_changes":[1.4757831E4,4.257666E1,5.1381348E1,5.5041504E0,3.60354E1,1.8551025E1,6.7214355E0,5.949707E-1,5.9954834E-1,4.9318832E1,8.188232E0,4.2899313E0,1.6718262E1,3.8970337E0,4.026367E0,0E0,0E0,2.830927E0,5.9661865E-1,9.009369E0,9.996796E0,5.449707E0,7.930298E0,2.9774237E0,2.8259354E0,8.522217E0,5.976242E0,3.1243076E0,1.2047272E0,1.1022949E0,5.557312E0,0E0,0E0,3.5938468E0,3.845215E-2,7.177704E0,9.439182E0,4.291363E0,0E0,7.5401E0,3.4870605E0,5.9406805E-1,5.6521606E0,0E0,1.6689142E0,3.2582855E0,4.172534E0,7.661133E0,4.274292E0,8.366985E0,2.9143677E0,2.9896317E0,1.905042E0,7.3857813E0,3.6118317E-1,0E0,6.4453125E-2,3.68777E0,4.0501633E0,0E0,1.3580403E0,0E0,0E0,1.9365005E0,3.37287E0,9.0495205E-1,3.4420834E0,0E0,3.3576012E0,1.4756775E0,7.143181E0,6.6644287E0,4.081665E0,0E0,0E0,3.330442E0,3.425232E0,1.3371449E0,0E0,3.269658E0,2.1484358E0,2.3261566E0,0E0,5.311595E0,5.428711E0,2.7412598E0,2.4841309E-1,4.819586E0,5.5924997E0,0E0,2.6631927E0,2.976574E0,0E0,0E0,0E0,0E0,3.2034063E0,5.7518005E-2,0E0,0E0,3.7695312E-1,1.8548508E0,4.112083E0,0E0,3.7414322E0,0E0,0E0,0E0,0E0,0E0,0E0,0E0,0E0,0E0,0E0,0E0,0E0,0E0,0E0,0E0,0E0,0E0,0E0,0E0,0E0,0E0,0E0,0E0,0E0,0E0,0E0,0E0,0E0,0E0,0E0,0E0,0E0,0E0,0E0,0E0,0E0,0E0,0E0,0E0,0E0,0E0,0E0,0E0,0E0,0E0,0E0,0E0,0E0,0E0,0E0,0E0,0E0,0E0,0E0,0E0,0E0,0E0,0E0,0E0,0E0],"parents":[2147483647,0,0,1,1,2,2,3,3,4,4,5,5,6,6,7,7,8,8,9,9,10,10,11,11,12,12,13,13,14,14,17,17,18,18,19,19,20,20,21,21,22,22,23,23,24,24,25,25,26,26,27,27,28,28,29,29,30,30,33,33,34,34,35,35,36,36,37,37,39,39,40,40,41,41,42,42,44,44,45,45,46,46,47,47,48,48,49,49,50,50,51,51,52,52,53,53,54,54,56,56,57,57,58,58,60,60,63,63,64,64,65,65,66,66,68,68,69,69,70,70,71,71,72,72,75,75,76,76,77,77,79,79,80,80,81,81,83,83,84,84,85,85,86,86,87,87,88,88,90,90,91,91,96,96,97,97,100,100,101,101,102,102,104,104],"right_children":[2,4,6,8,10,12,14,16,18,20,22,24,26,28,30,-1,-1,32,34,36,38,40,42,44,46,48,50,52,54,56,58,-1,-1,60,62,64,66,68,-1,70,72,74,76,-1,78,80,82,84,86,88,90,92,94,96,98,-1,100,102,104,-1,106,-1,-1,108,110,112,114,-1,116,118,120,122,124,-1,-1,126,128,130,-1,132,134,136,-1,138,140,142,144,146,148,-1,150,152,-1,-1,-1,-1,154,156,-1,-1,158,160,162,-1,164,-1,-1,-1,-1,-1,-1,-1,-1,-1,-1,-1,-1,-1,-1,-1,-1,-1,-1,-1,-1,-1,-1,-1,-1,-1,-1,-1,-1,-1,-1,-1,-1,-1,-1,-1,-1,-1,-1,-1,-1,-1,-1,-1,-1,-1,-1,-1,-1,-1,-1,-1,-1,-1,-1,-1,-1,-1,-1,-1,-1],"split_conditions":[1E0,4.1E0,2.7190018E1,3.8E1,1E0,4.7306857E-1,4.2E1,6.209734E0,5.120249E-1,1E0,5.9E1,5.3E1,1E0,2.845477E1,1E0,7.807577E-2,2.8853297E-2,2.166182E0,2.3559232E0,7.7E1,1.6038008E1,2.0412415E-1,2.6868606E0,1E0,4.6666665E0,2.7603798E1,5.446214E0,1E0,3.1880417E0,1.2869468E0,1.2583333E1,5.6837466E-2,-2.3196977E-2,8.6E1,3.25E0,2.8996252E1,2.4059489E0,4.4907312E0,5.9695642E-2,2.7915561E0,1.1802349E1,1E0,1.667515E1,-3.6208566E-2,2.2669651E1,1.8E1,5.736428E-1,2.7E0,3.0997999E0,5.8E0,6.249369E-1,1.9033152E1,6.6E0,5.5077596E0,1E0,-1.2508399E-2,2.81718E1,9.2E0,6.8703046E0,-2.6550865E-2,1.4300315E0,2.2283038E-2,7.006257E-2,2.737498E0,1.2580354E1,7.870336E-1,7.3E1,1.23279635E-2,1.3063057E1,8.574775E0,1.0062756E1,9.333333E0,2.81718E1,4.782984E-3,-3.5572294E-2,3.6E1,1E0,8.840613E0,-1.4643055E-2,4.1671938E-1,1.4864249E0,4.8798716E-1,-7.269191E-2,8.048652E0,2.9233413E0,4.5E0,4.8664284E0,5.1160803E0,3.9574625E0,6.289416E-3,5.0970507E0,1.3971064E0,7.2707175E-3,-2.7088422E-2,3.770994E-2,-6.92661E-2,2.0297558E0,1E0,-1.9206127E-2,-7.445182E-2,5.494337E-1,1.0390125E1,1.01E1,1.4432793E-2,1.24E1,6.818815E-2,3.7767317E-3,7.248549E-2,5.128895E-2,-5.3715188E-2,3.204508E-2,5.170069E-2,2.4188412E-3,-4.372018E-2,1.7799336E-2,-7.661646E-2,-8.41672E-3,6.860634E-2,3.5799284E-2,-4.004551E-2,4.9802117E-2,7.483838E-2,-1.2401549E-2,6.792244E-2,2.9009929E-2,-2.0406207E-2,3.791624E-2,7.190474E-2,6.023215E-2,6.622644E-2,3.2555533E-3,-4.3511815E-2,2.0180123E-3,4.07778E-2,-2.392015E-2,-3.4364056E-2,3.5343442E-2,-3.8661063E-2,4.3231614E-2,-6.137323E-2,-6.806238E-2,2.8793423E-2,-4.8175883E-2,-7.805183E-2,-5.3507537E-2,-5.2900728E-2,8.611492E-3,-5.3949695E-2,3.7932318E-2,-5.648885E-2,-1.9310987E-2,1.5082287E-2,-5.6301832E-2,5.3083207E-2,-2.732319E-2,-7.7239364E-2,-2.813836E-2,-2.5951585E-2,-7.932856E-2,9.073957E-3,-5.3380925E-2,6.546924E-2,-2.8119925E-2,-7.3449925E-2,-8.8826055E-3],"split_indices":[0,8,28,24,1,23,24,12,16,2,24,19,3,28,7,0,0,17,17,18,17,28,17,2,15,25,17,7,16,12,15,0,0,18,15,28,20,28,0,23,25,3,25,0,28,24,16,13,21,8,23,27,8,20,5,0,28,8,27,0,16,0,0,12,21,23,19,0,17,20,27,15,28,0,0,18,3,21,0,23,16,16,0,27,12,8,23,17,17,0,12,16,0,0,0,0,23,7,0,0,23,27,8,0,8,0,0,0,0,0,0,0,0,0,0,0,0,0,0,0,0,0,0,0,0,0,0,0,0,0,0,0,0,0,0,0,0,0,0,0,0,0,0,0,0,0,0,0,0,0,0,0,0,0,0,0,0,0,0,0,0,0,0,0,0],"split_type":[0,0,0,0,0,0,0,0,0,0,0,0,0,0,0,0,0,0,0,0,0,0,0,0,0,0,0,0,0,0,0,0,0,0,0,0,0,0,0,0,0,0,0,0,0,0,0,0,0,0,0,0,0,0,0,0,0,0,0,0,0,0,0,0,0,0,0,0,0,0,0,0,0,0,0,0,0,0,0,0,0,0,0,0,0,0,0,0,0,0,0,0,0,0,0,0,0,0,0,0,0,0,0,0,0,0,0,0,0,0,0,0,0,0,0,0,0,0,0,0,0,0,0,0,0,0,0,0,0,0,0,0,0,0,0,0,0,0,0,0,0,0,0,0,0,0,0,0,0,0,0,0,0,0,0,0,0,0,0,0,0,0,0,0,0],"sum_hessian":[7.4985728E3,3.7271484E3,3.7714243E3,1.719071E3,2.0080774E3,2.1852742E3,1.5861503E3,1.414325E3,3.047462E2,1.1276724E2,1.8953102E3,4.046111E1,2.144813E3,8.725835E1,1.4988918E3,1.4121934E3,2.13154E0,3.0105762E0,3.0173563E2,9.706131E1,1.5705933E1,1.3247573E3,5.705528E2,5.6964664E0,3.4764645E1,1.9312756E3,2.135374E2,3.3683205E1,5.3575146E1,1.4415574E3,5.733455E1,1.9397043E0,1.0708721E0,5.7830987E0,2.959525E2,7.8364685E1,1.869662E1,1.4383025E1,1.3229072E0,2.740304E2,1.0507269E3,2.4716346E0,5.680812E2,1.5810013E0,4.115465E0,2.3514624E1,1.1250019E1,1.6952975E3,2.3597816E2,2.929591E1,1.8424149E2,3.1117657E1,2.5655499E0,1.1190542E1,4.23846E1,1.0579917E0,1.4404994E3,8.873409E0,4.846114E1,1.0624355E0,4.720663E0,1.1940744E0,2.9475845E2,7.565107E1,2.7136152E0,1.0740594E1,7.9560275E0,1.7404823E0,1.2642543E1,1.9728853E2,7.6741875E1,5.871736E2,4.6355338E2,1.1592895E0,1.3123451E0,1.2196109E1,5.558851E2,3.0486174E0,1.0668478E0,2.0045713E1,3.46891E0,2.814168E0,8.435851E0,6.5947437E0,1.6887028E3,2.6906006E0,2.3328757E2,2.2259663E1,7.0362473E0,1.744402E0,1.8249709E2,2.915836E1,1.9592975E0,1.3269651E0,1.2385848E0,8.1095705E0,3.0809715E0,4.1303722E1,1.0808814E0,3.566107E2,1.0838887E3,6.0134625E0,2.859947E0,1.1404641E0,4.732068E1,3.5751185E0,1.1455443E0,3.1963985E1,4.3687084E1,1.4739146E0,1.2397006E0,9.608623E0,1.1319712E0,5.004553E0,2.9514747E0,1.017197E1,2.470572E0,1.9031299E2,6.975544E0,1.5717689E0,7.5170105E1,5.852413E2,1.9322982E0,4.5462335E2,8.93004E0,2.475244E0,9.720864E0,1.1471032E2,4.4117474E2,1.6542401E0,1.3943772E0,1.4918274E1,5.1274405E0,2.151745E0,1.3171649E0,1.5739311E0,1.2402369E0,4.4543824E0,2.1403615E0,6.453691E2,1.0433336E3,1.466841E0,1.2237597E0,2.2285307E2,1.0434498E1,1.8768915E1,3.4907482E0,1.2436011E0,5.7926464E0,1.7618886E2,6.3082194E0,1.1432496E0,2.801511E1,1.5350711E0,1.5459002E0,3.9746647E1,1.5570751E0,1.5401957E0,1.0823484E3,1.1636386E0,4.849824E0,1.3062307E0,1.5537163E0,4.4650204E1,2.6704745E0],"tree_param":{"num_deleted":"0","num_feature":"30","num_nodes":"165","size_leaf_vector":"1"}},{"base_weights":[-3.1307088E-3,1.3615232E0,-1.333471E0,1.4213496E0,1.1230595E0,-1.2091472E0,-1.4603876E0,1.4717599E0,1.2219172E0,1.2400417E0,6.831358E-1,-9.336592E-1,-1.2618504E0,-1.2297757E0,-1.4842649E0,7.567946E-2,1.3946279E0,1.0606709E0,1.2780783E0,-2.8173888E-1,1.2463876E0,5.131716E-1,1.318723E0,2.275014E-1,-9.500771E-1,-9.3827164E-1,-1.3116044E0,1.4949517E-2,-1.2413925E0,-1.3929179E0,-1.518996E0,1.3696083E0,7.476389E-2,1.3888046E0,9.338632E-1,1.4308615E0,1.199422E0,2.5580449E-3,-2.4481645E-2,1.2593325E0,4.0177596E-1,6.460277E-1,-1.7336398E-1,1.4053608E0,2.4570213E-1,-3.2204635E-2,7.0896125E-1,-1.0201206E0,-6.301376E-1,4.6019638E-1,-9.618616E-1,-1.2658198E0,-1.5022911E0,-1.2976147E0,-8.924307E-1,-1.4274849E0,-5.677383E-1,-1.3386297E0,-1.5376539E0,1.2529708E0,1.3942443E0,1.0021474E-2,1.4265685E0,1.0664694E0,4.6375516E-1,4.6164143E-1,1.4650315E0,1.2165473E0,5.27083E-1,1.3215286E0,1.1461456E0,-9.110742E-1,9.821321E-1,-3.3079553E-1,6.98582E-1,-3.3770517E-1,5.4863203E-2,3.1895992E-1,1.4875621E0,-3.2234233E-2,5.133344E-2,5.732292E-2,-3.8001046E-4,-1.0860733E0,-7.723448E-1,6.523622E-1,-7.5186294E-1,6.445748E-2,-2.8821377E-2,-8.7143105E-1,-1.2734778E0,-1.3225201E0,-1.1094042E0,-9.276374E-3,-1.5068691E0,-1.4348427E0,-1.1385527E0,-7.747135E-2,-1.0462832E0,-1.2982891E0,-1.5232912E0,-7.9794693E-1,5.120349E-1,-1.047955E0,-1.4155636E0,-1.5387318E0,-1.1346204E-2,6.324444E-2,-1.8541437E-3,7.062652E-2,6.0027402E-2,2.203042E-2,7.226016E-2,-2.82312E-3,5.4424983E-2,3.0651873E-2,-3.893624E-2,3.9037645E-2,-3.8961892E-3,7.473757E-2,4.9072657E-2,6.4366624E-2,5.0079472E-2,-2.5798677E-2,4.9644757E-2,5.7642926E-2,6.861813E-2,2.5336418E-2,6.0047727E-2,-6.896901E-2,2.633929E-3,6.0077727E-2,8.174613E-3,2.1023972E-2,-6.900522E-2,3.0499676E-2,6.435528E-2,1.1908529E-2,-3.765981E-2,4.9239885E-2,-2.9084904E-2,4.1192356E-2,7.877929E-2,-1.2198117E-3,-5.5090047E-2,-3.3129178E-2,-7.6586865E-2,5.2741747E-2,-8.636928E-3,-2.75863E-2,-6.3930325E-2,-4.9480062E-2,-3.3003863E-2,-6.6847876E-2,-1.6201854E-2,-6.6620655E-2,-2.0481413E-2,-3.7779614E-2,-6.207007E-2,-6.809369E-2,-7.927611E-2,-3.116162E-2,-7.375091E-2,-4.418145E-2,-7.0878014E-2,-3.5233494E-2,4.504896E-2,-6.007554E-2,7.296206E-3,-6.6378094E-2,-2.2585526E-2,-3.664442E-2,-7.6854914E-2,-4.8693746E-2,1.4651093E-3,4.4295948E-2,-1.5138655E-2,-5.592608E-2,1.8264202E-2,-7.289134E-2,-4.5868248E-2,-1.5297263E-2,-7.699483E-2],"categories":[],"categories_nodes":[],"categories_segments":[],"categories_sizes":[],"default_left":[0,0,0,0,0,0,0,0,0,0,0,0,0,0,0,0,0,0,0,0,0,0,0,0,0,0,0,0,0,0,0,0,0,0,0,0,0,0,0,0,0,0,0,0,0,0,0,0,0,0,0,0,0,0,0,0,0,0,0,0,0,0,0,0,0,0,0,0,0,0,0,0,0,0,0,0,0,0,0,0,0,0,0,0,0,0,0,0,0,0,0,0,0,0,0,0,0,0,0,0,0,0,0,0,0,0,0,0,0,0,0,0,0,0,0,0,0,0,0,0,0,0,0,0,0,0,0,0,0,0,0,0,0,0,0,0,0,0,0,0,0,0,0,0,0,0,0,0,0,0,0,0,0,0,0,0,0,0,0,0,0,0,0,0,0,0,0,0,0,0,0,0,0,0,0,0,0,0,0,0,0,0,0],"id":6,"left_children":[1,3,5,7,9,11,13,15,17,19,21,23,25,27,29,-1,31,33,35,37,39,41,43,45,47,49,51,-1,53,55,57,59,-1,61,63,65,67,-1,-1,69,71,73,75,77,79,-1,81,83,85,87,89,91,93,95,97,99,101,103,105,107,109,-1,111,113,115,117,119,121,123,125,127,129,131,133,135,137,-1,139,141,-1,-1,-1,-1,143,145,147,149,-1,-1,151,153,155,157,-1,159,161,163,165,167,169,171,173,175,177,179,181,-1,-1,-1,-1,-1,-1,-1,-1,-1,-1,-1,-1,-1,-1,-1,-1,-1,-1,-1,-1,-1,-1,-1,-1,-1,-1,-1,-1,-1,-1,-1,-1,-1,-1,-1,-1,-1,-1,-1,-1,-1,-1,-1,-1,-1,-1,-1,-1,-1,-1,-1,-1,-1,-1,-1,-1,-1,-1,-1,-1,-1,-1,-1,-1,-1,-1,-1,-1,-1,-1,-1,-1,-1,-1,-1,-1,-1],"loss_changes":[1.3274497E4,4.9896973E1,5.6655273E1,2.7172852E1,3.6653625E1,2.6062256E1,8.236572E0,5.294922E0,3.9631348E0,5.8980713E0,1.6099121E1,6.0331726E0,2.407837E1,3.5196228E0,3.1225586E0,0E0,1.6479492E-2,5.2607574E0,3.460083E0,2.465792E-1,5.750183E0,1.1437111E1,2.6414948E0,2.5804296E0,6.104126E0,7.4701233E0,9.971924E0,0E0,2.297699E0,1.2506592E1,1.9299316E0,1.7419434E-1,0E0,1.5933685E0,6.781906E0,4.000183E0,2.7039185E0,0E0,0E0,2.4492798E0,8.594693E0,5.582596E0,4.739092E0,2.1614342E0,3.1736536E0,0E0,1.17998E0,3.1710815E0,9.340601E0,4.3608904E0,4.8026276E0,8.315674E0,1.2755127E0,1.6294708E0,3.384924E0,3.560608E0,5.4872727E0,1.1740112E0,1.1589355E0,1.9910278E0,2.277832E-1,0E0,1.05918884E-1,2.2946777E0,5.568915E0,1.1402048E0,4.8660278E-1,3.0097656E0,4.8757815E0,1.4777222E0,6.6537476E0,1.7049928E0,1.1488256E0,5.31083E0,4.3890686E0,4.794738E0,0E0,2.5813189E0,2.8913116E-1,0E0,0E0,0E0,0E0,3.1679993E0,3.5733414E0,1.9919348E0,4.801836E0,0E0,0E0,3.4873886E0,2.2803955E0,6.718628E0,1.3057587E1,0E0,7.70874E-1,1.5723114E0,4.016548E0,3.9916291E0,4.4638386E0,4.2895203E0,1.6142578E0,2.5363846E0,1.5476215E0,3.2728004E0,5.810547E-1,1.0595703E0,0E0,0E0,0E0,0E0,0E0,0E0,0E0,0E0,0E0,0E0,0E0,0E0,0E0,0E0,0E0,0E0,0E0,0E0,0E0,0E0,0E0,0E0,0E0,0E0,0E0,0E0,0E0,0E0,0E0,0E0,0E0,0E0,0E0,0E0,0E0,0E0,0E0,0E0,0E0,0E0,0E0,0E0,0E0,0E0,0E0,0E0,0E0,0E0,0E0,0E0,0E0,0E0,0E0,0E0,0E0,0E0,0E0,0E0,0E0,0E0,0E0,0E0,0E0,0E0,0E0,0E0,0E0,0E0,0E0,0E0,0E0,0E0,0E0,0E0,0E0,0E0,0E0],"parents":[2147483647,0,0,1,1,2,2,3,3,4,4,5,5,6,6,7,7,8,8,9,9,10,10,11,11,12,12,13,13,14,14,16,16,17,17,18,18,19,19,20,20,21,21,22,22,23,23,24,24,25,25,26,26,28,28,29,29,30,30,31,31,33,33,34,34,35,35,36,36,39,39,40,40,41,41,42,42,43,43,44,44,46,46,47,47,48,48,49,49,50,50,51,51,52,52,53,53,54,54,55,55,56,56,57,57,58,58,59,59,60,60,62,62,63,63,64,64,65,65,66,66,67,67,68,68,69,69,70,70,71,71,72,72,73,73,74,74,75,75,77,77,78,78,83,83,84,84,85,85,86,86,89,89,90,90,91,91,92,92,94,94,95,95,96,96,97,97,98,98,99,99,100,100,101,101,102,102,103,103,104,104,105,105],"right_children":[2,4,6,8,10,12,14,16,18,20,22,24,26,28,30,-1,32,34,36,38,40,42,44,46,48,50,52,-1,54,56,58,60,-1,62,64,66,68,-1,-1,70,72,74,76,78,80,-1,82,84,86,88,90,92,94,96,98,100,102,104,106,108,110,-1,112,114,116,118,120,122,124,126,128,130,132,134,136,138,-1,140,142,-1,-1,-1,-1,144,146,148,150,-1,-1,152,154,156,158,-1,160,162,164,166,168,170,172,174,176,178,180,182,-1,-1,-1,-1,-1,-1,-1,-1,-1,-1,-1,-1,-1,-1,-1,-1,-1,-1,-1,-1,-1,-1,-1,-1,-1,-1,-1,-1,-1,-1,-1,-1,-1,-1,-1,-1,-1,-1,-1,-1,-1,-1,-1,-1,-1,-1,-1,-1,-1,-1,-1,-1,-1,-1,-1,-1,-1,-1,-1,-1,-1,-1,-1,-1,-1,-1,-1,-1,-1,-1,-1,-1,-1,-1,-1,-1,-1],"split_conditions":[1E0,1.2E1,4.7E1,6.6E0,5.8E1,1E0,5.9E1,4E0,2E0,2.3559232E0,3.5833332E1,4.231018E-1,1.4711365E0,8.03243E-1,1.25E1,7.567946E-2,2.01532E0,7.3027287E0,4E0,1.9254122E0,2.8428272E1,2.6331774E1,1.1E1,4.505949E0,3.0533018E0,3.8247597E-1,6.63E2,1.4949517E-2,1E0,1E0,5.5E1,2E0,7.476389E-2,1.8336183E0,4.8E1,2.0995815E0,1.39E1,2.5580449E-3,-2.4481645E-2,2.7166666E1,7.8E0,2.5E0,5.1622305E0,5.9E1,1.4464727E1,-3.2204635E-2,7.8507123E0,6.3E1,8.4E0,4.5E1,2.8224225E0,1.9E1,2.2449783E1,4.9E1,1.2716012E0,3.3128195E0,1.2450863E1,6E1,8E1,2.9821336E0,1.552785E1,1.0021474E-2,2.166182E0,2.0560884E0,3.4571407E0,8.373418E0,8.5E0,1E0,3.9E1,1.3727599E0,1.5333333E1,1.3390389E1,1.4276988E1,1.7012304E1,4.97E2,1.2690005E1,5.4863203E-2,3.5626662E0,2.5603971E0,-3.2234233E-2,5.133344E-2,5.732292E-2,-3.8001046E-4,4.474566E0,7E0,3.3128195E0,4.22E2,6.445748E-2,-2.8821377E-2,1.1633416E0,2.20893E0,7.8E1,6E1,-9.276374E-3,4.0594764E0,1.8924286E0,5.5E0,3.7E0,4.366421E0,4.085436E0,2.5698469E0,6.04E2,1.6841837E1,1.7578333E1,4.989732E0,1.6E1,-1.1346204E-2,6.324444E-2,-1.8541437E-3,7.062652E-2,6.0027402E-2,2.203042E-2,7.226016E-2,-2.82312E-3,5.4424983E-2,3.0651873E-2,-3.893624E-2,3.9037645E-2,-3.8961892E-3,7.473757E-2,4.9072657E-2,6.4366624E-2,5.0079472E-2,-2.5798677E-2,4.9644757E-2,5.7642926E-2,6.861813E-2,2.5336418E-2,6.0047727E-2,-6.896901E-2,2.633929E-3,6.0077727E-2,8.174613E-3,2.1023972E-2,-6.900522E-2,3.0499676E-2,6.435528E-2,1.1908529E-2,-3.765981E-2,4.9239885E-2,-2.9084904E-2,4.1192356E-2,7.877929E-2,-1.2198117E-3,-5.5090047E-2,-3.3129178E-2,-7.6586865E-2,5.2741747E-2,-8.636928E-3,-2.75863E-2,-6.3930325E-2,-4.9480062E-2,-3.3003863E-2,-6.6847876E-2,-1.6201854E-2,-6.6620655E-2,-2.0481413E-2,-3.7779614E-2,-6.207007E-2,-6.809369E-2,-7.927611E-2,-3.116162E-2,-7.375091E-2,-4.418145E-2,-7.0878014E-2,-3.5233494E-2,4.504896E-2,-6.007554E-2,7.296206E-3,-6.6378094E-2,-2.2585526E-2,-3.664442E-2,-7.6854914E-2,-4.8693746E-2,1.4651093E-3,4.4295948E-2,-1.5138655E-2,-5.592608E-2,1.8264202E-2,-7.289134E-2,-4.5868248E-2,-1.5297263E-2,-7.699483E-2],"split_indices":[0,29,26,8,26,4,24,8,9,17,15,11,11,12,29,0,11,21,26,17,28,28,8,17,11,11,9,0,5,7,26,9,0,12,19,12,8,0,0,29,8,8,12,26,17,0,17,19,8,9,12,29,28,18,11,11,21,24,19,23,27,0,17,11,23,27,29,4,26,11,15,27,21,28,9,27,0,12,12,0,0,0,0,27,8,11,9,0,0,23,23,18,24,0,12,12,15,8,12,23,23,9,17,21,23,18,0,0,0,0,0,0,0,0,0,0,0,0,0,0,0,0,0,0,0,0,0,0,0,0,0,0,0,0,0,0,0,0,0,0,0,0,0,0,0,0,0,0,0,0,0,0,0,0,0,0,0,0,0,0,0,0,0,0,0,0,0,0,0,0,0,0,0,0,0,0,0,0,0,0,0,0,0],"split_type":[0,0,0,0,0,0,0,0,0,0,0,0,0,0,0,0,0,0,0,0,0,0,0,0,0,0,0,0,0,0,0,0,0,0,0,0,0,0,0,0,0,0,0,0,0,0,0,0,0,0,0,0,0,0,0,0,0,0,0,0,0,0,0,0,0,0,0,0,0,0,0,0,0,0,0,0,0,0,0,0,0,0,0,0,0,0,0,0,0,0,0,0,0,0,0,0,0,0,0,0,0,0,0,0,0,0,0,0,0,0,0,0,0,0,0,0,0,0,0,0,0,0,0,0,0,0,0,0,0,0,0,0,0,0,0,0,0,0,0,0,0,0,0,0,0,0,0,0,0,0,0,0,0,0,0,0,0,0,0,0,0,0,0,0,0,0,0,0,0,0,0,0,0,0,0,0,0,0,0,0,0,0,0],"sum_hessian":[7.309944E3,3.6084238E3,3.70152E3,2.8807354E3,7.276886E2,1.8751788E3,1.8263411E3,2.2944033E3,5.863319E2,5.7339545E2,1.542931E2,3.0413416E2,1.5710447E3,1.7628133E2,1.6500598E3,1.4755679E3,8.188356E2,1.5659978E2,4.2973212E2,2.2009244E0,5.711946E2,1.2316469E2,3.112842E1,4.061017E0,3.0007315E2,2.1201974E2,1.3590249E3,1.1428794E0,1.7513844E2,4.65871E2,1.1841887E3,6.6751154E2,1.5132408E2,4.087572E1,1.1572406E2,1.40205E2,2.895271E2,1.1359082E0,1.0650163E0,5.620886E2,9.105906E0,1.0324422E2,1.9920471E1,2.8516237E1,2.6121821E0,1.3248428E0,2.736174E0,2.443826E2,5.569055E1,3.2100956E0,2.0880966E2,1.1020554E3,2.5696954E2,1.4849544E2,2.6643005E1,4.464396E2,1.9431396E1,1.17833885E2,1.0663549E3,1.254482E2,5.420633E2,1.4531986E0,3.942252E1,8.927356E1,2.6450504E1,5.268767E0,1.3493623E2,2.8154633E2,7.980773E0,3.5586557E2,2.0622308E2,2.6166983E0,6.489207E0,5.000772E0,9.824344E1,1.8289194E1,1.6312761E0,2.3491585E0,2.6167078E1,1.3021238E0,1.3100584E0,1.3263971E0,1.4097769E0,1.9033595E2,5.404665E1,4.449652E0,5.12409E1,1.6483566E0,1.5617392E0,1.6478558E2,4.402407E1,8.0337756E2,2.986778E2,1.0341868E0,2.5593536E2,7.541333E1,7.3082115E1,4.4698234E0,2.2173182E1,1.9629083E2,2.5014876E2,1.6231771E1,3.199624E0,2.7720522E1,9.0113365E1,1.0653048E3,1.0500271E0,1.2431921E2,1.128994E0,4.895544E2,5.250888E1,1.1884114E0,3.823411E1,1.6876341E0,8.758592E1,2.4065649E1,2.384854E0,3.029843E0,2.238924E0,1.251535E2,9.782732E0,2.0804788E2,7.349846E1,2.4305496E0,5.5502234E0,8.789722E1,2.6796835E2,1.7090118E1,1.8913297E2,1.4707656E0,1.1459326E0,4.7486634E0,1.7405434E0,3.263488E0,1.7372838E0,8.716002E1,1.1083422E1,7.8440356E0,1.0445159E1,1.2969385E0,1.0522201E0,4.27701E0,2.1890068E1,2.8157196E0,1.8752023E2,4.88574E1,5.1892495E0,2.803642E0,1.6460099E0,3.8616093E1,1.2624805E1,1.03330315E2,6.145527E1,4.0882507E1,3.1415625E0,7.943102E2,9.06739E0,8.2979576E1,2.1569824E2,9.644891E1,1.5948645E2,4.3358083E0,7.107752E1,4.0366814E1,3.27153E1,2.894332E0,1.5754912E0,1.9611877E1,2.5613048E0,1.8918123E2,7.109609E0,5.223155E0,2.4492561E2,1.3239032E1,2.9927404E0,2.1334107E0,1.0662134E0,2.6600817E1,1.1197048E0,8.129108E1,8.822285E0,1.2543019E0,1.0640505E3],"tree_param":{"num_deleted":"0","num_feature":"30","num_nodes":"183","size_leaf_vector":"1"}},{"base_weights":[8.904341E-3,1.3177288E0,-1.2869439E0,1.3658385E0,1.0434817E0,-1.1906397E0,-1.4330889E0,1.3920343E0,1.1378453E0,1.1654444E0,6.240351E-1,-1.23798E0,-9.0591174E-1,-1.2863882E0,-1.481903E0,1.4774528E0,1.3425854E0,-4.9267703E-1,1.2252679E0,-1.9578772E-2,1.1703606E0,8.1267715E-1,-8.371632E-2,-9.376161E-1,-1.269552E0,-9.170413E-1,3.368443E-2,-1.3225857E0,-6.702253E-1,-1.1013011E-2,-7.414606E-2,1.4783086E0,2.0062748E-2,1.3790392E0,1.2724926E0,5.8311856E-1,-1.2633847E0,9.377284E-1,1.2984766E0,1.1864542E0,5.835535E-1,4.449968E-1,1.0946614E0,9.32586E-1,-3.3173823E-1,-1.3094726E-1,-9.7390956E-1,-1.230935E0,-1.466662E0,-9.3097043E-1,4.1526598E-1,-1.1165378E0,-7.184267E-2,-8.499331E-1,6.3920185E-2,7.395822E-2,2.6578262E-2,1.258382E0,1.4186727E0,8.0364996E-1,1.2979888E0,9.906876E-2,6.6768125E-2,6.0428353E-3,-1.4516561E0,1.0839856E0,5.500462E-1,1.3148537E0,4.3341136E-1,7.400482E-1,1.2074628E0,-4.010744E-1,1.1225587E0,5.2294415E-1,-6.368611E-2,8.806155E-1,1.381885E0,-2.4702975E-3,5.9406586E-2,8.493257E-1,-6.5580636E-1,-6.564733E-2,3.287801E-1,-1.084231E0,-7.43377E-1,-2.2743814E-1,-1.2367096E0,-1.0064684E0,-7.563119E-2,-1.1068971E0,-8.047317E-1,-7.6814676E-3,3.9284106E-2,-1.1607921E0,-4.3934986E-2,2.6877278E-2,-1.0252966E0,6.662394E-2,4.550042E-2,7.266935E-2,6.611021E-2,5.3387392E-2,-4.458163E-3,6.538338E-2,4.363966E-2,5.621773E-2,-2.8244743E-2,-1.4234197E-2,-7.85033E-2,3.7125774E-2,6.1318833E-2,-7.484284E-3,4.2688087E-2,6.8218715E-2,5.416752E-2,-3.7844308E-2,4.6176694E-2,4.5299634E-2,-3.1277485E-2,6.639039E-2,5.5650484E-2,-4.816589E-2,3.1118203E-2,4.366299E-3,6.813131E-2,4.8447724E-2,1.0944471E-2,4.6711087E-2,-1.1480308E-2,2.9671801E-2,7.381261E-2,1.6813363E-5,6.266364E-2,-8.41196E-2,-1.6386854E-2,6.1478924E-2,-7.4991765E-3,-4.8569933E-2,-7.294958E-2,2.624206E-2,-4.1388154E-2,-2.7364586E-2,3.6264878E-2,-6.452388E-2,-5.576768E-2,1.879708E-2,-5.3893603E-2,-5.7617825E-2,-5.2434076E-3,-2.6725054E-2,-4.583198E-2,-6.2293846E-2,-4.119245E-2,5.9130885E-2,-3.4398597E-2,-7.096132E-2,-2.8697079E-2],"categories":[],"categories_nodes":[],"categories_segments":[],"categories_sizes":[],"default_left":[0,0,0,0,0,0,0,0,0,0,0,0,0,0,0,0,0,0,0,0,0,0,0,0,0,0,0,0,0,0,0,0,0,0,0,0,0,0,0,0,0,0,0,0,0,0,0,0,0,0,0,0,0,0,0,0,0,0,0,0,0,0,0,0,0,0,0,0,0,0,0,0,0,0,0,0,0,0,0,0,0,0,0,0,0,0,0,0,0,0,0,0,0,0,0,0,0,0,0,0,0,0,0,0,0,0,0,0,0,0,0,0,0,0,0,0,0,0,0,0,0,0,0,0,0,0,0,0,0,0,0,0,0,0,0,0,0,0,0,0,0,0,0,0,0,0,0,0,0,0,0,0,0,0,0,0,0],"id":7,"left_children":[1,3,5,7,9,11,13,15,17,19,21,23,25,27,29,31,33,35,37,-1,39,41,43,45,47,49,-1,51,53,-1,-1,55,-1,57,59,61,63,65,67,69,71,73,75,77,79,81,83,85,87,89,91,93,-1,95,-1,-1,-1,97,99,101,103,105,-1,-1,107,109,111,113,115,117,119,121,123,125,-1,127,129,-1,-1,131,133,-1,135,137,139,141,143,145,-1,147,149,-1,-1,151,153,-1,155,-1,-1,-1,-1,-1,-1,-1,-1,-1,-1,-1,-1,-1,-1,-1,-1,-1,-1,-1,-1,-1,-1,-1,-1,-1,-1,-1,-1,-1,-1,-1,-1,-1,-1,-1,-1,-1,-1,-1,-1,-1,-1,-1,-1,-1,-1,-1,-1,-1,-1,-1,-1,-1,-1,-1,-1,-1,-1,-1,-1],"loss_changes":[1.2375582E4,4.647168E1,4.989795E1,1.6842285E1,2.7205444E1,2.8749268E1,8.488037E0,9.685547E0,4.670575E1,3.687561E0,1.6777618E1,1.6802979E1,6.2373962E0,7.3652954E0,1.064209E0,3.305664E-1,2.744629E0,1.4974024E1,5.250183E0,0E0,3.2814941E0,9.767838E0,7.176845E0,5.2680664E0,1.1241943E1,6.2850647E0,0E0,6.59906E0,8.985329E0,0E0,0E0,2.5390625E-2,0E0,3.6967773E0,6.312683E0,2.7265816E0,2.8650055E0,3.1433067E0,2.862854E0,2.9383545E0,7.45592E0,6.6433134E0,2.1824722E0,1.4657393E0,9.221511E0,5.3712277E0,3.6753998E0,8.060547E0,4.3065796E0,6.101898E0,9.5943236E-1,6.0617676E0,0E0,5.7220774E0,0E0,0E0,0E0,6.332855E0,9.4177246E-1,8.197857E0,1.2537842E0,4.622611E0,0E0,0E0,8.189602E-1,1.3676414E0,4.3985286E0,1.2424316E0,4.195628E0,5.3138285E0,2.9398193E0,3.710589E0,2.0664911E0,5.672037E0,0E0,2.264162E0,7.499466E-1,0E0,0E0,1.8205693E0,5.6213245E0,0E0,3.3518286E0,3.529831E0,6.878334E0,3.2802732E0,7.8984375E0,3.1703625E0,0E0,5.749832E0,5.1645584E0,0E0,0E0,2.5180817E0,5.66549E0,0E0,2.6012897E0,0E0,0E0,0E0,0E0,0E0,0E0,0E0,0E0,0E0,0E0,0E0,0E0,0E0,0E0,0E0,0E0,0E0,0E0,0E0,0E0,0E0,0E0,0E0,0E0,0E0,0E0,0E0,0E0,0E0,0E0,0E0,0E0,0E0,0E0,0E0,0E0,0E0,0E0,0E0,0E0,0E0,0E0,0E0,0E0,0E0,0E0,0E0,0E0,0E0,0E0,0E0,0E0,0E0,0E0,0E0,0E0,0E0,0E0,0E0,0E0],"parents":[2147483647,0,0,1,1,2,2,3,3,4,4,5,5,6,6,7,7,8,8,9,9,10,10,11,11,12,12,13,13,14,14,15,15,16,16,17,17,18,18,20,20,21,21,22,22,23,23,24,24,25,25,27,27,28,28,31,31,33,33,34,34,35,35,36,36,37,37,38,38,39,39,40,40,41,41,42,42,43,43,44,44,45,45,46,46,47,47,48,48,49,49,50,50,51,51,53,53,57,57,58,58,59,59,60,60,61,61,64,64,65,65,66,66,67,67,68,68,69,69,70,70,71,71,72,72,73,73,75,75,76,76,79,79,80,80,82,82,83,83,84,84,85,85,86,86,87,87,89,89,90,90,93,93,94,94,96,96],"right_children":[2,4,6,8,10,12,14,16,18,20,22,24,26,28,30,32,34,36,38,-1,40,42,44,46,48,50,-1,52,54,-1,-1,56,-1,58,60,62,64,66,68,70,72,74,76,78,80,82,84,86,88,90,92,94,-1,96,-1,-1,-1,98,100,102,104,106,-1,-1,108,110,112,114,116,118,120,122,124,126,-1,128,130,-1,-1,132,134,-1,136,138,140,142,144,146,-1,148,150,-1,-1,152,154,-1,156,-1,-1,-1,-1,-1,-1,-1,-1,-1,-1,-1,-1,-1,-1,-1,-1,-1,-1,-1,-1,-1,-1,-1,-1,-1,-1,-1,-1,-1,-1,-1,-1,-1,-1,-1,-1,-1,-1,-1,-1,-1,-1,-1,-1,-1,-1,-1,-1,-1,-1,-1,-1,-1,-1,-1,-1,-1,-1,-1,-1],"split_conditions":[1E0,1.7166666E1,5.8E1,1E0,5.8E1,1E0,1.6666666E0,1.4142066E0,1E0,2.3559232E0,2.6705322E1,6.2E0,5.754631E0,1E0,5.736428E-1,6.2093086E0,1.0492061E1,1.87E2,1E0,-1.9578772E-2,4.6583332E1,1.4083333E1,3.0166666E1,1.2027124E0,2.8259153E1,8.3E1,3.368443E-2,2.996794E0,2.4083334E1,-1.1013011E-2,-7.414606E-2,2.7336735E1,2.0062748E-2,1E0,5.446214E0,1.15E1,4.1E1,3.2712932E0,1.8819933E1,4.9394026E0,2.7002281E1,9.9520035E0,1.14E1,1.8833334E1,1.873804E0,1E0,1.6303369E0,2.6868606E0,8.333333E-1,2.1854591E0,2.5E0,1.7134539E1,-7.184267E-2,3.6E1,6.3920185E-2,7.395822E-2,2.6578262E-2,2.7915561E0,7E0,1E0,2.8819246E1,1.4300315E0,6.6768125E-2,6.0428353E-3,1.6666667E-1,1.4076474E0,3.837061E0,5.49E2,2.3169174E1,2.940965E0,1.3E1,7.39E2,1.4E1,2.1514618E1,-6.368611E-2,1.12E1,9.344483E0,-2.4702975E-3,5.9406586E-2,2.55E2,1.501226E0,-6.564733E-2,7.8E1,1.775E1,4.7220626E0,5.626804E-1,1.9E1,7.9124513E0,-7.563119E-2,2.422883E1,1.6666667E-1,-7.6814676E-3,3.9284106E-2,2.2416666E1,1.41E1,2.6877278E-2,2.5408403E1,6.662394E-2,4.550042E-2,7.266935E-2,6.611021E-2,5.3387392E-2,-4.458163E-3,6.538338E-2,4.363966E-2,5.621773E-2,-2.8244743E-2,-1.4234197E-2,-7.85033E-2,3.7125774E-2,6.1318833E-2,-7.484284E-3,4.2688087E-2,6.8218715E-2,5.416752E-2,-3.7844308E-2,4.6176694E-2,4.5299634E-2,-3.1277485E-2,6.639039E-2,5.5650484E-2,-4.816589E-2,3.1118203E-2,4.366299E-3,6.813131E-2,4.8447724E-2,1.0944471E-2,4.6711087E-2,-1.1480308E-2,2.9671801E-2,7.381261E-2,1.6813363E-5,6.266364E-2,-8.41196E-2,-1.6386854E-2,6.1478924E-2,-7.4991765E-3,-4.8569933E-2,-7.294958E-2,2.624206E-2,-4.1388154E-2,-2.7364586E-2,3.6264878E-2,-6.452388E-2,-5.576768E-2,1.879708E-2,-5.3893603E-2,-5.7617825E-2,-5.2434076E-3,-2.6725054E-2,-4.583198E-2,-6.2293846E-2,-4.119245E-2,5.9130885E-2,-3.4398597E-2,-7.096132E-2,-2.8697079E-2],"split_indices":[0,29,26,4,26,5,29,16,1,17,25,13,23,7,16,20,25,9,9,0,15,15,29,20,28,19,0,23,15,0,0,28,0,9,17,13,19,23,17,17,28,20,13,29,12,4,23,17,15,12,13,27,0,19,0,0,0,23,26,6,28,16,0,0,15,23,16,9,25,12,26,9,26,25,0,13,17,0,0,9,23,0,19,15,20,23,29,27,0,28,15,0,0,15,13,0,28,0,0,0,0,0,0,0,0,0,0,0,0,0,0,0,0,0,0,0,0,0,0,0,0,0,0,0,0,0,0,0,0,0,0,0,0,0,0,0,0,0,0,0,0,0,0,0,0,0,0,0,0,0,0,0,0,0,0,0,0],"split_type":[0,0,0,0,0,0,0,0,0,0,0,0,0,0,0,0,0,0,0,0,0,0,0,0,0,0,0,0,0,0,0,0,0,0,0,0,0,0,0,0,0,0,0,0,0,0,0,0,0,0,0,0,0,0,0,0,0,0,0,0,0,0,0,0,0,0,0,0,0,0,0,0,0,0,0,0,0,0,0,0,0,0,0,0,0,0,0,0,0,0,0,0,0,0,0,0,0,0,0,0,0,0,0,0,0,0,0,0,0,0,0,0,0,0,0,0,0,0,0,0,0,0,0,0,0,0,0,0,0,0,0,0,0,0,0,0,0,0,0,0,0,0,0,0,0,0,0,0,0,0,0,0,0,0,0,0,0],"sum_hessian":[7.2947603E3,3.629201E3,3.6655593E3,3.0841782E3,5.450225E2,2.2150625E3,1.4504968E3,2.7617554E3,3.2242285E2,4.2086807E2,1.2415447E2,1.8964086E3,3.18654E2,3.6897375E2,1.0815231E3,1.00200464E3,1.7597509E3,1.6171524E1,3.0625134E2,1.0771301E0,4.1979095E2,9.790966E1,2.6244812E1,1.8329605E2,1.7131125E3,3.1684103E2,1.8129551E0,3.4741766E2,2.155607E1,1.0474699E0,1.0804756E3,1.0008352E3,1.1694524E0,1.1453856E3,6.143651E2,6.8513856E0,9.320138E0,6.495174E1,2.412996E2,4.0759058E2,1.2200361E1,4.361629E1,5.429337E1,4.606986E0,2.1637827E1,8.090138E0,1.752059E2,1.438527E3,2.7458554E2,3.138609E2,2.980147E0,1.2777854E2,2.1963913E2,2.025219E1,1.3038809E0,9.9936945E2,1.4657494E0,2.9130643E2,8.540792E2,3.3363846E1,5.810013E2,4.8574424E0,1.993943E0,1.1587381E0,8.1614E0,4.5856014E1,1.9095722E1,2.36306E2,4.9936037E0,1.9947943E1,3.8764264E2,4.406566E0,7.793795E0,4.2389576E1,1.2267166E0,3.3439457E1,2.0853912E1,1.1178931E0,3.489093E0,4.309836E0,1.7327991E1,1.7457471E0,6.344392E0,1.1599386E2,5.9212048E1,8.461713E0,1.4300653E3,2.7013083E1,2.4757245E2,1.278794E2,1.8598149E2,1.4060099E0,1.5741369E0,1.226365E2,5.1420493E0,2.0407126E0,1.8211477E1,2.37885E2,5.3421432E1,6.1772455E2,2.363547E2,2.5596392E1,7.7674537E0,5.6604083E2,1.496047E1,1.6366878E0,3.2207549E0,1.0654294E0,7.09597E0,1.5323392E1,3.0532621E1,5.9332433E0,1.3162479E1,1.9063417E2,4.567183E1,1.2977195E0,3.6958842E0,1.8086653E1,1.8612908E0,1.6471617E2,2.2292647E2,2.8820217E0,1.5245442E0,1.7238525E0,6.0699425E0,1.6297054E1,2.609252E1,3.205045E1,1.3890069E0,3.0082445E0,1.7845669E1,1.7121603E0,2.5976753E0,3.1967244E0,1.4131267E1,1.6575183E0,4.6868734E0,9.19129E1,2.4080952E1,3.3684783E0,5.584357E1,6.653537E0,1.8081758E0,9.84319E2,4.4574628E2,1.1172639E0,2.5895819E1,1.2218612E2,5.6932855E0,5.615555E1,1.2982594E2,9.575812E1,2.6878378E1,1.4824679E0,3.6595814E0,8.57932E0,9.632157E0],"tree_param":{"num_deleted":"0","num_feature":"30","num_nodes":"157","size_leaf_vector":"1"}},{"base_weights":[3.1091191E-3,1.2706819E0,-1.2425419E0,1.3225725E0,9.7636753E-1,-1.1327248E0,-1.3857204E0,1.3551037E0,1.0505573E0,1.0823692E0,6.0623467E-1,-8.63508E-1,-1.1841923E0,-1.2836912E0,-1.4364026E0,1.4463661E0,1.3118498E0,4.206931E-1,1.1123793E0,3.5844016E-1,1.0987054E0,-7.219324E-1,6.5941226E-1,-1.0536236E0,-7.9730016E-1,-8.116831E-1,-1.2272924E0,-1.3209106E0,-8.361473E-1,-1.4374208E0,-1.107543E-2,7.278868E-2,7.3151624E-1,1.0875399E0,1.3250818E0,7.5473636E-1,-5.0446296E-1,8.3847606E-1,1.2274163E0,-2.1687938E-1,9.673735E-1,1.1952629E0,9.823921E-1,-5.2217085E-2,1.0851095E-2,1.3013344E0,5.113945E-1,-1.1509109E-1,-1.1209941E0,-2.2437431E-1,-8.4973586E-1,-9.5909745E-2,-8.827271E-1,-1.18081E0,-1.3814743E0,-1.2439119E0,-1.4592029E0,-5.973709E-2,-1.0525082E0,-7.902182E-1,-1.4403398E0,6.408575E-2,3.716051E-1,1.2743803E0,1.4499797E-1,1.3264261E0,-9.610726E-3,8.8424444E-1,-3.148119E-1,6.6046107E-1,-1.2384934E0,1.2204112E0,6.1656827E-1,1.2451352E0,4.9989262E-1,6.2950945E-1,-9.067422E-1,5.727548E-2,8.707851E-3,1.0368837E0,1.3228068E0,8.731638E-1,1.2181312E0,7.247584E-2,-4.5718565E-3,1.1206386E0,4.4060883E-1,-4.120212E-2,3.2414034E-1,6.903908E-4,-1.1513212E0,-6.9300896E-1,1.3991565E-1,2.4470812E-1,-8.796076E-1,-3.4573442E-1,9.347961E-1,-9.646884E-1,-4.1806176E-1,-1.2299622E0,-1.0269867E0,-1.2403746E0,-1.4623412E0,-1.2543947E0,2.4112955E-1,-7.3326685E-2,-1.2714999E-2,4.3286672E-1,-9.686684E-1,9.5508015E-3,-1.1349142E0,-6.460165E-2,2.4487106E-2,-2.9126847E-2,-7.20692E-2,-3.57664E-3,5.6661993E-2,7.130402E-2,4.6132732E-2,6.064588E-2,-2.2120109E-2,6.783503E-2,6.34194E-2,7.4398327E-3,5.412996E-2,-2.7823118E-2,3.1299763E-3,5.8908142E-2,-1.9456375E-2,-1.3148317E-2,-7.018281E-2,6.6051334E-2,-4.63906E-3,1.5259973E-2,4.5589253E-2,6.274664E-2,1.8281015E-2,5.8680534E-4,5.5333536E-2,7.582923E-4,4.645619E-2,1.9512983E-3,-6.58955E-2,5.6451865E-2,2.8604383E-2,2.632222E-2,6.735825E-2,4.522088E-2,-2.8946185E-2,6.278892E-2,5.735617E-3,-2.5506064E-2,6.950532E-2,-3.5042405E-2,2.3848716E-2,4.1146126E-2,-2.8019696E-2,-5.871239E-2,-3.7815825E-3,-4.885802E-2,3.575242E-2,2.4528299E-2,-1.604861E-2,-4.711561E-2,3.336474E-2,-7.850443E-2,-4.2155486E-2,5.6029268E-2,-2.8689697E-2,7.351153E-2,-1.0467068E-2,-4.9507517E-2,1.1530586E-2,-3.3042055E-2,5.6527197E-2,-6.310257E-2,-5.1427722E-2,-4.3962818E-2,-6.542984E-2,-6.354185E-2,-1.433343E-2,-7.3398635E-2,-2.3025524E-2,-3.5253998E-2,-6.333119E-2,2.5013128E-2,-7.2689564E-3,-1.2024799E-2,4.539139E-2,-5.706882E-2,-1.234351E-2,-6.0418915E-2,-1.5255319E-2],"categories":[],"categories_nodes":[],"categories_segments":[],"categories_sizes":[],"default_left":[0,0,0,0,0,0,0,0,0,0,0,0,0,0,0,0,0,0,0,0,0,0,0,0,0,0,0,0,0,0,0,0,0,0,0,0,0,0,0,0,0,0,0,0,0,0,0,0,0,0,0,0,0,0,0,0,0,0,0,0,0,0,0,0,0,0,0,0,0,0,0,0,0,0,0,0,0,0,0,0,0,0,0,0,0,0,0,0,0,0,0,0,0,0,0,0,0,0,0,0,0,0,0,0,0,0,0,0,0,0,0,0,0,0,0,0,0,0,0,0,0,0,0,0,0,0,0,0,0,0,0,0,0,0,0,0,0,0,0,0,0,0,0,0,0,0,0,0,0,0,0,0,0,0,0,0,0,0,0,0,0,0,0,0,0,0,0,0,0,0,0,0,0,0,0,0,0,0,0,0,0,0,0,0,0,0,0,0,0,0,0,0,0],"id":8,"left_children":[1,3,5,7,9,11,13,15,17,19,21,23,25,27,29,31,33,35,37,39,41,43,45,47,49,51,53,55,57,59,-1,-1,61,63,65,67,69,71,73,75,77,79,81,-1,-1,83,85,87,89,91,93,95,97,99,101,103,105,107,109,111,113,-1,115,117,119,121,-1,123,125,127,129,131,133,135,137,139,141,-1,-1,143,145,147,149,-1,-1,151,153,-1,155,-1,157,159,161,163,165,167,169,171,173,175,177,179,181,183,185,-1,-1,187,189,-1,191,-1,-1,-1,-1,-1,-1,-1,-1,-1,-1,-1,-1,-1,-1,-1,-1,-1,-1,-1,-1,-1,-1,-1,-1,-1,-1,-1,-1,-1,-1,-1,-1,-1,-1,-1,-1,-1,-1,-1,-1,-1,-1,-1,-1,-1,-1,-1,-1,-1,-1,-1,-1,-1,-1,-1,-1,-1,-1,-1,-1,-1,-1,-1,-1,-1,-1,-1,-1,-1,-1,-1,-1,-1,-1,-1,-1,-1,-1,-1,-1,-1,-1],"loss_changes":[1.1254161E4,5.2661133E1,5.495508E1,2.5126953E1,2.0268463E1,2.724292E1,6.20166E0,8.66748E0,1.2185394E1,4.49411E0,9.022541E0,3.3274078E0,2.6455566E1,7.6539307E0,9.5751953E-1,4.6572266E0,3.9802246E0,9.853425E0,8.27536E0,3.9251356E0,3.3598022E0,1.7813716E0,1.0439011E1,5.0816727E0,7.3101807E0,9.082375E0,9.338135E0,3.3355103E0,7.1764145E0,8.078613E-1,0E0,0E0,2.1103039E0,1.871592E1,3.7641602E0,3.4532795E0,8.28355E0,6.917454E0,2.0305176E0,4.23179E0,5.5437136E-1,2.9911194E0,3.796173E0,0E0,0E0,4.5185356E0,3.6729794E0,2.3328226E0,2.658142E0,3.9029894E0,7.681839E0,4.8033834E0,5.8377075E0,7.680664E0,2.1645508E0,5.2448425E0,1.1040955E0,5.099164E0,3.6642838E0,5.0264134E0,7.788086E-2,0E0,3.221552E0,3.4565887E0,1.2382479E1,1.2990723E0,0E0,2.8597736E0,3.2787523E-1,2.6466334E0,5.498743E-1,4.381752E0,5.169014E0,1.2666016E0,1.9312565E0,6.128013E-1,1.5540917E0,0E0,0E0,3.678749E0,1.5410461E0,6.5371704E0,2.2332687E0,0E0,0E0,4.843912E0,3.9958172E0,0E0,2.584941E0,0E0,1.7556152E0,4.6671596E0,2.319083E0,4.065034E0,4.284378E0,5.570364E0,2.5526693E0,4.444641E0,1.0648563E1,4.4630127E0,1.1018646E1,3.517456E0,5.429077E-1,1.225769E0,3.796234E-1,0E0,0E0,2.607267E0,2.1468806E-1,0E0,1.5635338E0,0E0,0E0,0E0,0E0,0E0,0E0,0E0,0E0,0E0,0E0,0E0,0E0,0E0,0E0,0E0,0E0,0E0,0E0,0E0,0E0,0E0,0E0,0E0,0E0,0E0,0E0,0E0,0E0,0E0,0E0,0E0,0E0,0E0,0E0,0E0,0E0,0E0,0E0,0E0,0E0,0E0,0E0,0E0,0E0,0E0,0E0,0E0,0E0,0E0,0E0,0E0,0E0,0E0,0E0,0E0,0E0,0E0,0E0,0E0,0E0,0E0,0E0,0E0,0E0,0E0,0E0,0E0,0E0,0E0,0E0,0E0,0E0,0E0,0E0,0E0,0E0,0E0,0E0,0E0,0E0,0E0,0E0],"parents":[2147483647,0,0,1,1,2,2,3,3,4,4,5,5,6,6,7,7,8,8,9,9,10,10,11,11,12,12,13,13,14,14,15,15,16,16,17,17,18,18,19,19,20,20,21,21,22,22,23,23,24,24,25,25,26,26,27,27,28,28,29,29,32,32,33,33,34,34,35,35,36,36,37,37,38,38,39,39,40,40,41,41,42,42,45,45,46,46,47,47,48,48,49,49,50,50,51,51,52,52,53,53,54,54,55,55,56,56,57,57,58,58,59,59,60,60,62,62,63,63,64,64,65,65,67,67,68,68,69,69,70,70,71,71,72,72,73,73,74,74,75,75,76,76,79,79,80,80,81,81,82,82,85,85,86,86,88,88,90,90,91,91,92,92,93,93,94,94,95,95,96,96,97,97,98,98,99,99,100,100,101,101,102,102,103,103,104,104,107,107,108,108,110,110],"right_children":[2,4,6,8,10,12,14,16,18,20,22,24,26,28,30,32,34,36,38,40,42,44,46,48,50,52,54,56,58,60,-1,-1,62,64,66,68,70,72,74,76,78,80,82,-1,-1,84,86,88,90,92,94,96,98,100,102,104,106,108,110,112,114,-1,116,118,120,122,-1,124,126,128,130,132,134,136,138,140,142,-1,-1,144,146,148,150,-1,-1,152,154,-1,156,-1,158,160,162,164,166,168,170,172,174,176,178,180,182,184,186,-1,-1,188,190,-1,192,-1,-1,-1,-1,-1,-1,-1,-1,-1,-1,-1,-1,-1,-1,-1,-1,-1,-1,-1,-1,-1,-1,-1,-1,-1,-1,-1,-1,-1,-1,-1,-1,-1,-1,-1,-1,-1,-1,-1,-1,-1,-1,-1,-1,-1,-1,-1,-1,-1,-1,-1,-1,-1,-1,-1,-1,-1,-1,-1,-1,-1,-1,-1,-1,-1,-1,-1,-1,-1,-1,-1,-1,-1,-1,-1,-1,-1,-1,-1,-1,-1,-1],"split_conditions":[1E0,1.7E1,5.5E1,8.5E0,5.8E1,1E0,1.4E1,2.6E0,1E0,1E0,1E0,1.7438712E0,1.8924286E0,1E0,8E1,1.25E1,1E0,1E0,2E0,8.3E0,2.8E1,5.83E2,1E0,3.6265926E0,5.1684623E0,5.2979636E-1,6.47E2,1.07E1,3.7E1,5.7E1,-1.107543E-2,7.278868E-2,3.8246722E0,1E0,8.32E2,1.6744759E1,1E0,7.7643127E0,7.75E2,1.8525932E0,6.08E2,2.65E2,9.2E0,-5.2217085E-2,1.0851095E-2,1.0368873E1,1.58E2,2.801397E0,1.3E0,6.726004E0,7.1230135E0,4.9056476E-1,1.7975779E0,2.2333334E1,4.0594764E0,1.4926035E1,5.5E1,1.01E1,1.5E1,3.0166666E1,1.11E2,6.408575E-2,1.664718E0,7.7E1,2.646737E0,3.2E1,-9.610726E-3,2.9233413E0,1E0,3.6132135E0,1E1,1.4245708E1,4.1787224E0,1.59E1,2.1666667E0,5.2E1,4.6E1,5.727548E-2,8.707851E-3,5.9E1,1.7333334E1,5.5E1,1.6317957E1,7.247584E-2,-4.5718565E-3,2.4E0,1.65E2,-4.120212E-2,3.2E0,6.903908E-4,3.85E2,2.2E1,6.1E0,6.0361233E0,8.107967E0,7.6764274E-1,2.9E0,5.37E2,1.2319126E1,1E0,4.5333332E1,1.19E1,1.72E1,1.4E1,1.6666667E-1,-7.3326685E-2,-1.2714999E-2,3.4231071E0,5.196006E0,9.5508015E-3,6.18E2,-6.460165E-2,2.4487106E-2,-2.9126847E-2,-7.20692E-2,-3.57664E-3,5.6661993E-2,7.130402E-2,4.6132732E-2,6.064588E-2,-2.2120109E-2,6.783503E-2,6.34194E-2,7.4398327E-3,5.412996E-2,-2.7823118E-2,3.1299763E-3,5.8908142E-2,-1.9456375E-2,-1.3148317E-2,-7.018281E-2,6.6051334E-2,-4.63906E-3,1.5259973E-2,4.5589253E-2,6.274664E-2,1.8281015E-2,5.8680534E-4,5.5333536E-2,7.582923E-4,4.645619E-2,1.9512983E-3,-6.58955E-2,5.6451865E-2,2.8604383E-2,2.632222E-2,6.735825E-2,4.522088E-2,-2.8946185E-2,6.278892E-2,5.735617E-3,-2.5506064E-2,6.950532E-2,-3.5042405E-2,2.3848716E-2,4.1146126E-2,-2.8019696E-2,-5.871239E-2,-3.7815825E-3,-4.885802E-2,3.575242E-2,2.4528299E-2,-1.604861E-2,-4.711561E-2,3.336474E-2,-7.850443E-2,-4.2155486E-2,5.6029268E-2,-2.8689697E-2,7.351153E-2,-1.0467068E-2,-4.9507517E-2,1.1530586E-2,-3.3042055E-2,5.6527197E-2,-6.310257E-2,-5.1427722E-2,-4.3962818E-2,-6.542984E-2,-6.354185E-2,-1.433343E-2,-7.3398635E-2,-2.3025524E-2,-3.5253998E-2,-6.333119E-2,2.5013128E-2,-7.2689564E-3,-1.2024799E-2,4.539139E-2,-5.706882E-2,-1.234351E-2,-6.0418915E-2,-1.5255319E-2],"split_indices":[0,29,26,8,26,4,29,8,1,1,1,12,12,7,19,29,1,4,9,8,29,9,3,27,21,23,9,8,19,24,0,0,21,6,9,21,26,20,9,12,9,9,8,0,0,20,9,27,8,27,27,23,12,29,12,20,19,8,24,29,9,0,12,18,12,24,0,12,6,16,24,27,12,8,29,18,19,0,0,24,29,29,20,0,0,8,9,0,8,0,9,26,8,27,27,12,8,9,27,7,29,8,8,24,29,0,0,12,12,0,9,0,0,0,0,0,0,0,0,0,0,0,0,0,0,0,0,0,0,0,0,0,0,0,0,0,0,0,0,0,0,0,0,0,0,0,0,0,0,0,0,0,0,0,0,0,0,0,0,0,0,0,0,0,0,0,0,0,0,0,0,0,0,0,0,0,0,0,0,0,0,0,0,0,0,0,0,0,0,0,0,0,0],"split_type":[0,0,0,0,0,0,0,0,0,0,0,0,0,0,0,0,0,0,0,0,0,0,0,0,0,0,0,0,0,0,0,0,0,0,0,0,0,0,0,0,0,0,0,0,0,0,0,0,0,0,0,0,0,0,0,0,0,0,0,0,0,0,0,0,0,0,0,0,0,0,0,0,0,0,0,0,0,0,0,0,0,0,0,0,0,0,0,0,0,0,0,0,0,0,0,0,0,0,0,0,0,0,0,0,0,0,0,0,0,0,0,0,0,0,0,0,0,0,0,0,0,0,0,0,0,0,0,0,0,0,0,0,0,0,0,0,0,0,0,0,0,0,0,0,0,0,0,0,0,0,0,0,0,0,0,0,0,0,0,0,0,0,0,0,0,0,0,0,0,0,0,0,0,0,0,0,0,0,0,0,0,0,0,0,0,0,0,0,0,0,0,0,0],"sum_hessian":[7.12561E3,3.5317183E3,3.5938916E3,2.9993997E3,5.323186E2,2.0389432E3,1.5549484E3,2.675451E3,3.2394867E2,4.1231284E2,1.20005775E2,3.3008896E2,1.7088542E3,5.2479785E2,1.0301505E3,8.498651E2,1.8255859E3,2.9651768E1,2.942969E2,9.605198E0,4.0270764E2,4.135728E0,1.1587004E2,8.140909E1,2.4867989E2,1.7927103E2,1.5295833E3,4.82703E2,4.2094868E1,1.0291047E3,1.0457504E0,8.37803E2,1.2062119E1,1.0632648E2,