{"learner":{"attributes":{"scikit_learn":"{\"_estimator_type\": \"classifier\"}"},"feature_names":["was_precip_category_lag1h","flag_light_precip","flag_has_precip","flag_gusty_and_precip","was_rain_lag1h","flag_windy_and_precip","was_precip_category_lag2h","was_rain_lag2h","was_precip_category_lag3h","was_rain_lag3h","prcp_roll6h_median","prcp_roll3h_sum","prcp_roll3h_mean","prcp_roll6h_mean","prcp_roll6h_sum","prcp_roll3h_median","prcp_roll3h_min","prcp_roll12h_mean","prcp_roll12h_sum","prcp_roll12h_median","prcp_roll3h_max","prcp","prcp_roll6h_min","flag_moderate_precip","prcp_roll6h_max","prcp_lag_1h","was_precip_category_lag6h","prcp_roll6h_std","prcp_roll3h_std","flag_near_freezing_precip"],"feature_types":["int","int","int","int","int","int","int","int","int","int","float","float","float","float","float","float","float","float","float","float","float","float","float","int","float","float","int","float","float","int"],"gradient_booster":{"model":{"gbtree_model_param":{"num_parallel_tree":"1","num_trees":"200"},"iteration_indptr":[0,1,2,3,4,5,6,7,8,9,10,11,12,13,14,15,16,17,18,19,20,21,22,23,24,25,26,27,28,29,30,31,32,33,34,35,36,37,38,39,40,41,42,43,44,45,46,47,48,49,50,51,52,53,54,55,56,57,58,59,60,61,62,63,64,65,66,67,68,69,70,71,72,73,74,75,76,77,78,79,80,81,82,83,84,85,86,87,88,89,90,91,92,93,94,95,96,97,98,99,100,101,102,103,104,105,106,107,108,109,110,111,112,113,114,115,116,117,118,119,120,121,122,123,124,125,126,127,128,129,130,131,132,133,134,135,136,137,138,139,140,141,142,143,144,145,146,147,148,149,150,151,152,153,154,155,156,157,158,159,160,161,162,163,164,165,166,167,168,169,170,171,172,173,174,175,176,177,178,179,180,181,182,183,184,185,186,187,188,189,190,191,192,193,194,195,196,197,198,199,200],"tree_info":[0,0,0,0,0,0,0,0,0,0,0,0,0,0,0,0,0,0,0,0,0,0,0,0,0,0,0,0,0,0,0,0,0,0,0,0,0,0,0,0,0,0,0,0,0,0,0,0,0,0,0,0,0,0,0,0,0,0,0,0,0,0,0,0,0,0,0,0,0,0,0,0,0,0,0,0,0,0,0,0,0,0,0,0,0,0,0,0,0,0,0,0,0,0,0,0,0,0,0,0,0,0,0,0,0,0,0,0,0,0,0,0,0,0,0,0,0,0,0,0,0,0,0,0,0,0,0,0,0,0,0,0,0,0,0,0,0,0,0,0,0,0,0,0,0,0,0,0,0,0,0,0,0,0,0,0,0,0,0,0,0,0,0,0,0,0,0,0,0,0,0,0,0,0,0,0,0,0,0,0,0,0,0,0,0,0,0,0,0,0,0,0,0,0,0,0,0,0,0,0],"trees":[{"base_weights":[-9.269916E-3,-9.998562E-2,1.8459468E0,1.3433648E0,9.894013E-2,6.3345265E-1,1.6403375E0,1.1765399E0,-4.771276E-1,1.7686245E0,1.3649985E0,6.070628E-1,1.4169964E0,-7.6273173E-1,8.857072E-2,1.3037592E0,1.7866418E0,1.2125556E0,1.7028598E0,4.4018772E-1,7.105948E-2,6.7037754E-2,1.6261455E0,-1.3722174E0,-2.1312441E-1,-5.555556E-2,1.4398361E0,8.970315E-2,1.0163468E0,1.25214E0,-1.3842313E-1,1.3765882E0,9.287703E-2,2.435582E-2,-6.0000002E-2,4.6806056E-2,8.6695395E-2,-7.734116E-2,6.629049E-2,9.940417E-3,-6.3815914E-2,8.210628E-2,1.9352017E-2,-6.0000002E-2,8.039104E-2,-6.7407213E-4,6.435234E-2,-7.777778E-2,6.629049E-2,7.686938E-2,-6.363636E-2],"categories":[],"categories_nodes":[],"categories_segments":[],"categories_sizes":[],"default_left":[0,0,0,0,0,0,0,0,0,0,0,0,0,0,0,0,0,0,0,0,0,0,0,0,0,0,0,0,0,0,0,0,0,0,0,0,0,0,0,0,0,0,0,0,0,0,0,0,0,0,0],"id":0,"left_children":[1,-1,3,5,-1,7,9,11,13,15,17,19,21,23,-1,25,27,29,31,33,-1,-1,35,37,39,-1,41,-1,43,45,47,49,-1,-1,-1,-1,-1,-1,-1,-1,-1,-1,-1,-1,-1,-1,-1,-1,-1,-1,-1],"loss_changes":[5.3212625E4,0E0,4.953496E2,3.283767E2,0E0,2.7950208E2,3.6476807E1,4.171045E1,9.9347244E1,3.9331055E0,1.6184875E1,1.2151249E1,1.293335E0,4.529708E1,0E0,1.1983261E1,2.275879E0,1.3416321E1,2.8779602E0,6.7035465E0,0E0,0E0,2.3547974E0,3.236521E1,3.2114708E1,0E0,5.8276787E0,0E0,1.392366E1,1.0650574E1,1.8558268E1,1.835707E1,0E0,0E0,0E0,0E0,0E0,0E0,0E0,0E0,0E0,0E0,0E0,0E0,0E0,0E0,0E0,0E0,0E0,0E0,0E0],"parents":[2147483647,0,0,2,2,3,3,5,5,6,6,7,7,8,8,9,9,10,10,11,11,12,12,13,13,15,15,16,16,17,17,18,18,19,19,22,22,23,23,24,24,26,26,28,28,29,29,30,30,31,31],"right_children":[2,-1,4,6,-1,8,10,12,14,16,18,20,22,24,-1,26,28,30,32,34,-1,-1,36,38,40,-1,42,-1,44,46,48,50,-1,-1,-1,-1,-1,-1,-1,-1,-1,-1,-1,-1,-1,-1,-1,-1,-1,-1,-1],"split_conditions":[1E0,-9.998562E-2,1E0,8.164966E-2,9.894013E-2,3.3333335E-2,1E-1,1E0,1.5E-1,1E0,1E0,1E0,1.6666668E-2,1E0,8.857072E-2,6.666667E-2,1E0,2.9E0,3.4166667E-1,5.8333334E-2,7.105948E-2,6.7037754E-2,1E0,1E0,6.666667E-2,-5.555556E-2,1.3333334E-1,8.970315E-2,1.6666667E-1,8.3666004E-2,4.733333E0,2.4166666E-1,9.287703E-2,2.435582E-2,-6.0000002E-2,4.6806056E-2,8.6695395E-2,-7.734116E-2,6.629049E-2,9.940417E-3,-6.3815914E-2,8.210628E-2,1.9352017E-2,-6.0000002E-2,8.039104E-2,-6.7407213E-4,6.435234E-2,-7.777778E-2,6.629049E-2,7.686938E-2,-6.363636E-2],"split_indices":[2,0,0,27,0,13,15,3,19,1,6,29,17,3,0,17,8,20,17,17,0,0,5,6,13,0,13,0,12,27,12,17,0,0,0,0,0,0,0,0,0,0,0,0,0,0,0,0,0,0,0],"split_type":[0,0,0,0,0,0,0,0,0,0,0,0,0,0,0,0,0,0,0,0,0,0,0,0,0,0,0,0,0,0,0,0,0,0,0,0,0,0,0,0,0,0,0,0,0,0,0,0,0,0,0],"sum_hessian":[1.4408214E4,6.95075E3,7.457464E3,1.5615115E3,5.8959526E3,4.614794E2,1.1000321E3,3.098833E2,1.515961E2,7.467023E2,3.5332983E2,9.3045876E1,2.1683742E2,1.3509718E2,1.6498915E1,3.0598265E1,7.16104E2,2.4663655E2,1.06693275E2,7.849675E1,1.4549132E1,1.6434067E2,5.2496746E1,6.334935E1,7.174783E1,1.25E0,2.9348265E1,7.0795447E2,8.149567E0,2.3968677E2,6.9497833E0,3.749783E1,6.919544E1,7.699675E1,1.5E0,8.399567E0,4.409718E1,5.9899567E1,3.449783E0,5.2298046E1,1.9449783E1,2.4148481E1,5.1997833E0,1.5E0,6.649566E0,6.4497833E0,2.3323698E2,3.5E0,3.449783E0,3.574783E1,1.75E0],"tree_param":{"num_deleted":"0","num_feature":"30","num_nodes":"51","size_leaf_vector":"1"}},{"base_weights":[-8.2248105E-3,-9.52279E-2,1.5524205E0,2.4174678E-1,1.7488836E0,-7.4300575E-1,1.3026165E0,1.3769606E0,1.862404E0,-9.9815017E-1,8.281794E-2,1.4270753E0,9.208027E-1,1.5774388E0,-7.5560004E-1,1.3049126E0,9.4383925E-2,-6.392641E-1,-1.6784092E0,1.3555112E0,8.082896E-2,9.7470963E-1,-7.011136E-2,1.0060232E0,1.7331822E0,-1.3404161E0,1.509928E0,-2.904243E-1,1.6113136E0,-9.366886E-1,8.4627974E-1,-7.8392965E-1,-1.7406452E0,1.3179771E0,8.816821E-2,6.3770634E-1,1.3022056E0,1.1669997E0,-6.069698E-1,1.6319951E0,9.3541704E-2,-1.7265272E0,-3.918631E-1,1.6860039E0,9.414072E-1,-1.3865128E0,8.492478E-2,1.4238732E0,8.880468E-2,-5.5312093E-2,5.7861056E-2,4.835012E-2,-6.661421E-2,2.46744E-2,-8.322757E-2,-7.109605E-2,-8.996207E-2,6.973245E-2,4.5663558E-2,1.6220152E-2,8.492478E-2,5.5783756E-2,7.989965E-2,4.849066E-2,9.402305E-2,2.7450244E-3,-8.656443E-2,-5.936066E-2,8.200178E-2,-9.404832E-2,7.334485E-2,1.4858516E-2,-8.694165E-2,4.6836473E-2,9.024754E-2,7.6524824E-2,-6.1822753E-2,-9.3102366E-2,6.26043E-2,5.1772393E-2,7.709157E-2],"categories":[],"categories_nodes":[],"categories_segments":[],"categories_sizes":[],"default_left":[0,0,0,0,0,0,0,0,0,0,0,0,0,0,0,0,0,0,0,0,0,0,0,0,0,0,0,0,0,0,0,0,0,0,0,0,0,0,0,0,0,0,0,0,0,0,0,0,0,0,0,0,0,0,0,0,0,0,0,0,0,0,0,0,0,0,0,0,0,0,0,0,0,0,0,0,0,0,0,0,0],"id":1,"left_children":[1,-1,3,5,7,9,11,13,15,17,-1,19,21,23,25,27,-1,29,31,33,-1,35,-1,37,39,41,43,45,47,49,51,53,55,57,-1,59,61,63,65,67,-1,69,71,73,75,77,-1,79,-1,-1,-1,-1,-1,-1,-1,-1,-1,-1,-1,-1,-1,-1,-1,-1,-1,-1,-1,-1,-1,-1,-1,-1,-1,-1,-1,-1,-1,-1,-1,-1,-1],"loss_changes":[4.2689727E4,0E0,2.0370781E3,1.0797369E3,2.8796094E2,3.2988034E2,2.2325317E1,6.907844E2,7.17793E1,1.17393036E2,0E0,2.8718872E0,1.7034119E1,1.2949487E2,1.8655577E2,1.1375476E2,0E0,1.4185982E2,7.930603E0,1.9193726E0,0E0,1.2729683E1,0E0,8.333856E1,1.30686035E1,4.006163E1,1.3204117E0,8.5604836E1,3.4806824E0,9.589159E1,1.5433849E1,1.5086869E1,3.418579E-1,6.7256775E0,0E0,2.0224981E1,1.6021118E0,3.8932312E1,2.2073917E1,1.7245728E1,0E0,4.1602493E1,3.158261E1,1.731453E-1,1.3609597E1,3.3913624E1,0E0,2.8052063E0,0E0,0E0,0E0,0E0,0E0,0E0,0E0,0E0,0E0,0E0,0E0,0E0,0E0,0E0,0E0,0E0,0E0,0E0,0E0,0E0,0E0,0E0,0E0,0E0,0E0,0E0,0E0,0E0,0E0,0E0,0E0,0E0,0E0],"parents":[2147483647,0,0,2,2,3,3,4,4,5,5,6,6,7,7,8,8,9,9,11,11,12,12,13,13,14,14,15,15,17,17,18,18,19,19,21,21,23,23,24,24,25,25,26,26,27,27,28,28,29,29,30,30,31,31,32,32,33,33,35,35,36,36,37,37,38,38,39,39,41,41,42,42,43,43,44,44,45,45,47,47],"right_children":[2,-1,4,6,8,10,12,14,16,18,-1,20,22,24,26,28,-1,30,32,34,-1,36,-1,38,40,42,44,46,48,50,52,54,56,58,-1,60,62,64,66,68,-1,70,72,74,76,78,-1,80,-1,-1,-1,-1,-1,-1,-1,-1,-1,-1,-1,-1,-1,-1,-1,-1,-1,-1,-1,-1,-1,-1,-1,-1,-1,-1,-1,-1,-1,-1,-1,-1,-1],"split_conditions":[1E-1,-9.52279E-2,3E-1,1E0,1E-1,1E0,2.5E-2,1E0,1E0,3.3333335E-2,8.281794E-2,2E-1,8E-1,1E0,1E0,9.831921E-2,9.4383925E-2,2E-1,3.3333335E-2,1E0,8.082896E-2,7.527727E-2,-7.011136E-2,1E-1,1E0,6.9166666E-1,1.5E-1,1E0,1E0,1E0,2.5E-2,5.8333334E-2,5E-2,3.3333335E-2,8.816821E-2,1E0,1E0,1E0,3.5449496E-1,8.3666004E-2,9.3541704E-2,1E0,1E0,1.25E-1,6E-1,1E0,8.492478E-2,2.1666667E-1,8.880468E-2,-5.5312093E-2,5.7861056E-2,4.835012E-2,-6.661421E-2,2.46744E-2,-8.322757E-2,-7.109605E-2,-8.996207E-2,6.973245E-2,4.5663558E-2,1.6220152E-2,8.492478E-2,5.5783756E-2,7.989965E-2,4.849066E-2,9.402305E-2,2.7450244E-3,-8.656443E-2,-5.936066E-2,8.200178E-2,-9.404832E-2,7.334485E-2,1.4858516E-2,-8.694165E-2,4.6836473E-2,9.024754E-2,7.6524824E-2,-6.1822753E-2,-9.3102366E-2,6.26043E-2,5.1772393E-2,7.709157E-2],"split_indices":[11,0,11,3,16,29,17,6,6,17,0,20,24,3,3,27,0,20,13,4,0,27,0,10,4,17,10,4,4,4,17,17,13,13,0,4,26,23,27,27,0,29,4,17,11,29,0,13,0,0,0,0,0,0,0,0,0,0,0,0,0,0,0,0,0,0,0,0,0,0,0,0,0,0,0,0,0,0,0,0,0],"split_type":[0,0,0,0,0,0,0,0,0,0,0,0,0,0,0,0,0,0,0,0,0,0,0,0,0,0,0,0,0,0,0,0,0,0,0,0,0,0,0,0,0,0,0,0,0,0,0,0,0,0,0,0,0,0,0,0,0,0,0,0,0,0,0,0,0,0,0,0,0,0,0,0,0,0,0,0,0,0,0,0,0],"sum_hessian":[1.4422627E4,6.510964E3,7.911663E3,1.0316171E3,6.8800464E3,5.3515704E2,4.9646002E2,1.6119619E3,5.268084E3,4.84247E2,5.0910027E1,3.7234885E2,1.24111176E2,1.473684E3,1.3827803E2,2.3075902E2,5.037325E3,3.1827408E2,1.6597295E2,2.761985E2,9.6150375E1,1.21863686E2,2.2474854E0,3.1723227E2,1.1564517E3,1.1023155E2,2.804647E1,3.7187447E1,1.9357158E2,2.6548926E2,5.278481E1,1.1681268E1,1.5429169E2,2.567973E2,1.940118E1,6.1512585E1,6.0351105E1,2.8869687E2,2.8535414E1,6.73916E2,4.825356E2,7.775926E1,3.247229E1,1.9913492E1,8.132979E0,2.4170197E1,1.301725E1,9.506934E1,9.8502235E1,2.4603815E2,1.9451118E1,5.0540302E1,2.2445076E0,4.9461155E0,6.7351527E0,2.7884598E1,1.2640709E2,2.1383922E2,4.2958076E1,4.8495335E1,1.301725E1,3.993748E1,2.0413622E1,2.280325E2,6.0664352E1,1.8560364E1,9.975049E0,1.4994912E0,6.7241656E2,7.45642E1,3.195061E0,2.1998491E1,1.0473802E1,3.9440687E0,1.5969423E1,6.635416E0,1.4975635E0,2.0728722E1,3.4414754E0,2.4423405E1,7.0645935E1],"tree_param":{"num_deleted":"0","num_feature":"30","num_nodes":"81","size_leaf_vector":"1"}},{"base_weights":[2.4294624E-2,-9.123347E-2,1.689687E0,9.321204E-1,1.7586758E0,7.0471466E-1,8.845937E-2,1.5040908E0,9.033777E-2,1.2021675E0,-5.7978237E-1,1.0290252E0,1.5637506E0,8.5482466E-1,1.4391605E0,-1.4441189E0,1.3298696E-1,1.0967661E0,-7.538488E-2,1.1548121E0,1.5914598E0,9.171859E-1,-7.536841E-2,1.3856009E0,8.5765444E-2,-1.6233207E0,6.616063E-2,3.935393E-1,-9.595316E-1,-6.467279E-2,1.1460165E0,-8.627512E-2,1.3780464E0,8.088414E-2,1.3732429E0,3.4037393E-2,6.404256E-2,6.6810355E-2,8.307691E-2,-6.217126E-2,-9.045164E-2,-2.1495445E-2,2.6096923E-2,-1.5852423E-2,-8.2129546E-2,7.6974176E-2,4.7481835E-2,3.9474007E-2,7.5698815E-2,-7.373231E-2,7.244955E-2],"categories":[],"categories_nodes":[],"categories_segments":[],"categories_sizes":[],"default_left":[0,0,0,0,0,0,0,0,0,0,0,0,0,0,0,0,0,0,0,0,0,0,0,0,0,0,0,0,0,0,0,0,0,0,0,0,0,0,0,0,0,0,0,0,0,0,0,0,0,0,0],"id":2,"left_children":[1,-1,3,5,7,9,-1,11,-1,13,15,17,19,21,23,25,27,29,-1,31,33,35,-1,37,-1,39,-1,41,43,-1,45,-1,47,-1,49,-1,-1,-1,-1,-1,-1,-1,-1,-1,-1,-1,-1,-1,-1,-1,-1],"loss_changes":[4.471422E4,0E0,3.9764453E2,1.2053937E2,8.2978516E1,3.232337E2,0E0,3.0080566E1,0E0,2.8748474E1,8.742021E1,2.3592957E1,9.396484E0,2.3503532E1,8.034668E-1,3.3923218E1,2.2726995E1,1.6189194E1,0E0,4.5174904E1,3.0766602E0,1.1761444E1,0E0,3.0529785E-1,0E0,2.027893E0,0E0,7.002043E0,6.241787E0,0E0,8.03746E0,0E0,3.7912445E0,0E0,2.4991348E1,0E0,0E0,0E0,0E0,0E0,0E0,0E0,0E0,0E0,0E0,0E0,0E0,0E0,0E0,0E0,0E0],"parents":[2147483647,0,0,2,2,3,3,4,4,5,5,7,7,9,9,10,10,11,11,12,12,13,13,14,14,15,15,16,16,17,17,19,19,20,20,21,21,23,23,25,25,27,27,28,28,30,30,32,32,34,34],"right_children":[2,-1,4,6,8,10,-1,12,-1,14,16,18,20,22,24,26,28,30,-1,32,34,36,-1,38,-1,40,-1,42,44,-1,46,-1,48,-1,50,-1,-1,-1,-1,-1,-1,-1,-1,-1,-1,-1,-1,-1,-1,-1,-1],"split_conditions":[1E-1,-9.123347E-2,2E-1,1E0,1E0,3.3333335E-2,8.845937E-2,1.1547005E-1,9.033777E-2,1E0,1E0,2.8333333E-1,1E0,3.3333335E-2,2.5E-2,1.08333334E-1,1E-1,7.527727E-2,-7.538488E-2,5E-1,1.5E-1,1E0,-7.536841E-2,1E0,8.5765444E-2,2.5E-2,6.616063E-2,2E-1,5E-2,-6.467279E-2,1E0,-8.627512E-2,5E-2,8.088414E-2,1.9407903E-1,3.4037393E-2,6.404256E-2,6.6810355E-2,8.307691E-2,-6.217126E-2,-9.045164E-2,-2.1495445E-2,2.6096923E-2,-1.5852423E-2,-8.2129546E-2,7.6974176E-2,4.7481835E-2,3.9474007E-2,7.5698815E-2,-7.373231E-2,7.244955E-2],"split_indices":[21,0,24,0,0,13,0,28,0,5,3,13,1,17,17,17,10,27,0,20,10,3,0,29,0,17,0,11,17,0,3,0,10,0,27,0,0,0,0,0,0,0,0,0,0,0,0,0,0,0,0],"split_type":[0,0,0,0,0,0,0,0,0,0,0,0,0,0,0,0,0,0,0,0,0,0,0,0,0,0,0,0,0,0,0,0,0,0,0,0,0,0,0,0,0,0,0,0,0,0,0,0,0,0,0],"sum_hessian":[1.4519135E4,6.8803203E3,7.6388145E3,6.38788E2,7.0000264E3,5.037707E2,1.3501735E2,1.1171113E3,5.882915E3,3.6318323E2,1.4058748E2,1.2667334E2,9.9043805E2,1.4916711E2,2.1401611E2,6.307446E1,7.751302E1,1.239315E2,2.7418354E0,6.5559975E1,9.2487805E2,1.4592642E2,3.2406945E0,1.8429028E2,2.972582E1,5.9626663E1,3.4477973E0,6.3103416E1,1.4409608E1,1.9920199E0,1.2193948E2,4.231598E0,6.1328373E1,8.199335E2,1.04944565E2,9.017243E1,5.5753983E1,1.6126552E2,2.3024765E1,2.2104595E1,3.7522064E1,8.195554E0,5.4907864E1,8.179839E0,6.2297688E0,3.8320713E1,8.3618774E1,1.278374E1,4.8544636E1,2.2405155E0,1.02704056E2],"tree_param":{"num_deleted":"0","num_feature":"30","num_nodes":"51","size_leaf_vector":"1"}},{"base_weights":[-5.3013735E-3,-8.763396E-2,1.6173416E0,8.4959495E-1,1.6854042E0,6.8303186E-1,8.3742306E-2,1.5535477E0,8.66937E-2,1.1065667E0,-1.5229201E-1,1.4514378E0,8.5118175E-2,7.64228E-1,1.3472079E0,-7.773133E-1,4.0359336E-1,9.730468E-1,1.5113333E0,8.2739985E-1,-7.259785E-2,6.47869E-2,7.878884E-2,-1.0088711E0,8.206604E-2,8.881305E-1,-1.1690195E0,7.647251E-1,1.4660354E0,1.556559E0,1.256984E0,3.4526836E-2,5.3464092E-2,-5.664664E-2,4.221638E-2,4.0117394E-2,7.566253E-2,-8.521359E-2,7.3584296E-2,-5.7015624E-2,4.0771462E-2,8.284207E-2,3.873436E-2,7.272994E-2,7.924875E-2,-5.9438046E-2,6.447486E-2],"categories":[],"categories_nodes":[],"categories_segments":[],"categories_sizes":[],"default_left":[0,0,0,0,0,0,0,0,0,0,0,0,0,0,0,0,0,0,0,0,0,0,0,0,0,0,0,0,0,0,0,0,0,0,0,0,0,0,0,0,0,0,0,0,0,0,0],"id":3,"left_children":[1,-1,3,5,7,9,-1,11,-1,13,15,17,-1,19,21,23,25,27,29,31,-1,-1,-1,33,-1,35,37,39,41,43,45,-1,-1,-1,-1,-1,-1,-1,-1,-1,-1,-1,-1,-1,-1,-1,-1],"loss_changes":[4.016673E4,0E0,3.8239844E2,8.135321E1,4.041992E1,1.7744043E2,0E0,2.5229004E1,0E0,2.637088E1,5.919087E1,2.9701172E1,0E0,2.0745964E1,2.4057007E-1,4.652244E1,6.988294E1,1.1599159E1,9.144531E0,3.776184E0,0E0,0E0,0E0,1.7908096E1,0E0,2.5200539E0,3.319722E1,9.54179E0,3.4259262E0,5.6274414E-2,1.353093E1,0E0,0E0,0E0,0E0,0E0,0E0,0E0,0E0,0E0,0E0,0E0,0E0,0E0,0E0,0E0,0E0],"parents":[2147483647,0,0,2,2,3,3,4,4,5,5,7,7,9,9,10,10,11,11,13,13,14,14,15,15,16,16,17,17,18,18,19,19,23,23,25,25,26,26,27,27,28,28,29,29,30,30],"right_children":[2,-1,4,6,8,10,-1,12,-1,14,16,18,-1,20,22,24,26,28,30,32,-1,-1,-1,34,-1,36,38,40,42,44,46,-1,-1,-1,-1,-1,-1,-1,-1,-1,-1,-1,-1,-1,-1,-1,-1],"split_conditions":[1E-1,-8.763396E-2,2E-1,1E0,1E0,2E-1,8.3742306E-2,1E0,8.66937E-2,1E0,1E-1,1E0,8.5118175E-2,3.3333335E-2,2.5E-2,1.5E-1,1E-1,1E0,5E-2,1E0,-7.259785E-2,6.47869E-2,7.878884E-2,1E0,8.206604E-2,1E0,1E0,7.527727E-2,1.3291602E-1,3E-1,5E-1,3.4526836E-2,5.3464092E-2,-5.664664E-2,4.221638E-2,4.0117394E-2,7.566253E-2,-8.521359E-2,7.3584296E-2,-5.7015624E-2,4.0771462E-2,8.284207E-2,3.873436E-2,7.272994E-2,7.924875E-2,-5.9438046E-2,6.447486E-2],"split_indices":[21,0,24,4,6,14,0,4,0,5,25,1,0,17,17,19,10,26,10,3,0,0,0,26,0,6,6,27,27,21,14,0,0,0,0,0,0,0,0,0,0,0,0,0,0,0,0],"split_type":[0,0,0,0,0,0,0,0,0,0,0,0,0,0,0,0,0,0,0,0,0,0,0,0,0,0,0,0,0,0,0,0,0,0,0,0,0,0,0,0,0,0,0,0,0,0,0],"sum_hessian":[1.416431E4,6.819984E3,7.3443257E3,5.991698E2,6.745156E3,5.0006726E2,9.9102516E1,1.821906E3,4.92325E3,3.3160745E2,1.6845982E2,1.0868901E3,7.3501587E2,1.3860393E2,1.9300352E2,7.911118E1,8.934864E1,1.228581E2,9.6403204E2,1.3537184E2,3.232088E0,1.6297354E2,3.0029984E1,7.273087E1,6.380312E0,6.863636E1,2.0712273E1,8.815692E1,3.470118E1,8.1414923E2,1.4988277E2,8.891582E1,4.6456017E1,6.85317E1,4.1991696E0,6.236217E1,6.274194E0,1.7516432E1,3.1958416E0,1.7284027E0,8.642852E1,2.6101002E1,8.600177E0,1.8882202E2,6.253272E2,1.4998091E0,1.4838297E2],"tree_param":{"num_deleted":"0","num_feature":"30","num_nodes":"47","size_leaf_vector":"1"}},{"base_weights":[-1.4955021E-3,-8.4476545E-2,1.5568054E0,8.2802516E-1,1.6239854E0,3.6188832E-1,1.2002993E0,1.496572E0,1.6719695E0,2.131192E-1,7.0304215E-2,1.0809972E0,8.14222E-2,-7.418603E-2,1.5018256E0,7.1760096E-2,8.370859E-2,7.188683E-1,-3.3670923E-1,1.1845727E0,1.964327E-1,1.3319409E0,1.5631762E0,7.7993846E-1,-6.848802E-2,-1.2774353E0,3.932683E-1,1.1978432E0,2.059397E-2,-3.3667015E-3,7.075476E-2,1.3448994E0,1.3280708E-1,2.407998E-1,1.567772E0,3.6740206E-2,5.6074947E-2,-7.423293E-2,4.843448E-2,-7.4466266E-2,3.1182487E-2,5.447656E-2,6.64637E-2,1.7886378E-2,-7.3497735E-2,7.0172474E-2,5.961139E-2,-7.690921E-2,6.9519274E-2,-7.308089E-2,6.526867E-2,7.86611E-2,5.5806715E-2],"categories":[],"categories_nodes":[],"categories_segments":[],"categories_sizes":[],"default_left":[0,0,0,0,0,0,0,0,0,0,0,0,0,0,0,0,0,0,0,0,0,0,0,0,0,0,0,0,0,0,0,0,0,0,0,0,0,0,0,0,0,0,0,0,0,0,0,0,0,0,0,0,0],"id":4,"left_children":[1,-1,3,5,7,9,11,13,15,17,-1,19,-1,-1,21,-1,-1,23,25,27,29,31,33,35,-1,37,39,41,-1,43,-1,45,47,49,51,-1,-1,-1,-1,-1,-1,-1,-1,-1,-1,-1,-1,-1,-1,-1,-1,-1,-1],"loss_changes":[3.6956484E4,0E0,3.5632422E2,1.0691641E2,3.8384766E1,4.259342E1,1.5785675E1,3.1023926E1,1.2792969E-1,6.777596E1,0E0,2.4653442E1,0E0,0E0,1.7057617E1,0E0,0E0,1.7244667E1,8.087565E1,1.9979858E0,7.2291164E0,7.4974976E0,7.7871094E0,1.085289E0,0E0,2.5350174E1,2.9843369E1,1.944458E0,0E0,1.4553603E1,0E0,2.694336E0,1.5568353E1,1.2481657E1,1.5385742E0,0E0,0E0,0E0,0E0,0E0,0E0,0E0,0E0,0E0,0E0,0E0,0E0,0E0,0E0,0E0,0E0,0E0,0E0],"parents":[2147483647,0,0,2,2,3,3,4,4,5,5,6,6,7,7,8,8,9,9,11,11,14,14,17,17,18,18,19,19,20,20,21,21,22,22,23,23,25,25,26,26,27,27,29,29,31,31,32,32,33,33,34,34],"right_children":[2,-1,4,6,8,10,12,14,16,18,-1,20,-1,-1,22,-1,-1,24,26,28,30,32,34,36,-1,38,40,42,-1,44,-1,46,48,50,52,-1,-1,-1,-1,-1,-1,-1,-1,-1,-1,-1,-1,-1,-1,-1,-1,-1,-1],"split_conditions":[1E-1,-8.4476545E-2,7.527727E-2,1E0,1E0,1E0,1E0,8.164966E-2,1E-1,3.3333335E-2,7.0304215E-2,5E-2,8.14222E-2,-7.418603E-2,3E-1,7.1760096E-2,8.370859E-2,3.3333335E-2,1E-1,8.3333336E-2,1.75E-1,6.5833336E-1,1.2110601E-1,1.6666668E-2,-6.848802E-2,1E0,5.1639777E-2,1.6666668E-2,2.059397E-2,5.8333334E-2,7.075476E-2,9.166667E-2,4E-1,1E0,5.5E-1,3.6740206E-2,5.6074947E-2,-7.423293E-2,4.843448E-2,-7.4466266E-2,3.1182487E-2,5.447656E-2,6.64637E-2,1.7886378E-2,-7.3497735E-2,7.0172474E-2,5.961139E-2,-7.690921E-2,6.9519274E-2,-7.308089E-2,6.526867E-2,7.86611E-2,5.5806715E-2],"split_indices":[21,0,27,5,6,6,6,27,16,13,0,10,0,0,21,0,0,17,25,17,17,17,27,17,0,26,27,17,0,17,0,17,10,26,10,0,0,0,0,0,0,0,0,0,0,0,0,0,0,0,0,0,0],"split_type":[0,0,0,0,0,0,0,0,0,0,0,0,0,0,0,0,0,0,0,0,0,0,0,0,0,0,0,0,0,0,0,0,0,0,0,0,0,0,0,0,0,0,0,0,0,0,0,0,0,0,0,0,0],"sum_hessian":[1.40474E4,6.742969E3,7.304431E3,6.176272E2,6.6868037E3,2.7511658E2,3.4251062E2,1.8381384E3,4.8486655E3,2.4186201E2,3.325457E1,2.7062592E2,7.188471E1,2.739262E0,1.8353992E3,5.069995E1,4.7979653E3,1.25820755E2,1.1604125E2,2.4195566E2,2.8670256E1,4.9298807E2,1.3424111E3,1.2285513E2,2.9656234E0,5.0374016E1,6.5667244E1,2.3732945E2,4.6261907E0,2.5488638E1,3.1816182E0,4.8759726E2,5.39082E0,4.8342514E0,1.3375769E3,1.1129919E2,1.1555945E1,4.6429527E1,3.9444869E0,6.564E0,5.910324E1,1.352005E2,1.0212896E2,2.1059565E1,4.429074E0,3.465151E2,1.4108215E2,2.2190948E0,3.1717255E0,1.7164394E0,3.1178122E0,1.3191753E3,1.8401602E1],"tree_param":{"num_deleted":"0","num_feature":"30","num_nodes":"53","size_leaf_vector":"1"}},{"base_weights":[2.1679955E-2,-8.1684686E-2,1.5064447E0,7.6016223E-1,1.5708381E0,2.1011053E-1,1.1941017E0,1.3305053E0,8.0892295E-2,-1.2642245E-1,7.952086E-2,1.0743624E0,8.0105156E-2,1.4468396E0,1.1002808E0,4.9906647E-1,-9.5078135E-1,1.2794746E0,4.4762485E-2,1.4548162E0,9.9295384E-1,1.1269376E0,-8.5505374E-2,2.2317968E-1,9.8189455E-1,-1.0550393E0,7.282311E-2,5.9417915E-2,7.465738E-2,3.432097E-1,-7.6437585E-2,1.4577882E0,3.535216E-2,6.9099836E-2,-6.914831E-2,8.1504524E-1,1.3033047E0,1.489116E-2,-6.784722E-2,5.2592333E-2,1.7913861E-2,-3.5593536E-2,-8.360164E-2,3.390571E-3,6.8878084E-2,5.6952424E-2,7.331257E-2,-6.863908E-2,4.3446384E-2,5.392744E-2,7.106484E-2],"categories":[],"categories_nodes":[],"categories_segments":[],"categories_sizes":[],"default_left":[0,0,0,0,0,0,0,0,0,0,0,0,0,0,0,0,0,0,0,0,0,0,0,0,0,0,0,0,0,0,0,0,0,0,0,0,0,0,0,0,0,0,0,0,0,0,0,0,0,0,0],"id":5,"left_children":[1,-1,3,5,7,9,11,13,-1,15,-1,17,-1,19,21,23,25,27,29,31,33,35,-1,37,39,41,-1,-1,-1,43,-1,45,-1,-1,-1,47,49,-1,-1,-1,-1,-1,-1,-1,-1,-1,-1,-1,-1,-1,-1],"loss_changes":[3.431674E4,0E0,3.5251172E2,1.397604E2,7.438672E1,1.20927986E2,1.4287567E1,2.8243286E1,0E0,1.0869359E2,0E0,5.4084686E1,0E0,1.2232666E0,3.0253967E1,1.576412E1,2.4347511E1,2.387085E0,2.1011692E1,5.7385254E-1,1.6585648E1,1.9574554E1,0E0,9.562919E0,1.5136414E0,1.73779E1,0E0,0E0,0E0,1.0585067E1,0E0,2.6708984E-1,0E0,0E0,0E0,1.7482704E1,4.7781067E0,0E0,0E0,0E0,0E0,0E0,0E0,0E0,0E0,0E0,0E0,0E0,0E0,0E0,0E0],"parents":[2147483647,0,0,2,2,3,3,4,4,5,5,6,6,7,7,9,9,11,11,13,13,14,14,15,15,16,16,17,17,18,18,19,19,20,20,21,21,23,23,24,24,25,25,29,29,31,31,35,35,36,36],"right_children":[2,-1,4,6,8,10,12,14,-1,16,-1,18,-1,20,22,24,26,28,30,32,34,36,-1,38,40,42,-1,-1,-1,44,-1,46,-1,-1,-1,48,50,-1,-1,-1,-1,-1,-1,-1,-1,-1,-1,-1,-1,-1,-1],"split_conditions":[1E0,-8.1684686E-2,2E-1,1E0,1E0,1E0,1E0,1E-1,8.0892295E-2,3.3333335E-2,7.952086E-2,3.3333335E-2,8.0105156E-2,1E0,2.1E0,1E0,1.5E-1,1.6666668E-2,6.666667E-2,1.35E0,1.4166667E-1,1.8333334E-1,-8.5505374E-2,2.5E-2,1.6666668E-2,3.3333335E-2,7.282311E-2,5.9417915E-2,7.465738E-2,5E-2,-7.6437585E-2,1E0,3.535216E-2,6.9099836E-2,-6.914831E-2,7.527727E-2,3E-1,1.489116E-2,-6.784722E-2,5.2592333E-2,1.7913861E-2,-3.5593536E-2,-8.360164E-2,3.390571E-3,6.8878084E-2,5.6952424E-2,7.331257E-2,-6.863908E-2,4.3446384E-2,5.392744E-2,7.106484E-2],"split_indices":[2,0,24,5,0,0,0,15,0,13,0,13,0,8,21,3,19,17,13,13,17,13,0,17,17,17,0,0,0,19,0,1,0,0,0,27,21,0,0,0,0,0,0,0,0,0,0,0,0,0,0],"split_type":[0,0,0,0,0,0,0,0,0,0,0,0,0,0,0,0,0,0,0,0,0,0,0,0,0,0,0,0,0,0,0,0,0,0,0,0,0,0,0,0,0,0,0,0,0,0,0,0,0,0,0],"sum_hessian":[1.3960149E4,6.6007886E3,7.3593613E3,5.855843E2,6.773777E3,2.588968E2,3.2668747E2,1.1129572E3,5.66082E3,2.0887848E2,5.001832E1,2.5537407E2,7.13134E1,7.358444E2,3.7711273E2,1.1898913E2,8.988936E1,2.1274857E2,4.2625496E1,7.2096875E2,1.4875623E1,3.7416278E2,2.949971E0,7.665238E1,4.2336746E1,8.669626E1,3.1930997E0,1.5374774E2,5.9000835E1,3.648693E1,6.1385655E0,7.171688E2,3.799954E0,1.3142025E1,1.7335973E0,1.3718402E2,2.3697874E2,7.396965E1,2.6827345E0,3.7449314E1,4.887431E0,5.7094418E1,2.9601841E1,2.9656412E1,6.8305197E0,2.2056736E1,6.9511206E2,2.7090495E0,1.3447498E2,8.507172E1,1.5190703E2],"tree_param":{"num_deleted":"0","num_feature":"30","num_nodes":"51","size_leaf_vector":"1"}},{"base_weights":[2.0527884E-2,-7.919746E-2,1.4586148E0,7.5454175E-1,1.5217664E0,5.6076086E-1,7.809144E-2,1.2868164E0,7.8379944E-2,9.0576786E-1,-4.382419E-1,1.3998342E0,1.0633181E0,9.94087E-1,-7.613436E-2,-1.2289555E0,1.8918183E-1,1.4086643E0,9.2860997E-1,7.134859E-1,1.1967468E0,6.6731536E-1,1.1340328E0,-7.4841076E-1,-8.131125E-2,3.3837253E-1,-7.737204E-2,1.3128949E0,7.204249E-2,7.515266E-2,-6.078719E-2,-6.207484E-2,7.681222E-1,1.2196175E0,7.847427E-2,3.469258E-2,-4.496499E-2,5.4203447E-2,6.4030655E-2,-7.0542365E-2,-2.6821224E-2,7.3437946E-4,3.8577475E-2,6.6351324E-2,2.9770354E-2,-7.800356E-2,5.6935705E-2,3.1902418E-2,5.6649815E-2,5.3230315E-2,6.649771E-2,-7.399173E-2,5.6008726E-2],"categories":[],"categories_nodes":[],"categories_segments":[],"categories_sizes":[],"default_left":[0,0,0,0,0,0,0,0,0,0,0,0,0,0,0,0,0,0,0,0,0,0,0,0,0,0,0,0,0,0,0,0,0,0,0,0,0,0,0,0,0,0,0,0,0,0,0,0,0,0,0,0,0],"id":6,"left_children":[1,-1,3,5,7,9,-1,11,-1,13,15,17,19,21,-1,23,25,27,29,31,33,35,37,39,-1,41,-1,43,-1,-1,45,-1,47,49,51,-1,-1,-1,-1,-1,-1,-1,-1,-1,-1,-1,-1,-1,-1,-1,-1,-1,-1],"loss_changes":[3.1332232E4,0E0,3.1724805E2,9.164212E1,6.873633E1,1.6531354E2,0E0,2.5743042E1,0E0,7.786502E1,6.1503044E1,1.6582031E0,1.6240936E1,1.4978973E1,0E0,9.239555E0,1.8589157E1,2.5915527E-1,9.211629E0,1.2018711E1,6.647064E0,5.014328E0,3.6569214E-1,2.984373E0,0E0,9.106955E0,0E0,1.1037292E0,0E0,0E0,1.4105525E1,0E0,4.0893326E0,3.0016785E0,1.1969768E1,0E0,0E0,0E0,0E0,0E0,0E0,0E0,0E0,0E0,0E0,0E0,0E0,0E0,0E0,0E0,0E0,0E0,0E0],"parents":[2147483647,0,0,2,2,3,3,4,4,5,5,7,7,9,9,10,10,11,11,12,12,13,13,15,15,16,16,17,17,18,18,19,19,20,20,21,21,22,22,23,23,25,25,27,27,30,30,32,32,33,33,34,34],"right_children":[2,-1,4,6,8,10,-1,12,-1,14,16,18,20,22,-1,24,26,28,30,32,34,36,38,40,-1,42,-1,44,-1,-1,46,-1,48,50,52,-1,-1,-1,-1,-1,-1,-1,-1,-1,-1,-1,-1,-1,-1,-1,-1,-1,-1],"split_conditions":[1E0,-7.919746E-2,2E-1,1E0,1E0,5.1639777E-2,7.809144E-2,1E-1,7.8379944E-2,2E-1,1E0,1E0,6E-1,1E0,-7.613436E-2,2.5E-2,3E-1,3E-1,1E-1,7.527727E-2,2.1E0,5.8333334E-2,1.6666668E-2,2E-1,-8.131125E-2,5.4772254E-2,-7.737204E-2,8E-1,7.204249E-2,7.515266E-2,2.5E-1,-6.207484E-2,1E0,3E-1,1E1,3.469258E-2,-4.496499E-2,5.4203447E-2,6.4030655E-2,-7.0542365E-2,-2.6821224E-2,7.3437946E-4,3.8577475E-2,6.6351324E-2,2.9770354E-2,-7.800356E-2,5.6935705E-2,3.1902418E-2,5.6649815E-2,5.3230315E-2,6.649771E-2,-7.399173E-2,5.6008726E-2],"split_indices":[2,0,24,0,0,27,0,15,0,11,3,8,11,3,0,17,11,11,17,27,21,17,17,11,0,27,0,24,0,0,19,0,8,15,21,0,0,0,0,0,0,0,0,0,0,0,0,0,0,0,0,0,0],"split_type":[0,0,0,0,0,0,0,0,0,0,0,0,0,0,0,0,0,0,0,0,0,0,0,0,0,0,0,0,0,0,0,0,0,0,0,0,0,0,0,0,0,0,0,0,0,0,0,0,0,0,0,0,0],"sum_hessian":[1.3577152E4,6.4172783E3,7.159874E3,5.904076E2,6.5694663E3,4.7748654E2,1.1292104E2,1.0770865E3,5.49238E3,3.5498523E2,1.2250132E2,7.1185516E2,3.652314E2,3.4309796E2,1.1887286E1,5.3773846E1,6.872747E1,6.968083E2,1.5046839E1,1.025931E2,2.626383E2,1.0460801E2,2.3848994E2,2.56414E1,2.8132448E1,6.403175E1,4.6957192E0,1.857853E2,5.11023E2,9.191247E0,5.855592E0,2.1986482E0,1.00394455E2,2.572857E2,5.3525867E0,1.0341343E2,1.194577E0,1.8412436E2,5.436558E1,4.845212E0,2.0796186E1,3.7239216E1,2.6792538E1,1.8136363E2,4.4216676E0,2.46897E0,3.386622E0,7.6036804E1,2.4357655E1,1.1141229E2,1.4587341E2,1.9760149E0,3.376572E0],"tree_param":{"num_deleted":"0","num_feature":"30","num_nodes":"53","size_leaf_vector":"1"}},{"base_weights":[-1.3498814E-2,-7.689934E-2,1.236161E0,1.8864176E-1,1.4052504E0,-3.7872234E-1,1.0829539E0,9.231276E-1,1.4908562E0,-5.7363373E-1,1.2611982E0,1.1682665E0,3.7277022E-1,-2.869057E-1,1.2803493E0,1.2720242E0,7.623144E-2,-6.860853E-1,1.3093361E0,6.8712346E-2,-5.7690423E-2,1.1805578E0,5.7154536E-1,-9.837022E-2,1.3301846E0,-9.0311974E-1,8.783221E-1,1.3620682E0,1.0316366E0,1.4647081E0,-7.5393334E-2,-2.3085022E-1,-9.2895925E-1,6.814193E-2,3.616197E-2,-8.123972E-2,5.990954E-2,1.2102697E0,9.353376E-1,-7.749533E-2,6.354965E-2,-6.850901E-1,8.8284594E-1,7.388284E-2,3.645685E-2,-7.7813E-2,-4.183789E-1,-6.469806E-2,1.0119306E0,4.8376578E-1,6.87292E-2,1.2032341E0,8.392921E-1,-6.463777E-2,1.4832878E0,7.122884E-3,-7.620593E-2,-6.600688E-2,-1.2713762E-2,5.54079E-2,6.682871E-2,-8.090946E-3,7.253282E-2,-1.0010414E-2,-8.840584E-2,2.3704542E-2,5.15028E-2,-3.9692458E-2,2.2873849E-2,1.4940711E-2,5.893142E-2,-2.6203291E-3,5.9804525E-2,6.47971E-2,2.6380358E-2,-2.1277316E-2,5.854721E-2,5.84018E-2,7.5430535E-2],"categories":[],"categories_nodes":[],"categories_segments":[],"categories_sizes":[],"default_left":[0,0,0,0,0,0,0,0,0,0,0,0,0,0,0,0,0,0,0,0,0,0,0,0,0,0,0,0,0,0,0,0,0,0,0,0,0,0,0,0,0,0,0,0,0,0,0,0,0,0,0,0,0,0,0,0,0,0,0,0,0,0,0,0,0,0,0,0,0,0,0,0,0,0,0,0,0,0,0],"id":7,"left_children":[1,-1,3,5,7,9,11,13,15,17,19,21,23,25,27,29,-1,31,33,-1,35,37,39,41,43,45,47,49,51,53,-1,55,57,-1,-1,-1,-1,59,61,-1,-1,63,65,-1,-1,-1,67,-1,69,71,-1,73,75,-1,77,-1,-1,-1,-1,-1,-1,-1,-1,-1,-1,-1,-1,-1,-1,-1,-1,-1,-1,-1,-1,-1,-1,-1,-1],"loss_changes":[2.5118668E4,0E0,1.2831113E3,5.119623E2,2.561006E2,1.9812852E2,2.3290314E1,4.0810815E2,3.720215E1,1.1792207E2,9.907562E0,1.8859558E0,1.973689E1,1.5575932E2,1.3400757E1,3.847185E2,0E0,5.7520203E1,1.7700195E-3,0E0,1.4077785E1,1.3535461E0,1.5301895E1,1.7911083E1,1.9929695E-1,4.4199036E1,2.3123821E1,5.328125E0,5.0724945E0,3.6158203E1,0E0,8.856641E1,8.9445526E1,0E0,0E0,0E0,0E0,2.3992615E0,2.3567917E1,0E0,0E0,9.820828E0,2.148304E-1,0E0,0E0,0E0,2.7553186E1,0E0,8.131592E0,3.5775294E0,0E0,5.2721405E0,3.8333557E1,0E0,3.5413818E0,0E0,0E0,0E0,0E0,0E0,0E0,0E0,0E0,0E0,0E0,0E0,0E0,0E0,0E0,0E0,0E0,0E0,0E0,0E0,0E0,0E0,0E0,0E0,0E0],"parents":[2147483647,0,0,2,2,3,3,4,4,5,5,6,6,7,7,8,8,9,9,10,10,11,11,12,12,13,13,14,14,15,15,17,17,18,18,20,20,21,21,22,22,23,23,24,24,25,25,26,26,27,27,28,28,29,29,31,31,32,32,37,37,38,38,41,41,42,42,46,46,48,48,49,49,51,51,52,52,54,54],"right_children":[2,-1,4,6,8,10,12,14,16,18,20,22,24,26,28,30,-1,32,34,-1,36,38,40,42,44,46,48,50,52,54,-1,56,58,-1,-1,-1,-1,60,62,-1,-1,64,66,-1,-1,-1,68,-1,70,72,-1,74,76,-1,78,-1,-1,-1,-1,-1,-1,-1,-1,-1,-1,-1,-1,-1,-1,-1,-1,-1,-1,-1,-1,-1,-1,-1,-1],"split_conditions":[3.3333335E-2,-7.689934E-2,1E-1,1E0,1E0,1E0,5E-2,1E0,1E-1,1E0,2.5E-2,1.4166667E-1,2.9166666E-1,1E0,1E-1,1E0,7.623144E-2,1.6666668E-2,2.5E-2,6.8712346E-2,1E-1,1E-1,2.4166666E-1,1E0,4.8333332E-1,1E-1,5.4772254E-2,1.22474484E-1,1E0,1E-1,-7.5393334E-2,1E-1,1E-1,6.814193E-2,3.616197E-2,-8.123972E-2,5.990954E-2,1.6666668E-2,1E0,-7.749533E-2,6.354965E-2,5.8333334E-2,5E-2,7.388284E-2,3.645685E-2,-7.7813E-2,1E0,-6.469806E-2,5E-2,1.08333334E-1,6.87292E-2,6E-1,1.4166667E-1,-6.463777E-2,1E0,7.122884E-3,-7.620593E-2,-6.600688E-2,-1.2713762E-2,5.54079E-2,6.682871E-2,-8.090946E-3,7.253282E-2,-1.0010414E-2,-8.840584E-2,2.3704542E-2,5.15028E-2,-3.9692458E-2,2.2873849E-2,1.4940711E-2,5.893142E-2,-2.6203291E-3,5.9804525E-2,6.47971E-2,2.6380358E-2,-2.1277316E-2,5.854721E-2,5.84018E-2,7.5430535E-2],"split_indices":[12,0,12,5,0,1,13,1,16,29,17,17,17,5,25,6,0,17,17,0,19,15,17,1,17,15,27,27,5,15,0,25,15,0,0,0,0,17,0,0,0,17,10,0,0,0,9,0,10,17,0,15,17,0,1,0,0,0,0,0,0,0,0,0,0,0,0,0,0,0,0,0,0,0,0,0,0,0,0],"split_type":[0,0,0,0,0,0,0,0,0,0,0,0,0,0,0,0,0,0,0,0,0,0,0,0,0,0,0,0,0,0,0,0,0,0,0,0,0,0,0,0,0,0,0,0,0,0,0,0,0,0,0,0,0,0,0,0,0,0,0,0,0,0,0,0,0,0,0,0,0,0,0,0,0,0,0,0,0,0,0],"sum_hessian":[1.3183021E4,5.9384014E3,7.24462E3,1.00718195E3,6.237438E3,6.1658704E2,3.9059488E2,9.422984E2,5.2951396E3,5.5166907E2,6.491797E1,3.4812988E2,4.246499E1,2.1482127E2,7.274771E2,7.1311725E2,4.5820225E3,5.211797E2,3.0489382E1,5.9754158E1,5.16381E0,3.4014514E2,7.984752E0,2.9061283E1,1.3403707E1,1.4066013E2,7.416115E1,5.4419556E2,1.8328154E2,6.67335E2,4.578222E1,1.8199838E2,3.3918134E2,2.6724524E1,3.7648597E0,2.1665783E0,2.9972312E0,2.998756E2,4.0269516E1,1.67835E0,6.306402E0,1.8375448E1,1.0685836E1,9.591808E0,3.8118985E0,5.8979965E1,8.168016E1,3.7938466E0,7.03673E1,8.202885E0,5.359927E2,9.4087265E1,8.9194275E1,4.0073943E0,6.6332764E2,1.4192183E2,4.007655E1,2.1409407E2,1.2508727E2,1.7122298E2,1.2865265E2,1.3088656E1,2.718086E1,1.3511206E1,4.864242E0,3.9469452E0,6.7388906E0,5.723692E1,2.444324E1,1.3861553E1,5.650575E1,5.208691E0,2.9941933E0,8.192727E1,1.2159996E1,1.8470245E1,7.072403E1,5.282461E1,6.10503E2],"tree_param":{"num_deleted":"0","num_feature":"30","num_nodes":"79","size_leaf_vector":"1"}},{"base_weights":[-2.827913E-3,-7.501672E-2,1.3683937E0,9.4677144E-1,7.416492E-2,5.34127E-1,1.230069E0,8.294725E-1,-3.1337142E-2,1.190079E0,6.9810465E-2,3.969188E-1,1.0312916E0,-6.1571527E-1,7.361752E-1,1.2368299E0,1.0277479E0,1.597775E-1,1.1990954E0,1.0911338E0,5.011938E-1,-1.1663139E0,-1.3972959E-1,4.5235994E-1,1.2566552E0,1.2473512E0,4.541177E-1,-5.539642E-1,1.1013491E0,-5.741363E-4,4.9188595E-2,6.6922866E-2,-5.1849734E-2,5.2829262E-2,6.4679705E-2,-3.737436E-2,6.253638E-2,-6.7720585E-2,5.4300256E-2,1.4128848E-2,-7.739001E-2,3.3004988E-2,-9.138315E-2,7.502893E-2,5.08605E-2,6.2615104E-2,2.3202762E-2,-8.67062E-2,6.5506905E-2,-8.771795E-2,3.8503814E-2,4.7394913E-2,6.8652004E-2],"categories":[],"categories_nodes":[],"categories_segments":[],"categories_sizes":[],"default_left":[0,0,0,0,0,0,0,0,0,0,0,0,0,0,0,0,0,0,0,0,0,0,0,0,0,0,0,0,0,0,0,0,0,0,0,0,0,0,0,0,0,0,0,0,0,0,0,0,0,0,0,0,0],"id":8,"left_children":[1,-1,3,5,-1,7,9,11,13,15,-1,17,19,21,23,25,27,29,31,33,35,37,39,41,43,45,47,49,51,-1,-1,-1,-1,-1,-1,-1,-1,-1,-1,-1,-1,-1,-1,-1,-1,-1,-1,-1,-1,-1,-1,-1,-1],"loss_changes":[2.6508438E4,0E0,3.2506836E2,1.6838074E2,0E0,9.862483E1,4.029541E0,3.344992E1,9.173841E1,4.0199585E0,0E0,2.3590744E1,7.8227234E0,3.0262375E1,1.2494915E1,3.850769E0,1.9447098E1,1.3791056E1,1.0229412E1,2.8555298E-1,2.771459E1,2.4217667E1,3.8138306E1,2.9052345E1,2.633667E-1,1.4691162E0,1.8544151E1,1.3843295E1,5.158478E0,0E0,0E0,0E0,0E0,0E0,0E0,0E0,0E0,0E0,0E0,0E0,0E0,0E0,0E0,0E0,0E0,0E0,0E0,0E0,0E0,0E0,0E0,0E0,0E0],"parents":[2147483647,0,0,2,2,3,3,5,5,6,6,7,7,8,8,9,9,11,11,12,12,13,13,14,14,15,15,16,16,17,17,18,18,19,19,20,20,21,21,22,22,23,23,24,24,25,25,26,26,27,27,28,28],"right_children":[2,-1,4,6,-1,8,10,12,14,16,-1,18,20,22,24,26,28,30,32,34,36,38,40,42,44,46,48,50,52,-1,-1,-1,-1,-1,-1,-1,-1,-1,-1,-1,-1,-1,-1,-1,-1,-1,-1,-1,-1,-1,-1,-1,-1],"split_conditions":[1E-1,-7.501672E-2,1E0,1E0,7.416492E-2,6.666667E-2,1E0,1E0,7.527727E-2,5E-2,6.9810465E-2,1E0,5.1639777E-2,1E0,1E0,5E-2,7E-1,6E-1,2E-1,1E0,1.2E0,1E0,1E-1,1E-1,4E-1,5.2470946E0,8.6E0,1E0,5.3E0,-5.741363E-4,4.9188595E-2,6.6922866E-2,-5.1849734E-2,5.2829262E-2,6.4679705E-2,-3.737436E-2,6.253638E-2,-6.7720585E-2,5.4300256E-2,1.4128848E-2,-7.739001E-2,3.3004988E-2,-9.138315E-2,7.502893E-2,5.08605E-2,6.2615104E-2,2.3202762E-2,-8.67062E-2,6.5506905E-2,-8.771795E-2,3.8503814E-2,4.7394913E-2,6.8652004E-2],"split_indices":[21,0,0,1,0,12,29,3,27,10,0,29,27,3,9,19,18,18,18,29,18,6,10,19,24,27,18,6,18,0,0,0,0,0,0,0,0,0,0,0,0,0,0,0,0,0,0,0,0,0,0,0,0],"split_type":[0,0,0,0,0,0,0,0,0,0,0,0,0,0,0,0,0,0,0,0,0,0,0,0,0,0,0,0,0,0,0,0,0,0,0,0,0,0,0,0,0,0,0,0,0,0,0,0,0,0,0,0,0],"sum_hessian":[1.2907452E4,6.16958E3,6.7378716E3,1.4449877E3,5.2928843E3,5.8938654E2,8.556011E2,3.8686017E2,2.025264E2,6.9619086E2,1.5941019E2,1.2401938E2,2.6284076E2,1.1509313E2,8.7433266E1,5.35383E2,1.6080786E2,9.664742E1,2.7371956E1,2.3522781E2,2.7612963E1,5.269159E1,6.2401543E1,5.778986E1,2.9643408E1,5.2769604E2,7.686945E0,6.8599043E0,1.5394797E2,8.083303E1,1.5814394E1,2.6143988E1,1.2279676E0,2.0625108E2,2.8976732E1,1.0358693E1,1.725427E1,4.899826E1,3.6933293E0,4.861909E1,1.3782454E1,5.361529E1,4.1745663E0,1.207534E1,1.7568068E1,5.237867E2,3.9093757E0,1.8730576E0,5.813887E0,3.4274883E0,3.4324162E0,1.0125061E2,5.269735E1],"tree_param":{"num_deleted":"0","num_feature":"30","num_nodes":"53","size_leaf_vector":"1"}},{"base_weights":[1.2378134E-2,-7.320782E-2,1.3410648E0,9.5707107E-1,7.235605E-2,5.8261883E-1,1.2096531E0,9.2807865E-1,1.4588346E-1,1.2731616E0,1.0562557E0,8.7907404E-1,6.153151E-2,-3.586945E-1,8.0178046E-1,6.3968435E-2,6.640463E-1,4.5917824E-1,1.1168085E0,4.2113613E-2,5.252112E-2,-4.5265195E-1,7.661825E-2,8.598994E-1,-7.2434865E-2,6.418915E-2,-6.426018E-2,-5.331016E-1,8.813459E-1,1.1366704E0,1.9080539E-1,-8.591331E-3,-4.744033E-2,3.267816E-2,6.2081497E-2,1.7693708E-2,-8.67783E-2,3.040947E-2,6.1006602E-2,5.085078E-2,6.871462E-2,-7.521416E-2,6.783227E-2],"categories":[],"categories_nodes":[],"categories_segments":[],"categories_sizes":[],"default_left":[0,0,0,0,0,0,0,0,0,0,0,0,0,0,0,0,0,0,0,0,0,0,0,0,0,0,0,0,0,0,0,0,0,0,0,0,0,0,0,0,0,0,0],"id":9,"left_children":[1,-1,3,5,-1,7,9,11,13,15,17,19,-1,21,23,-1,25,27,29,-1,-1,31,-1,33,-1,-1,-1,35,37,39,41,-1,-1,-1,-1,-1,-1,-1,-1,-1,-1,-1,-1],"loss_changes":[2.4903605E4,0E0,2.7071777E2,1.3633716E2,0E0,8.821614E1,7.0756836E0,3.7631226E0,8.627451E1,1.4430542E0,8.849304E0,9.1075134E-1,0E0,2.690823E1,1.6062042E1,0E0,1.1551161E1,1.1169332E1,4.0943604E0,0E0,0E0,1.952852E1,0E0,7.9356995E0,0E0,0E0,0E0,9.409407E0,9.509735E-1,5.121399E0,1.4142897E1,0E0,0E0,0E0,0E0,0E0,0E0,0E0,0E0,0E0,0E0,0E0,0E0],"parents":[2147483647,0,0,2,2,3,3,5,5,6,6,7,7,8,8,9,9,10,10,11,11,13,13,14,14,16,16,17,17,18,18,21,21,23,23,27,27,28,28,29,29,30,30],"right_children":[2,-1,4,6,-1,8,10,12,14,16,18,20,-1,22,24,-1,26,28,30,-1,-1,32,-1,34,-1,-1,-1,36,38,40,42,-1,-1,-1,-1,-1,-1,-1,-1,-1,-1,-1,-1],"split_conditions":[1E-1,-7.320782E-2,1E0,1.1547005E-1,7.235605E-2,3.3333335E-2,1E-1,1E0,2E-1,1E0,4E-1,1.6666668E-2,6.153151E-2,1.5E-1,3.3333334E-1,6.3968435E-2,1E-1,2E-1,2.1E0,4.2113613E-2,5.252112E-2,3.3333335E-2,7.661825E-2,1E0,-7.2434865E-2,6.418915E-2,-6.426018E-2,8.3333336E-2,1E0,3.8333333E-1,2.5E-1,-8.591331E-3,-4.744033E-2,3.267816E-2,6.2081497E-2,1.7693708E-2,-8.67783E-2,3.040947E-2,6.1006602E-2,5.085078E-2,6.871462E-2,-7.521416E-2,6.783227E-2],"split_indices":[21,0,0,28,0,13,15,29,24,9,24,17,0,19,13,0,17,15,21,0,0,17,0,26,0,0,0,13,29,17,19,0,0,0,0,0,0,0,0,0,0,0,0],"split_type":[0,0,0,0,0,0,0,0,0,0,0,0,0,0,0,0,0,0,0,0,0,0,0,0,0,0,0,0,0,0,0,0,0,0,0,0,0,0,0,0,0,0,0],"sum_hessian":[1.2691928E4,6.011455E3,6.680473E3,1.4479518E3,5.2325215E3,5.8459625E2,8.6335547E2,3.2577872E2,2.5881757E2,6.054088E2,2.579467E2,2.8372842E2,4.205028E1,1.4653902E2,1.1227854E2,5.982126E2,7.1962423E0,2.4541346E1,2.3340533E2,2.384338E2,4.5294613E1,1.4032747E2,6.211546E0,1.10054276E2,2.224265E0,5.719275E0,1.4769671E0,7.246383E0,1.7294964E1,2.2828142E2,5.1239276E0,9.046837E1,4.9859104E1,7.319981E1,3.685447E1,4.576397E0,2.6699862E0,1.1122397E1,6.1725664E0,1.5533984E2,7.294157E1,1.9697227E0,3.1542046E0],"tree_param":{"num_deleted":"0","num_feature":"30","num_nodes":"43","size_leaf_vector":"1"}},{"base_weights":[-1.012241E-2,-7.15703E-2,1.2958905E0,6.1750937E-1,1.3575146E0,2.3029092E-1,8.3874506E-1,1.236599E0,1.3980076E0,-1.710201E-2,1.2364507E0,7.865193E-1,6.590908E-2,9.114947E-1,1.2649546E0,1.1879934E0,1.4031863E0,2.2134198E-1,-1.1568986E0,6.4534895E-2,2.6586324E-2,9.410825E-1,5.061435E-1,1.0802736E0,4.0775165E-1,1.2714765E0,1.8229853E-1,1.2266309E-1,1.2298901E0,1.3502089E0,7.06769E-2,-2.4950685E-4,7.990321E-1,3.192383E-1,-7.362122E-2,4.382535E-2,5.770222E-2,-8.2634255E-2,6.5915143E-1,5.8259048E-2,2.962498E-1,-4.925E-1,1.0374177E0,1.1562841E0,1.2999845E0,5.834004E-2,-9.919029E-2,-6.1165955E-2,5.2347858E-2,1.0856624E0,6.846004E-2,1.2501475E0,6.963328E-2,1.9468341E-2,-5.2427407E-2,4.9329385E-2,1.135024E-2,4.2245414E-2,-4.4761125E-2,2.6707312E-2,6.877661E-2,-7.708442E-2,6.285947E-2,-8.864015E-2,4.5622955E-3,5.654319E-2,2.3511147E-2,5.933348E-2,-1.3841745E-2,6.2158126E-2,6.6964865E-2,3.4353323E-2,6.4436644E-2,5.3660303E-2,6.583716E-2],"categories":[],"categories_nodes":[],"categories_segments":[],"categories_sizes":[],"default_left":[0,0,0,0,0,0,0,0,0,0,0,0,0,0,0,0,0,0,0,0,0,0,0,0,0,0,0,0,0,0,0,0,0,0,0,0,0,0,0,0,0,0,0,0,0,0,0,0,0,0,0,0,0,0,0,0,0,0,0,0,0,0,0,0,0,0,0,0,0,0,0,0,0,0,0],"id":10,"left_children":[1,-1,3,5,7,9,11,13,15,17,19,21,-1,23,25,27,29,31,33,-1,-1,35,37,39,41,43,45,47,49,51,-1,53,55,57,-1,-1,-1,-1,59,-1,61,63,65,67,69,-1,-1,-1,-1,71,-1,73,-1,-1,-1,-1,-1,-1,-1,-1,-1,-1,-1,-1,-1,-1,-1,-1,-1,-1,-1,-1,-1,-1,-1],"loss_changes":[2.2702031E4,0E0,2.656084E2,4.543274E1,2.6876953E1,4.856813E1,7.4405518E0,1.2437744E1,3.0830078E0,4.306891E1,7.856903E-1,1.2861893E1,0E0,9.919197E0,9.324707E0,4.8327637E0,4.267578E-1,1.678437E1,1.32383995E1,0E0,0E0,1.7010345E0,3.7933495E1,5.690155E0,1.8755741E1,2.9140625E0,2.2086452E1,7.918895E0,6.6981506E-1,1.310791E0,0E0,3.952176E1,3.6759605E0,4.363147E0,0E0,0E0,0E0,0E0,8.65686E0,0E0,1.9952873E1,1.0568746E1,4.8912048E-1,1.2342987E1,7.2558594E-1,0E0,0E0,0E0,0E0,3.7735214E0,0E0,1.2236633E0,0E0,0E0,0E0,0E0,0E0,0E0,0E0,0E0,0E0,0E0,0E0,0E0,0E0,0E0,0E0,0E0,0E0,0E0,0E0,0E0,0E0,0E0,0E0],"parents":[2147483647,0,0,2,2,3,3,4,4,5,5,6,6,7,7,8,8,9,9,10,10,11,11,13,13,14,14,15,15,16,16,17,17,18,18,21,21,22,22,23,23,24,24,25,25,26,26,27,27,28,28,29,29,31,31,32,32,33,33,38,38,40,40,41,41,42,42,43,43,44,44,49,49,51,51],"right_children":[2,-1,4,6,8,10,12,14,16,18,20,22,-1,24,26,28,30,32,34,-1,-1,36,38,40,42,44,46,48,50,52,-1,54,56,58,-1,-1,-1,-1,60,-1,62,64,66,68,70,-1,-1,-1,-1,72,-1,74,-1,-1,-1,-1,-1,-1,-1,-1,-1,-1,-1,-1,-1,-1,-1,-1,-1,-1,-1,-1,-1,-1,-1],"split_conditions":[1E0,-7.15703E-2,2E-1,1E0,1E-1,1E0,1E0,2E-1,3E-1,3.3333335E-2,2.5E-2,3.3333335E-2,6.590908E-2,1.3333334E-1,4.5E-1,4E-1,1E0,1E-1,3.3333335E-2,6.4534895E-2,2.6586324E-2,1.6666668E-2,2E-1,1E-1,1E0,3E-1,1E0,8.3333336E-2,1E0,1E0,7.06769E-2,3.3333335E-2,5E-2,5.8333334E-2,-7.362122E-2,4.382535E-2,5.770222E-2,-8.2634255E-2,1E0,5.8259048E-2,1E0,1E-1,4E-1,1.5E-1,1E-1,5.834004E-2,-9.919029E-2,-6.1165955E-2,5.2347858E-2,1E0,6.846004E-2,3E-1,6.963328E-2,1.9468341E-2,-5.2427407E-2,4.9329385E-2,1.135024E-2,4.2245414E-2,-4.4761125E-2,2.6707312E-2,6.877661E-2,-7.708442E-2,6.285947E-2,-8.864015E-2,4.5622955E-3,5.654319E-2,2.3511147E-2,5.933348E-2,-1.3841745E-2,6.2158126E-2,6.6964865E-2,3.4353323E-2,6.4436644E-2,5.3660303E-2,6.583716E-2],"split_indices":[2,0,24,3,16,29,7,21,24,17,17,13,0,13,10,11,8,25,13,0,0,17,11,10,11,21,3,17,8,7,0,13,10,17,0,0,0,0,29,0,26,10,13,10,15,0,0,0,0,7,0,15,0,0,0,0,0,0,0,0,0,0,0,0,0,0,0,0,0,0,0,0,0,0,0],"split_type":[0,0,0,0,0,0,0,0,0,0,0,0,0,0,0,0,0,0,0,0,0,0,0,0,0,0,0,0,0,0,0,0,0,0,0,0,0,0,0,0,0,0,0,0,0,0,0,0,0,0,0,0,0,0,0,0,0,0,0,0,0,0,0,0,0,0,0,0,0,0,0,0,0,0,0],"sum_hessian":[1.2228284E4,5.8556787E3,6.372606E3,5.3159875E2,5.8410073E3,1.9403297E2,3.375658E2,1.4732599E3,4.367747E3,1.565289E2,3.750407E1,3.0678745E2,3.0778343E1,1.20848305E2,1.3524115E3,1.1065595E2,4.2570913E3,1.3011485E2,2.6414053E1,3.405141E1,3.4526584E0,1.9624608E2,1.10541374E2,8.9662445E1,3.1185865E1,1.34414E3,8.271478E0,4.335762E0,1.0632019E2,7.173385E2,3.5397527E3,9.476448E1,3.5350372E1,4.6496477E0,2.1764406E1,1.5451038E2,4.17357E1,6.667441E0,1.0387393E2,8.0462456E1,9.199986E0,1.2924777E1,1.8261087E1,2.749021E2,1.0692379E3,6.0039825E0,2.2674952E0,1.6334989E0,2.7022629E0,5.6558537E1,4.9761658E1,2.2276753E2,4.9457095E2,6.9545425E1,2.5219055E1,2.6075912E1,9.274461E0,3.4574225E0,1.192225E0,8.992759E1,1.3946343E1,2.9511404E0,6.248846E0,3.4096363E0,9.5151415E0,1.4824883E1,3.436204E0,2.693629E2,5.5391665E0,4.5058868E2,6.186493E2,2.0568724E1,3.5989815E1,6.559641E1,1.5717111E2],"tree_param":{"num_deleted":"0","num_feature":"30","num_nodes":"75","size_leaf_vector":"1"}},{"base_weights":[7.5187846E-3,-7.0077576E-2,1.2743021E0,8.9507353E-1,6.9176786E-2,4.9505147E-1,1.1485288E0,7.3672783E-1,2.998995E-3,1.2138512E0,9.145403E-1,4.6311387E-1,9.5258015E-1,-3.9018732E-1,8.363344E-1,6.3317674E-1,6.1135646E-2,4.7792724E-1,1.025726E0,3.7839714E-1,1.3257182E0,8.8684523E-1,6.484517E-2,-5.658173E-1,9.748006E-1,1.0036535E0,-4.7893956E-1,-7.374695E-2,1.0520421E0,8.9674157E-1,-1.0379812E0,9.132998E-1,6.888493E-2,2.8568858E-2,-4.7736738E-2,7.9380825E-2,2.4168788E-2,4.132724E-2,6.6468455E-2,-3.375703E-2,4.9701806E-2,5.8637332E-2,1.526721E-2,6.4079665E-2,3.1301808E-2,-8.711919E-2,4.5785453E-2,6.448978E-2,2.6114067E-2,1.1568218E-2,4.9123432E-2,-1.0941992E-1,4.6399638E-2,2.7694536E-2,5.2177418E-2],"categories":[],"categories_nodes":[],"categories_segments":[],"categories_sizes":[],"default_left":[0,0,0,0,0,0,0,0,0,0,0,0,0,0,0,0,0,0,0,0,0,0,0,0,0,0,0,0,0,0,0,0,0,0,0,0,0,0,0,0,0,0,0,0,0,0,0,0,0,0,0,0,0,0,0],"id":11,"left_children":[1,-1,3,5,-1,7,9,11,13,15,17,19,21,23,25,27,-1,29,31,33,35,37,-1,39,41,43,45,-1,47,49,51,53,-1,-1,-1,-1,-1,-1,-1,-1,-1,-1,-1,-1,-1,-1,-1,-1,-1,-1,-1,-1,-1,-1,-1],"loss_changes":[2.134596E4,0E0,2.596211E2,1.4249658E2,0E0,6.528943E1,1.2080811E1,2.130478E1,5.9910824E1,2.6818237E0,8.850006E0,1.1506393E1,3.4870758E0,3.0335173E1,1.33799095E1,1.2297649E1,0E0,2.6912909E1,4.7754974E0,3.9399372E1,2.3862514E0,3.5762787E0,0E0,1.954971E1,1.5673981E0,4.6891403E0,1.4444265E1,0E0,6.785984E-1,1.6323242E0,2.3115334E1,4.970764E0,0E0,0E0,0E0,0E0,0E0,0E0,0E0,0E0,0E0,0E0,0E0,0E0,0E0,0E0,0E0,0E0,0E0,0E0,0E0,0E0,0E0,0E0,0E0],"parents":[2147483647,0,0,2,2,3,3,5,5,6,6,7,7,8,8,9,9,10,10,11,11,12,12,13,13,14,14,15,15,17,17,18,18,19,19,20,20,21,21,23,23,24,24,25,25,26,26,28,28,29,29,30,30,31,31],"right_children":[2,-1,4,6,-1,8,10,12,14,16,18,20,22,24,26,28,-1,30,32,34,36,38,-1,40,42,44,46,-1,48,50,52,54,-1,-1,-1,-1,-1,-1,-1,-1,-1,-1,-1,-1,-1,-1,-1,-1,-1,-1,-1,-1,-1,-1,-1],"split_conditions":[1E-1,-7.0077576E-2,1E0,1.1547005E-1,6.9176786E-2,6.666667E-2,1E-1,1E0,8.3666004E-2,1E0,2.228602E-1,1E0,1E0,1E0,1.8708287E-1,2.2E0,6.1135646E-2,8E-1,1E0,5.1639777E-2,9E-1,1.9E0,6.484517E-2,1E0,1.3333334E-1,1E0,1.6666667E-1,-7.374695E-2,1E-1,1E0,2.6457512E-1,3E-1,6.888493E-2,2.8568858E-2,-4.7736738E-2,7.9380825E-2,2.4168788E-2,4.132724E-2,6.6468455E-2,-3.375703E-2,4.9701806E-2,5.8637332E-2,1.526721E-2,6.4079665E-2,3.1301808E-2,-8.711919E-2,4.5785453E-2,6.448978E-2,2.6114067E-2,1.1568218E-2,4.9123432E-2,-1.0941992E-1,4.6399638E-2,2.7694536E-2,5.2177418E-2],"split_indices":[21,0,0,28,0,12,25,5,27,1,27,26,29,7,27,18,0,18,29,27,18,18,0,29,12,5,12,0,19,3,28,15,0,0,0,0,0,0,0,0,0,0,0,0,0,0,0,0,0,0,0,0,0,0,0],"split_type":[0,0,0,0,0,0,0,0,0,0,0,0,0,0,0,0,0,0,0,0,0,0,0,0,0,0,0,0,0,0,0,0,0,0,0,0,0,0,0,0,0,0,0,0,0,0,0,0,0,0,0,0,0,0,0],"sum_hessian":[1.1956608E4,5.6603613E3,6.2962476E3,1.4100702E3,4.8861772E3,5.4805E2,8.620202E2,3.6719922E2,1.8085074E2,6.7061694E2,1.9140327E2,1.6332027E2,2.0387895E2,1.2323669E2,5.761405E1,1.1169592E1,6.594473E2,3.9924175E1,1.5147911E2,1.5002492E2,1.3295344E1,1.7419827E2,2.9680685E1,1.09706474E2,1.3530214E1,5.1322166E1,6.2918873E0,1.4335213E0,9.736071E0,3.1601717E1,8.322458E0,1.1753214E2,3.394696E1,1.315531E2,1.8471817E1,9.467102E0,3.8282425E0,1.558317E2,1.8366571E1,1.0305124E2,6.655233E0,9.862317E0,3.6678972E0,2.8183908E1,2.3138256E1,3.170407E0,3.1214805E0,5.729865E0,4.0062056E0,4.0290217E0,2.7572695E1,5.1788464E0,3.1436117E0,3.2660625E1,8.487151E1],"tree_param":{"num_deleted":"0","num_feature":"30","num_nodes":"55","size_leaf_vector":"1"}},{"base_weights":[1.2946606E-2,-6.872132E-2,1.2410896E0,5.9207374E-1,1.3037956E0,8.28425E-2,8.484462E-1,1.1836954E0,6.777613E-2,-1.546877E-1,1.0932845E0,7.5406206E-1,6.595205E-2,1.0846015E0,1.3244607E0,-3.410569E-1,6.276104E-2,5.6825425E-2,2.6132056E-2,8.328302E-1,-7.119696E-2,-5.72912E-2,1.090423E0,1.1933744E0,6.717148E-2,-4.2976293E-1,9.756534E-1,9.3987566E-1,4.9596953E-1,9.91826E-1,1.1965798E0,6.210803E-2,4.499707E-1,-1.2661796E-3,-4.7471024E-2,-4.388306E-2,7.145919E-2,4.352879E-2,5.8332738E-2,1.6904002E-2,6.1831605E-2,5.5269748E-2,4.535934E-2,1.3102235E-2,6.04966E-2,3.2831319E-3,4.0059727E-2],"categories":[],"categories_nodes":[],"categories_segments":[],"categories_sizes":[],"default_left":[0,0,0,0,0,0,0,0,0,0,0,0,0,0,0,0,0,0,0,0,0,0,0,0,0,0,0,0,0,0,0,0,0,0,0,0,0,0,0,0,0,0,0,0,0,0,0],"id":12,"left_children":[1,-1,3,5,7,9,11,13,-1,15,17,19,-1,21,23,25,-1,-1,-1,27,-1,-1,29,31,-1,33,35,37,39,41,43,-1,45,-1,-1,-1,-1,-1,-1,-1,-1,-1,-1,-1,-1,-1,-1],"loss_changes":[1.997647E4,0E0,2.5231934E2,7.170047E1,3.3621094E1,4.4618446E1,1.524173E1,2.2483643E1,0E0,4.0059235E1,2.7850723E-1,5.382213E1,0E0,1.4388306E1,1.4709473E-1,1.6070698E1,0E0,0E0,0E0,1.0233978E1,0E0,0E0,9.382202E0,2.9930725E0,0E0,2.6507387E1,8.620446E0,2.505661E0,8.197529E0,4.0856934E0,5.6899414E0,0E0,9.7314644E-1,0E0,0E0,0E0,0E0,0E0,0E0,0E0,0E0,0E0,0E0,0E0,0E0,0E0,0E0],"parents":[2147483647,0,0,2,2,3,3,4,4,5,5,6,6,7,7,9,9,10,10,11,11,13,13,14,14,15,15,19,19,22,22,23,23,25,25,26,26,27,27,28,28,29,29,30,30,32,32],"right_children":[2,-1,4,6,8,10,12,14,-1,16,18,20,-1,22,24,26,-1,-1,-1,28,-1,-1,30,32,-1,34,36,38,40,42,44,-1,46,-1,-1,-1,-1,-1,-1,-1,-1,-1,-1,-1,-1,-1,-1],"split_conditions":[1E0,-6.872132E-2,2E-1,1E0,1E0,1E0,1E0,1E0,6.777613E-2,1E0,2.5E-2,4E-1,6.595205E-2,7.527727E-2,1E-1,8.3333336E-2,6.276104E-2,5.6825425E-2,2.6132056E-2,2E-1,-7.119696E-2,-5.72912E-2,5E-1,7E-1,6.717148E-2,5.1639777E-2,5.1639777E-2,1.6666668E-2,1E0,4.1666668E-2,2.0412415E-1,6.210803E-2,1.8333334E-1,-1.2661796E-3,-4.7471024E-2,-4.388306E-2,7.145919E-2,4.352879E-2,5.8332738E-2,1.6904002E-2,6.1831605E-2,5.5269748E-2,4.535934E-2,1.3102235E-2,6.04966E-2,3.2831319E-3,4.0059727E-2],"split_indices":[2,0,24,3,4,29,4,29,0,4,17,14,0,27,25,17,0,0,0,14,0,0,21,20,0,27,27,17,29,17,27,0,17,0,0,0,0,0,0,0,0,0,0,0,0,0,0],"split_type":[0,0,0,0,0,0,0,0,0,0,0,0,0,0,0,0,0,0,0,0,0,0,0,0,0,0,0,0,0,0,0,0,0,0,0,0,0,0,0,0,0,0,0,0,0,0,0],"sum_hessian":[1.1722021E4,5.504142E3,6.217879E3,5.4874475E2,5.6691343E3,1.8419745E2,3.645473E2,1.7138276E3,3.9553066E3,1.4982433E2,3.4373123E1,3.0581445E2,5.8732864E1,1.0108971E3,7.0293054E2,1.3300157E2,1.6822756E1,3.1031021E1,3.342102E0,2.9573663E2,1.00778E1,2.1218274E0,1.00877527E3,9.693792E1,6.059926E2,1.2523797E2,7.7636E0,2.2306299E2,7.267366E1,5.283727E2,4.8040262E2,9.033851E1,6.599414E0,7.101619E1,5.422178E1,1.3424815E0,6.4211183E0,1.7455946E2,4.8503517E1,6.110431E1,1.1569354E1,2.2047673E2,3.0789594E2,7.0575895E0,4.7334503E2,3.7180684E0,2.8813453E0],"tree_param":{"num_deleted":"0","num_feature":"30","num_nodes":"47","size_leaf_vector":"1"}},{"base_weights":[8.3899E-3,-6.747148E-2,1.2172263E0,6.1279887E-1,1.2775663E0,5.008665E-1,6.377226E-2,1.1620085E0,6.64432E-2,6.8322855E-1,-3.772794E-1,1.0537637E0,6.510461E-2,4.0453798E-1,9.0319884E-1,-6.207516E-1,7.336565E-2,8.6267954E-1,1.1452701E0,5.5557907E-1,1.4525156E-2,7.9691905E-1,6.371555E-2,-8.5587054E-1,5.3797293E-2,-5.8820553E-2,8.8188547E-1,1.0367179E0,1.1835424E0,2.94859E-2,-5.979345E-2,-2.1254092E-2,3.7581723E-2,4.3831166E-2,1.4587142E-2,-6.1616596E-2,-2.1295508E-2,5.560406E-2,3.9751843E-2,1.5658623E-2,5.2522082E-2,6.1042976E-2,5.439947E-2],"categories":[],"categories_nodes":[],"categories_segments":[],"categories_sizes":[],"default_left":[0,0,0,0,0,0,0,0,0,0,0,0,0,0,0,0,0,0,0,0,0,0,0,0,0,0,0,0,0,0,0,0,0,0,0,0,0,0,0,0,0,0,0],"id":13,"left_children":[1,-1,3,5,7,9,-1,11,-1,13,15,17,-1,19,21,23,-1,25,27,29,31,33,-1,35,-1,-1,37,39,41,-1,-1,-1,-1,-1,-1,-1,-1,-1,-1,-1,-1,-1,-1],"loss_changes":[1.849739E4,0E0,2.1665039E2,3.9641113E1,3.0583008E1,7.492068E1,0E0,2.401416E1,0E0,2.332341E1,3.720612E1,1.561731E1,0E0,1.0139904E1,7.4703064E0,2.9681776E1,0E0,1.3239166E1,1.4281006E0,8.128536E0,1.6235434E1,6.5860367E0,0E0,9.814674E0,0E0,0E0,5.2980347E0,1.405304E0,3.3135986E-1,0E0,0E0,0E0,0E0,0E0,0E0,0E0,0E0,0E0,0E0,0E0,0E0,0E0,0E0],"parents":[2147483647,0,0,2,2,3,3,4,4,5,5,7,7,9,9,10,10,11,11,13,13,14,14,15,15,17,17,18,18,19,19,20,20,21,21,23,23,26,26,27,27,28,28],"right_children":[2,-1,4,6,8,10,-1,12,-1,14,16,18,-1,20,22,24,-1,26,28,30,32,34,-1,36,-1,-1,38,40,42,-1,-1,-1,-1,-1,-1,-1,-1,-1,-1,-1,-1,-1,-1],"split_conditions":[1E0,-6.747148E-2,2E-1,1E0,1E0,5E-2,6.377226E-2,1E0,6.64432E-2,1E0,1E0,3E-1,6.510461E-2,3.3333335E-2,1E0,1E0,7.336565E-2,7.527727E-2,1E0,4E-1,1E-1,3.3333335E-2,6.371555E-2,5E-1,5.3797293E-2,-5.8820553E-2,3E-1,1.22474484E-1,1E-1,2.94859E-2,-5.979345E-2,-2.1254092E-2,3.7581723E-2,4.3831166E-2,1.4587142E-2,-6.1616596E-2,-2.1295508E-2,5.560406E-2,3.9751843E-2,1.5658623E-2,5.2522082E-2,6.1042976E-2,5.439947E-2],"split_indices":[2,0,24,4,4,10,0,29,0,5,7,21,0,13,29,29,0,27,5,18,25,13,0,18,0,0,18,27,25,0,0,0,0,0,0,0,0,0,0,0,0,0,0],"split_type":[0,0,0,0,0,0,0,0,0,0,0,0,0,0,0,0,0,0,0,0,0,0,0,0,0,0,0,0,0,0,0,0,0,0,0,0,0,0,0,0,0,0,0],"sum_hessian":[1.1267401E4,5.3066343E3,5.960767E3,5.4206384E2,5.4187036E3,4.6523367E2,7.6830154E1,1.6731842E3,3.7455193E3,3.854171E2,7.981655E1,9.486615E2,7.2452264E2,1.7126833E2,2.1414879E2,7.10959E1,8.720645E0,3.105652E2,6.380963E2,1.2315091E2,4.8117413E1,1.6892043E2,4.522836E1,6.2878162E1,8.217739E0,2.3356645E0,3.0822952E2,1.73652E2,4.644443E2,1.2144698E2,1.7039294E0,3.0406496E1,1.7710917E1,1.4526581E2,2.3654629E1,3.252981E1,3.0348352E1,8.120024E1,2.2702928E2,3.675798E0,1.699762E2,3.2553375E2,1.3891055E2],"tree_param":{"num_deleted":"0","num_feature":"30","num_nodes":"43","size_leaf_vector":"1"}},{"base_weights":[-5.3767366E-3,-6.6335216E-2,1.1818546E0,8.042725E-1,6.516518E-2,4.5786408E-1,1.0451498E0,6.936167E-1,-1.6471304E-2,1.1136005E0,7.8479356E-1,3.2219255E-1,8.648576E-1,-4.8022568E-1,6.3588953E-1,1.1208041E0,-4.5180194E-2,-7.155512E-2,8.114535E-1,2.4313006E-1,4.8657283E-2,8.237332E-1,1.2668707E0,-1.2674427E0,7.867625E-2,6.7968756E-1,-6.0085513E-2,6.1294836E-1,1.128255E0,-8.3253786E-2,5.0923984E-2,8.354638E-1,-7.537272E-2,8.107798E-3,4.255539E-2,4.5033466E-2,-6.830111E-3,6.783518E-2,3.1960856E-2,-7.440953E-2,5.2167952E-2,1.9742727E-2,-4.7101002E-2,2.6072118E-2,5.36396E-2,-8.331432E-2,6.179099E-2,5.6649297E-2,2.8888104E-2,2.7235119E-2,5.0147988E-2],"categories":[],"categories_nodes":[],"categories_segments":[],"categories_sizes":[],"default_left":[0,0,0,0,0,0,0,0,0,0,0,0,0,0,0,0,0,0,0,0,0,0,0,0,0,0,0,0,0,0,0,0,0,0,0,0,0,0,0,0,0,0,0,0,0,0,0,0,0,0,0],"id":14,"left_children":[1,-1,3,5,-1,7,9,11,13,15,17,19,21,23,25,27,29,-1,31,33,-1,35,37,39,41,43,-1,45,47,-1,-1,49,-1,-1,-1,-1,-1,-1,-1,-1,-1,-1,-1,-1,-1,-1,-1,-1,-1,-1,-1],"loss_changes":[1.710422E4,0E0,2.6231055E2,1.1636505E2,0E0,6.443614E1,1.3832153E1,2.4200027E1,5.846787E1,5.4848633E0,1.1509674E1,6.095793E0,3.3016052E0,4.9790123E1,7.2805367E0,1.7567139E0,1.0282022E1,0E0,1.093219E1,5.328926E0,0E0,1.7950928E1,4.0322495E-1,2.5502113E1,2.199066E1,4.3599777E0,0E0,1.844942E1,1.0029907E0,0E0,0E0,7.8591003E0,0E0,0E0,0E0,0E0,0E0,0E0,0E0,0E0,0E0,0E0,0E0,0E0,0E0,0E0,0E0,0E0,0E0,0E0,0E0],"parents":[2147483647,0,0,2,2,3,3,5,5,6,6,7,7,8,8,9,9,10,10,11,11,12,12,13,13,14,14,15,15,16,16,18,18,19,19,21,21,22,22,23,23,24,24,25,25,27,27,28,28,31,31],"right_children":[2,-1,4,6,-1,8,10,12,14,16,18,20,22,24,26,28,30,-1,32,34,-1,36,38,40,42,44,-1,46,48,-1,-1,50,-1,-1,-1,-1,-1,-1,-1,-1,-1,-1,-1,-1,-1,-1,-1,-1,-1,-1,-1],"split_conditions":[1E-1,-6.6335216E-2,1E0,1.1547005E-1,6.516518E-2,2E-1,1E-1,1E0,7.527727E-2,4.5E-1,1.2110601E-1,1E0,1E0,1E0,3E-1,2E-1,1.15E0,-7.155512E-2,4.3E0,8E-1,4.8657283E-2,3.3333335E-2,1.3333334E-1,1E0,1E-1,1E0,-6.0085513E-2,2.2E0,3E-1,-8.3253786E-2,5.0923984E-2,3E-1,-7.537272E-2,8.107798E-3,4.255539E-2,4.5033466E-2,-6.830111E-3,6.783518E-2,3.1960856E-2,-7.440953E-2,5.2167952E-2,1.9742727E-2,-4.7101002E-2,2.6072118E-2,5.36396E-2,-8.331432E-2,6.179099E-2,5.6649297E-2,2.8888104E-2,2.7235119E-2,5.0147988E-2],"split_indices":[21,0,0,28,0,11,25,3,27,10,27,5,26,3,13,21,10,0,25,18,0,13,13,6,10,8,0,18,10,0,0,15,0,0,0,0,0,0,0,0,0,0,0,0,0,0,0,0,0,0,0],"split_type":[0,0,0,0,0,0,0,0,0,0,0,0,0,0,0,0,0,0,0,0,0,0,0,0,0,0,0,0,0,0,0,0,0,0,0,0,0,0,0,0,0,0,0,0,0,0,0,0,0,0,0],"sum_hessian":[1.0901286E4,5.159221E3,5.7420654E3,1.3992979E3,4.3427676E3,5.751168E2,8.2418097E2,3.838665E2,1.9125037E2,6.5000885E2,1.741721E2,1.2204041E2,2.6182605E2,1.1193861E2,7.931176E1,6.4602563E2,3.9832196E0,1.4443216E0,1.7272778E2,1.1004788E2,1.1992531E1,2.4029395E2,2.1532114E1,4.5949997E1,6.598861E1,7.808087E1,1.2308853E0,1.054507E1,6.354806E2,1.354686E0,2.6285336E0,1.7159082E2,1.1369599E0,9.823154E1,1.1816348E1,2.2252847E2,1.7765472E1,1.7820066E1,3.7120473E0,4.226816E1,3.6818357E0,5.0850075E1,1.51385355E1,5.7329292E1,2.075158E1,1.9037232E0,8.641346E0,6.290168E2,6.463822E0,6.4271645E1,1.07319176E2],"tree_param":{"num_deleted":"0","num_feature":"30","num_nodes":"51","size_leaf_vector":"1"}},{"base_weights":[-6.465717E-3,-1.1906834E0,1.1173409E0,-1.2688483E0,7.1130574E-1,5.680844E-1,1.2560995E0,-1.2802484E0,9.36365E-1,6.640729E-1,1.0465826E0,-4.375273E-1,1.0030224E0,-5.684926E-2,1.2593323E0,-6.5216266E-2,-8.361863E-1,5.4163873E-2,-5.645258E-2,7.147249E-1,3.543605E-1,3.885175E-2,6.330803E-2,-1.04053E0,3.6271748E-1,1.0601227E0,8.0211145E-1,1.102983E0,6.439181E-2,-6.2582E-1,-6.504877E-2,7.004966E-1,5.4732926E-2,-6.081383E-1,9.1513497E-1,-1.2354215E0,4.2497736E-1,-1.3487852E-1,5.2745724E-1,1.0683566E0,3.5661072E-1,6.374177E-1,9.885484E-1,1.2547017E0,-6.386276E-2,-3.351851E-1,-9.8745584E-1,7.1327454E-1,8.1127E-3,2.1690588E-2,-8.256711E-2,1.6042422E-1,1.1777309E0,-9.34965E-1,-6.7649245E-2,-5.1523256E-1,6.3669644E-2,1.7663658E-1,-6.4144894E-2,5.7089084E-1,-8.2867466E-2,9.212807E-1,1.1119548E0,-8.362295E-2,8.8174105E-1,7.058166E-1,-9.346775E-2,4.0922388E-1,1.0620399E0,6.325903E-2,8.708888E-1,-1.4820856E-2,-5.553164E-2,-6.5940686E-2,-2.9137298E-2,3.4433223E-2,4.55876E-2,6.1491918E-2,-7.490948E-2,2.5877846E-2,6.823404E-2,-5.4377068E-2,-2.6611617E-2,-6.723427E-2,5.0290763E-2,1.5892357E-2,-5.3747375E-2,3.038844E-2,-7.563333E-2,4.7541272E-2,-6.8421856E-2,-8.2207076E-2,5.628232E-2,5.5728205E-2,2.404709E-2,4.0321883E-2,-1.632347E-3,4.145227E-2,-9.002248E-2,5.7444215E-2,3.146587E-2,-4.86329E-2,5.282929E-2],"categories":[],"categories_nodes":[],"categories_segments":[],"categories_sizes":[],"default_left":[0,0,0,0,0,0,0,0,0,0,0,0,0,0,0,0,0,0,0,0,0,0,0,0,0,0,0,0,0,0,0,0,0,0,0,0,0,0,0,0,0,0,0,0,0,0,0,0,0,0,0,0,0,0,0,0,0,0,0,0,0,0,0,0,0,0,0,0,0,0,0,0,0,0,0,0,0,0,0,0,0,0,0,0,0,0,0,0,0,0,0,0,0,0,0,0,0,0,0,0,0,0,0],"id":15,"left_children":[1,3,5,7,9,11,13,15,17,19,21,23,25,-1,27,-1,29,-1,-1,31,33,-1,-1,35,37,39,41,43,-1,45,-1,47,-1,49,51,53,55,57,59,61,63,65,67,69,-1,71,73,75,-1,-1,-1,77,79,81,-1,83,-1,85,-1,87,-1,89,91,-1,93,95,-1,97,99,-1,101,-1,-1,-1,-1,-1,-1,-1,-1,-1,-1,-1,-1,-1,-1,-1,-1,-1,-1,-1,-1,-1,-1,-1,-1,-1,-1,-1,-1,-1,-1,-1,-1],"loss_changes":[1.4062981E4,7.658384E2,4.1250635E2,1.25453125E2,2.5315094E0,4.7949893E2,3.4911133E1,5.1484863E1,9.111517E0,2.5912323E0,4.0245628E-1,1.6029153E2,7.9247437E0,0E0,1.7841309E1,0E0,2.4186874E1,0E0,0E0,7.029724E-2,1.5383085E1,0E0,0E0,5.4576538E1,1.1805531E1,3.0512085E0,4.6937943E0,2.4479712E2,0E0,1.837265E1,0E0,9.2993927E-1,0E0,1.236143E1,3.3300638E0,4.6440887E0,1.8968683E1,1.3244493E1,1.1170729E1,2.7277222E0,1.0377748E1,1.7587288E1,2.950592E0,1.446228E0,0E0,2.682333E0,9.795845E0,9.609985E-2,0E0,0E0,0E0,1.2025749E1,9.000187E-1,2.5110512E0,0E0,1.5989242E1,0E0,5.5572925E0,0E0,9.09412E0,0E0,1.0747002E1,1.87005E1,0E0,1.4446068E-1,6.942936E0,0E0,1.1305399E1,1.9050293E0,0E0,7.8905544E0,0E0,0E0,0E0,0E0,0E0,0E0,0E0,0E0,0E0,0E0,0E0,0E0,0E0,0E0,0E0,0E0,0E0,0E0,0E0,0E0,0E0,0E0,0E0,0E0,0E0,0E0,0E0,0E0,0E0,0E0,0E0,0E0],"parents":[2147483647,0,0,1,1,2,2,3,3,4,4,5,5,6,6,7,7,8,8,9,9,10,10,11,11,12,12,14,14,16,16,19,19,20,20,23,23,24,24,25,25,26,26,27,27,29,29,31,31,33,33,34,34,35,35,36,36,37,37,38,38,39,39,40,40,41,41,42,42,43,43,45,45,46,46,47,47,51,51,52,52,53,53,55,55,57,57,59,59,61,61,62,62,64,64,65,65,67,67,68,68,70,70],"right_children":[2,4,6,8,10,12,14,16,18,20,22,24,26,-1,28,-1,30,-1,-1,32,34,-1,-1,36,38,40,42,44,-1,46,-1,48,-1,50,52,54,56,58,60,62,64,66,68,70,-1,72,74,76,-1,-1,-1,78,80,82,-1,84,-1,86,-1,88,-1,90,92,-1,94,96,-1,98,100,-1,102,-1,-1,-1,-1,-1,-1,-1,-1,-1,-1,-1,-1,-1,-1,-1,-1,-1,-1,-1,-1,-1,-1,-1,-1,-1,-1,-1,-1,-1,-1,-1,-1],"split_conditions":[2E-1,1E0,1E0,1E0,1E0,1E0,1E-1,1E-1,1.6666668E-2,3.3333335E-2,1.6666668E-2,1E0,1E-1,-5.684926E-2,1E-1,-6.5216266E-2,1E-1,5.4163873E-2,-5.645258E-2,1.5E-1,6.666667E-2,3.885175E-2,6.330803E-2,1E-1,5.4772254E-2,3E-1,4E-1,1E0,6.439181E-2,3.3333335E-2,-6.504877E-2,5.8333334E-2,5.4732926E-2,2.5E-2,1E-1,3.3333335E-2,2E-1,3E-1,8E-1,1.22474484E-1,4E-1,5E-1,1.6666667E-1,1.5E-1,-6.386276E-2,5.8333334E-2,6.666667E-2,2.5E-2,8.1127E-3,2.1690588E-2,-8.256711E-2,4.1666668E-2,1E-1,5E-2,-6.7649245E-2,1E0,6.3669644E-2,5E-2,-6.4144894E-2,4E-1,-8.2867466E-2,1E-1,3E-1,-8.362295E-2,1E0,3.970726E-1,-9.346775E-2,2.3333333E-1,1.2E0,6.325903E-2,1E0,-1.4820856E-2,-5.553164E-2,-6.5940686E-2,-2.9137298E-2,3.4433223E-2,4.55876E-2,6.1491918E-2,-7.490948E-2,2.5877846E-2,6.823404E-2,-5.4377068E-2,-2.6611617E-2,-6.723427E-2,5.0290763E-2,1.5892357E-2,-5.3747375E-2,3.038844E-2,-7.563333E-2,4.7541272E-2,-6.8421856E-2,-8.2207076E-2,5.628232E-2,5.5728205E-2,2.404709E-2,4.0321883E-2,-1.632347E-3,4.145227E-2,-9.002248E-2,5.7444215E-2,3.146587E-2,-4.86329E-2,5.282929E-2],"split_indices":[11,3,0,29,29,1,15,11,17,13,17,3,25,0,16,0,25,0,0,17,13,0,0,16,27,10,15,6,0,13,0,17,0,17,17,17,15,11,25,27,10,13,17,10,0,17,17,17,0,0,0,17,10,10,0,6,0,17,0,10,0,10,11,0,6,27,0,13,15,0,1,0,0,0,0,0,0,0,0,0,0,0,0,0,0,0,0,0,0,0,0,0,0,0,0,0,0,0,0,0,0,0,0],"split_type":[0,0,0,0,0,0,0,0,0,0,0,0,0,0,0,0,0,0,0,0,0,0,0,0,0,0,0,0,0,0,0,0,0,0,0,0,0,0,0,0,0,0,0,0,0,0,0,0,0,0,0,0,0,0,0,0,0,0,0,0,0,0,0,0,0,0,0,0,0,0,0,0,0,0,0,0,0,0,0,0,0,0,0,0,0,0,0,0,0,0,0,0,0,0,0,0,0,0,0,0,0,0,0],"sum_hessian":[1.0565063E4,5.144236E3,5.4208276E3,4.941491E3,2.0274469E2,1.0942977E3,4.32653E3,4.916494E3,2.499709E1,1.8032208E2,2.2422613E1,3.303941E2,7.639037E2,5.3636928E0,4.321166E3,4.661797E3,2.5469727E2,2.3781065E1,1.2160243E0,1.5385251E2,2.6469574E1,1.2103487E1,1.0319126E1,1.8824611E2,1.42148E2,5.915147E2,1.7238896E2,6.724319E2,3.6487341E3,1.7695352E2,7.7743744E1,1.5103989E2,2.8126266E0,9.713357E0,1.6756218E1,1.6628905E2,2.1957064E1,3.5400906E1,1.0674709E2,5.841591E2,7.355564E0,9.387823E1,7.851073E1,6.325832E2,3.9848644E1,9.917593E1,7.777759E1,1.4721968E2,3.8202004E0,5.1518517E0,4.5615053E0,4.7410836E0,1.2015134E1,4.9284832E1,1.1700422E2,1.0601378E1,1.1355684E1,2.8510672E1,6.890234E0,1.0539064E2,1.3564514E0,1.386302E2,4.4552896E2,1.0630732E0,6.292491E0,9.208409E1,1.7941377E0,9.577857E0,6.893287E1,6.135364E2,1.9046843E1,9.577021E1,3.405717E0,4.1522343E1,3.6255245E1,1.3495569E2,1.22639885E1,3.0397058E0,1.7013777E0,3.483238E0,8.531896E0,3.451016E1,1.4774674E1,6.935359E0,3.6660197E0,2.629048E1,2.2201917E0,1.0425371E2,1.1369364E0,1.374415E2,1.1886988E0,1.6136619E0,4.4391528E2,2.8538468E0,3.438644E0,8.096058E1,1.1123511E1,8.573725E0,1.0041329E0,5.6032513E1,1.2900358E1,1.3551747E0,1.7691668E1],"tree_param":{"num_deleted":"0","num_feature":"30","num_nodes":"103","size_leaf_vector":"1"}},{"base_weights":[-3.0499205E-3,-6.4326875E-2,1.1406546E0,7.4898684E-1,6.315672E-2,3.7075463E-1,9.348076E-1,6.7018783E-1,-2.4006009E-1,1.0109203E0,7.4932575E-1,3.3338875E-1,9.067132E-1,-7.321047E-1,1.8147331E-1,4.4821715E-1,1.0436624E0,-7.509054E-2,8.14595E-1,3.8469353E-1,-7.003838E-2,4.0798914E-2,6.2395077E-2,-8.68323E-1,7.305195E-2,3.81812E-1,-8.316175E-1,7.0914084E-1,-9.3918584E-2,1.0140246E0,1.2165128E0,2.4922775E-1,-8.4451124E-2,7.6395625E-1,1.1595132E0,1.8101647E-2,2.9883692E-2,-5.023694E-2,5.754676E-2,3.8457837E-2,-1.4950422E-3,-7.1511194E-2,4.3102305E-2,5.631115E-2,2.4431095E-2,5.1085938E-2,-3.6590614E-3,6.2736005E-2,3.970126E-2,-1.2405747E-2,5.386078E-2,4.0913004E-2,1.7647203E-2,2.4620963E-2,6.072403E-2],"categories":[],"categories_nodes":[],"categories_segments":[],"categories_sizes":[],"default_left":[0,0,0,0,0,0,0,0,0,0,0,0,0,0,0,0,0,0,0,0,0,0,0,0,0,0,0,0,0,0,0,0,0,0,0,0,0,0,0,0,0,0,0,0,0,0,0,0,0,0,0,0,0,0,0],"id":16,"left_children":[1,-1,3,5,-1,7,9,11,13,15,17,19,21,23,25,27,29,31,33,35,-1,-1,-1,37,-1,39,41,43,-1,45,47,49,-1,51,53,-1,-1,-1,-1,-1,-1,-1,-1,-1,-1,-1,-1,-1,-1,-1,-1,-1,-1,-1,-1],"loss_changes":[1.5015353E4,0E0,2.5853174E2,9.038837E1,0E0,7.825078E1,1.1454651E1,2.2542313E1,2.9417027E1,1.0779663E1,1.3812103E1,1.1205445E1,4.1789703E0,2.078989E1,1.5913807E1,2.2774353E1,1.7180176E0,1.0713291E1,3.251709E0,3.4939766E-1,0E0,0E0,0E0,1.827612E1,0E0,1.0363667E1,1.4414472E1,2.4375496E0,0E0,4.2392273E0,2.8416443E-1,7.3684864E0,0E0,4.386986E0,4.431572E-1,0E0,0E0,0E0,0E0,0E0,0E0,0E0,0E0,0E0,0E0,0E0,0E0,0E0,0E0,0E0,0E0,0E0,0E0,0E0,0E0],"parents":[2147483647,0,0,2,2,3,3,5,5,6,6,7,7,8,8,9,9,10,10,11,11,12,12,13,13,14,14,15,15,16,16,17,17,18,18,19,19,23,23,25,25,26,26,27,27,29,29,30,30,31,31,33,33,34,34],"right_children":[2,-1,4,6,-1,8,10,12,14,16,18,20,22,24,26,28,30,32,34,36,-1,-1,-1,38,-1,40,42,44,-1,46,48,50,-1,52,54,-1,-1,-1,-1,-1,-1,-1,-1,-1,-1,-1,-1,-1,-1,-1,-1,-1,-1,-1,-1],"split_conditions":[1E0,-6.4326875E-2,1E0,7.527727E-2,6.315672E-2,3.3333335E-2,5E-2,1E0,1E0,1E0,5.8333334E-2,3.3333335E-2,2.5E-2,1.5E-1,5E-2,1.1666667E-1,2.5833333E-1,1E-1,4E-1,1.6666668E-2,-7.003838E-2,4.0798914E-2,6.2395077E-2,1E0,7.305195E-2,1E0,2E-1,1E0,-9.3918584E-2,1E0,5.2470946E0,1E0,-8.4451124E-2,6E-1,2.3333333E-1,1.8101647E-2,2.9883692E-2,-5.023694E-2,5.754676E-2,3.8457837E-2,-1.4950422E-3,-7.1511194E-2,4.3102305E-2,5.631115E-2,2.4431095E-2,5.1085938E-2,-3.6590614E-3,6.2736005E-2,3.970126E-2,-1.2405747E-2,5.386078E-2,4.0913004E-2,1.7647203E-2,2.4620963E-2,6.072403E-2],"split_indices":[2,0,0,27,0,13,10,5,3,1,17,17,17,19,17,13,17,10,19,17,0,0,0,6,0,5,10,5,0,26,27,6,0,13,13,0,0,0,0,0,0,0,0,0,0,0,0,0,0,0,0,0,0,0,0],"split_type":[0,0,0,0,0,0,0,0,0,0,0,0,0,0,0,0,0,0,0,0,0,0,0,0,0,0,0,0,0,0,0,0,0,0,0,0,0,0,0,0,0,0,0,0,0,0,0,0,0,0,0,0,0,0,0],"sum_hessian":[1.0226927E4,4.818918E3,5.408009E3,1.2899874E3,4.1180215E3,4.2595825E2,8.640292E2,2.8577072E2,1.4018755E2,6.094785E2,2.5455061E2,1.1888894E2,1.6688177E2,6.434389E1,7.584366E1,3.432147E1,5.7515704E2,1.8663347E1,2.3588727E2,1.162285E2,2.6604376E0,1.3450372E2,3.237805E1,6.1149883E1,3.1940043E0,6.3842022E1,1.2001637E1,3.1485603E1,2.835865E0,4.968338E2,7.8323265E1,1.6244589E1,2.4187596E0,2.0849257E2,2.7394705E1,1.0749151E2,8.736994E0,5.775081E1,3.3990722E0,3.2447147E1,3.1394875E1,8.982439E0,3.019198E0,9.469036E0,2.2016567E1,4.9340225E2,3.4315646E0,7.0021126E1,8.302142E0,1.0586185E1,5.6584034E0,1.8328561E2,2.520695E1,2.8435328E0,2.4551172E1],"tree_param":{"num_deleted":"0","num_feature":"30","num_nodes":"55","size_leaf_vector":"1"}},{"base_weights":[4.5140786E-3,-6.3432045E-2,1.1210788E0,7.3652023E-1,6.216975E-2,4.3682638E-1,9.619709E-1,9.590931E-2,6.023063E-1,1.0280042E0,6.8570447E-1,3.6615103E-1,-4.1201812E-1,7.3337513E-1,3.7357756E-1,9.2630523E-1,1.0885167E0,7.234962E-1,-7.818122E-2,2.891472E-1,5.1449776E-2,-6.772528E-1,5.920003E-2,7.046756E-1,6.0687643E-2,2.8180397E-1,1.0890968E0,1.1469139E0,8.470245E-1,5.4829944E-2,6.615329E-1,5.212232E-1,9.9583036E-1,1.0268863E-2,5.028252E-2,-2.082536E-2,-8.157941E-2,3.6297314E-2,-6.591562E-2,2.0029316E-2,-4.535645E-2,6.0739983E-2,2.642787E-2,5.9887078E-2,3.04405E-2,3.9998088E-2,6.173381E-2,4.8350766E-3,4.746578E-2,4.295006E-2,8.71278E-4,-9.467963E-3,5.3907998E-2],"categories":[],"categories_nodes":[],"categories_segments":[],"categories_sizes":[],"default_left":[0,0,0,0,0,0,0,0,0,0,0,0,0,0,0,0,0,0,0,0,0,0,0,0,0,0,0,0,0,0,0,0,0,0,0,0,0,0,0,0,0,0,0,0,0,0,0,0,0,0,0,0,0],"id":17,"left_children":[1,-1,3,5,-1,7,9,11,13,15,17,19,21,23,25,27,29,31,-1,33,-1,35,-1,37,-1,39,41,43,45,-1,47,49,51,-1,-1,-1,-1,-1,-1,-1,-1,-1,-1,-1,-1,-1,-1,-1,-1,-1,-1,-1,-1],"loss_changes":[1.4040367E4,0E0,2.4659473E2,8.554016E1,0E0,3.0858696E1,1.2525085E1,2.489538E1,1.07808075E1,2.581482E0,1.3279144E1,5.7353735E0,2.7502619E1,2.3622284E0,8.647785E0,2.9517975E0,5.1690674E-1,7.2606277E0,0E0,6.23285E0,0E0,1.2937508E1,0E0,1.0535896E1,0E0,1.7623034E1,4.2563248E-1,8.1546783E-1,2.0925674E0,0E0,1.4049869E0,1.4132492E1,5.970127E0,0E0,0E0,0E0,0E0,0E0,0E0,0E0,0E0,0E0,0E0,0E0,0E0,0E0,0E0,0E0,0E0,0E0,0E0,0E0,0E0],"parents":[2147483647,0,0,2,2,3,3,5,5,6,6,7,7,8,8,9,9,10,10,11,11,12,12,13,13,14,14,15,15,16,16,17,17,19,19,21,21,23,23,25,25,26,26,27,27,28,28,30,30,31,31,32,32],"right_children":[2,-1,4,6,-1,8,10,12,14,16,18,20,22,24,26,28,30,32,-1,34,-1,36,-1,38,-1,40,42,44,46,-1,48,50,52,-1,-1,-1,-1,-1,-1,-1,-1,-1,-1,-1,-1,-1,-1,-1,-1,-1,-1,-1,-1],"split_conditions":[1E0,-6.3432045E-2,1E0,1E0,6.216975E-2,1E0,1E-1,2E-1,2E-1,4E-1,2.1E0,1E0,1E0,1.5E-1,2E-1,1E0,1E0,6E-1,-7.818122E-2,2E-1,5.1449776E-2,3E-1,5.920003E-2,5E-2,6.0687643E-2,1E-1,9E-1,4E-1,1.5E-1,5.4829944E-2,8E-1,1E0,3E-1,1.0268863E-2,5.028252E-2,-2.082536E-2,-8.157941E-2,3.6297314E-2,-6.591562E-2,2.0029316E-2,-4.535645E-2,6.0739983E-2,2.642787E-2,5.9887078E-2,3.04405E-2,3.9998088E-2,6.173381E-2,4.8350766E-3,4.746578E-2,4.295006E-2,8.71278E-4,-9.467963E-3,5.3907998E-2],"split_indices":[2,0,0,1,0,3,25,11,11,21,21,5,11,19,19,3,9,25,0,24,0,11,0,19,0,19,24,11,19,0,11,5,21,0,0,0,0,0,0,0,0,0,0,0,0,0,0,0,0,0,0,0,0],"split_type":[0,0,0,0,0,0,0,0,0,0,0,0,0,0,0,0,0,0,0,0,0,0,0,0,0,0,0,0,0,0,0,0,0,0,0,0,0,0,0,0,0,0,0,0,0,0,0,0,0,0,0,0,0],"sum_hessian":[9.874731E3,4.613773E3,5.260958E3,1.2712397E3,3.9897183E3,5.4701917E2,7.242206E2,1.792706E2,3.6774857E2,5.8231464E2,1.4190598E2,1.171959E2,6.2074703E1,2.3238075E2,1.3536781E2,2.2331451E2,3.5900012E2,1.402283E2,1.6776725E0,1.0628481E2,1.091108E1,5.3722485E1,8.352221E0,2.21608E2,1.0772746E1,1.212145E2,1.415331E1,5.54768E1,1.678377E2,3.5079187E2,8.208241E0,8.213638E1,5.809193E1,9.631123E1,9.973583E0,4.3322304E1,1.0400179E1,2.1993665E2,1.6713653E0,1.1080719E2,1.0407307E1,1.0607374E1,3.5459354E0,4.956882E1,5.907978E0,1.5239932E2,1.5438393E1,3.2214737E0,4.9867682E0,4.8747746E1,3.3388638E1,3.6888251E0,5.4403103E1],"tree_param":{"num_deleted":"0","num_feature":"30","num_nodes":"53","size_leaf_vector":"1"}},{"base_weights":[7.813929E-3,-6.260582E-2,1.1031609E0,7.15358E-1,6.137657E-2,3.5063788E-1,9.00143E-1,6.4896226E-1,-2.9922226E-1,1.0062263E0,7.1911466E-1,3.3924714E-1,7.735759E-1,-4.2799184E-1,6.718938E-2,1.0208746E0,8.120241E-2,7.319123E-1,-7.310558E-2,1.0515212E-1,5.195802E-2,3.6830645E-2,4.5922603E-2,-8.30749E-1,-6.3554704E-2,1.0248083E0,1.3034858E-2,5.3311437E-2,-8.543002E-2,5.075442E-1,8.938427E-1,6.8606674E-3,-4.4136185E-2,-6.8756886E-2,-8.262854E-3,1.1864212E-2,-6.787612E-2,5.0121613E-2,6.2238943E-2,2.9693324E-2,-2.9149309E-2,5.5066984E-2,3.7823975E-2],"categories":[],"categories_nodes":[],"categories_segments":[],"categories_sizes":[],"default_left":[0,0,0,0,0,0,0,0,0,0,0,0,0,0,0,0,0,0,0,0,0,0,0,0,0,0,0,0,0,0,0,0,0,0,0,0,0,0,0,0,0,0,0],"id":18,"left_children":[1,-1,3,5,-1,7,9,11,13,15,17,19,21,23,-1,25,27,29,-1,31,-1,-1,-1,33,35,37,-1,-1,-1,39,41,-1,-1,-1,-1,-1,-1,-1,-1,-1,-1,-1,-1],"loss_changes":[1.3298773E4,0E0,2.4774707E2,8.420746E1,0E0,8.227394E1,1.5249817E1,1.0948822E1,2.8902252E1,6.98938E0,9.746872E0,1.3838125E1,4.285431E-1,1.8282597E1,0E0,1.2689819E0,1.8081547E1,1.0797775E1,0E0,2.1767385E0,0E0,0E0,0E0,2.1240509E1,2.6271816E1,1.2659912E0,0E0,0E0,0E0,1.2784435E1,4.256134E0,0E0,0E0,0E0,0E0,0E0,0E0,0E0,0E0,0E0,0E0,0E0,0E0],"parents":[2147483647,0,0,2,2,3,3,5,5,6,6,7,7,8,8,9,9,10,10,11,11,12,12,13,13,15,15,16,16,17,17,19,19,23,23,24,24,25,25,29,29,30,30],"right_children":[2,-1,4,6,-1,8,10,12,14,16,18,20,22,24,-1,26,28,30,-1,32,-1,-1,-1,34,36,38,-1,-1,-1,40,42,-1,-1,-1,-1,-1,-1,-1,-1,-1,-1,-1,-1],"split_conditions":[1E0,-6.260582E-2,1E0,7.527727E-2,6.137657E-2,3.3333335E-2,1E-1,1E0,1.5E-1,1E0,4.3E0,1E0,2E-1,1E0,6.718938E-2,1.6833333E0,1.3333334E-1,2.4013884E-1,-7.310558E-2,4E-1,5.195802E-2,3.6830645E-2,4.5922603E-2,1E-1,1E-1,4.8E0,1.3034858E-2,5.3311437E-2,-8.543002E-2,8E-1,3.5449496E-1,6.8606674E-3,-4.4136185E-2,-6.8756886E-2,-8.262854E-3,1.1864212E-2,-6.787612E-2,5.0121613E-2,6.2238943E-2,2.9693324E-2,-2.9149309E-2,5.5066984E-2,3.7823975E-2],"split_indices":[2,0,0,27,0,13,15,3,19,9,25,29,18,3,0,13,13,27,0,18,0,0,0,25,10,18,0,0,0,11,27,0,0,0,0,0,0,0,0,0,0,0,0],"split_type":[0,0,0,0,0,0,0,0,0,0,0,0,0,0,0,0,0,0,0,0,0,0,0,0,0,0,0,0,0,0,0,0,0,0,0,0,0,0,0,0,0,0,0],"sum_hessian":[9.634366E3,4.4804985E3,5.153867E3,1.2531481E3,3.9007192E3,4.223771E2,8.30771E2,2.8948685E2,1.3289026E2,5.209399E2,3.0983112E2,8.412492E1,2.0536194E2,1.2391781E2,8.972452E0,5.127171E2,8.222781E0,3.0868445E2,1.1466609E0,6.3902233E1,2.022269E1,1.6846501E2,3.6896923E1,5.825635E1,6.566145E1,5.097313E2,2.9858055E0,5.56457E0,2.6582112E0,1.3112885E2,1.7755562E2,6.272753E1,1.1747019E0,3.1457226E1,2.6799128E1,5.3937878E1,1.17235775E1,4.6771152E2,4.2019775E1,1.21932556E2,9.196285E0,6.7927895E1,1.0962772E2],"tree_param":{"num_deleted":"0","num_feature":"30","num_nodes":"43","size_leaf_vector":"1"}},{"base_weights":[-9.351994E-3,-6.1842233E-2,1.073459E0,4.524136E-1,1.1508639E0,2.854307E-1,1.1494794E0,1.0098481E0,6.0517948E-2,1.4568128E-1,9.9822336E-1,5.8278468E-2,6.299172E-1,8.1975347E-1,1.0783005E0,9.641898E-2,9.650792E-1,5.152104E-2,4.9770394E-1,1.3077147E-2,4.132948E-2,6.9102347E-1,1.0700591E0,1.0120425E0,1.1859307E0,1.8520363E-1,-7.01541E-1,1.2269405E0,4.9740365E-3,3.3171588E-4,4.6219792E-2,4.7349904E-2,4.0451318E-1,1.1196483E0,4.5980722E-1,1.044076E0,7.600414E-1,1.1932551E0,5.4240894E-1,7.4827196E-3,6.013867E-2,-5.1014014E-2,3.9893176E-2,6.624365E-2,2.9643292E-2,-6.6861525E-2,3.5043724E-2,1.3927943E-2,5.399688E-2,5.679605E-2,1.4245925E-2,-1.7936002E-2,4.1034766E-2,5.0700612E-2,5.7327427E-2,4.082029E-2,-6.9114804E-2,6.0050886E-2,3.406102E-2,2.4999045E-3,4.5361485E-2],"categories":[],"categories_nodes":[],"categories_segments":[],"categories_sizes":[],"default_left":[0,0,0,0,0,0,0,0,0,0,0,0,0,0,0,0,0,0,0,0,0,0,0,0,0,0,0,0,0,0,0,0,0,0,0,0,0,0,0,0,0,0,0,0,0,0,0,0,0,0,0,0,0,0,0,0,0,0,0,0,0],"id":19,"left_children":[1,-1,3,5,7,9,11,13,-1,15,17,-1,19,21,23,25,27,-1,29,-1,-1,31,33,35,37,39,41,43,45,-1,-1,-1,47,49,51,53,55,57,59,-1,-1,-1,-1,-1,-1,-1,-1,-1,-1,-1,-1,-1,-1,-1,-1,-1,-1,-1,-1,-1,-1],"loss_changes":[1.2186472E4,0E0,2.336582E2,6.2703506E1,3.511328E1,4.350435E1,1.3787842E-1,1.5916382E1,0E0,1.474276E1,6.4196014E-1,0E0,1.6848493E-1,1.0409256E1,5.546631E0,2.4770752E1,5.2063007E0,0E0,1.3066733E0,0E0,0E0,1.6581154E1,2.9860687E0,3.9887695E0,1.0244446E0,1.1170357E1,1.7556795E1,2.2579384E-1,6.024857E0,0E0,0E0,0E0,9.13299E0,1.1202087E0,3.3638902E0,4.4836426E-1,9.640167E0,5.7247925E-1,1.0010095E0,0E0,0E0,0E0,0E0,0E0,0E0,0E0,0E0,0E0,0E0,0E0,0E0,0E0,0E0,0E0,0E0,0E0,0E0,0E0,0E0,0E0,0E0],"parents":[2147483647,0,0,2,2,3,3,4,4,5,5,6,6,7,7,9,9,10,10,12,12,13,13,14,14,15,15,16,16,18,18,21,21,22,22,23,23,24,24,25,25,26,26,27,27,28,28,32,32,33,33,34,34,35,35,36,36,37,37,38,38],"right_children":[2,-1,4,6,8,10,12,14,-1,16,18,-1,20,22,24,26,28,-1,30,-1,-1,32,34,36,38,40,42,44,46,-1,-1,-1,48,50,52,54,56,58,60,-1,-1,-1,-1,-1,-1,-1,-1,-1,-1,-1,-1,-1,-1,-1,-1,-1,-1,-1,-1,-1,-1],"split_conditions":[1E0,-6.1842233E-2,2E-1,1E0,1E0,1E0,3E-1,3E-1,6.0517948E-2,1E0,6E-1,5.8278468E-2,5E-1,1E0,1E0,1E-1,1.3333334E-1,5.152104E-2,2.6E0,1.3077147E-2,4.132948E-2,4E-1,2.7E0,1E-1,5.5E-1,1E-1,2E-1,3.7E0,2.1666667E-1,3.3171588E-4,4.6219792E-2,4.7349904E-2,3E-1,1E0,1.6E0,1E0,2.1E0,4.5E-1,8E-1,7.4827196E-3,6.013867E-2,-5.1014014E-2,3.9893176E-2,6.624365E-2,2.9643292E-2,-6.6861525E-2,3.5043724E-2,1.3927943E-2,5.399688E-2,5.679605E-2,1.4245925E-2,-1.7936002E-2,4.1034766E-2,5.0700612E-2,5.7327427E-2,4.082029E-2,-6.9114804E-2,6.0050886E-2,3.406102E-2,2.4999045E-3,4.5361485E-2],"split_indices":[2,0,20,4,6,29,13,21,0,26,18,0,13,4,4,10,13,0,18,0,0,18,18,10,10,19,13,18,13,0,0,0,15,26,11,29,21,19,10,0,0,0,0,0,0,0,0,0,0,0,0,0,0,0,0,0,0,0,0,0,0],"split_type":[0,0,0,0,0,0,0,0,0,0,0,0,0,0,0,0,0,0,0,0,0,0,0,0,0,0,0,0,0,0,0,0,0,0,0,0,0,0,0,0,0,0,0,0,0,0,0,0,0,0,0,0,0,0,0,0,0,0,0,0,0],"sum_hessian":[9.166672E3,4.29624E3,4.8704316E3,5.405177E2,4.329914E3,4.3719632E2,1.0332137E2,1.2900956E3,3.0398186E3,3.6653766E2,7.065864E1,9.9011795E1,4.309576E0,3.4499796E2,9.4509753E2,3.4680536E2,1.9732307E1,6.5393326E1,5.265319E0,2.310942E0,1.9986342E0,2.3031145E2,1.1468651E2,5.91419E2,3.5367856E2,3.1277277E2,3.403261E1,1.5285406E1,4.446901E0,2.920143E0,2.3451757E0,1.2042014E2,1.09891304E2,1.0529543E2,9.391079E0,5.2193E2,6.948899E1,3.4885382E2,4.824758E0,3.033231E2,9.449652E0,2.832987E1,5.7027416E0,1.2296726E1,2.9886794E0,1.2037016E0,3.243199E0,9.380989E1,1.6081413E1,1.0292807E2,2.3673651E0,2.8754046E0,6.5156746E0,4.1196252E2,1.0996748E2,6.831068E1,1.1783196E0,3.4231854E2,6.5352616E0,2.5372262E0,2.2875319E0],"tree_param":{"num_deleted":"0","num_feature":"30","num_nodes":"61","size_leaf_vector":"1"}},{"base_weights":[-1.534536E-3,-6.1130255E-2,1.0593905E0,4.5790842E-1,1.1280043E0,3.561253E-1,5.8251243E-2,9.863837E-1,5.9715968E-2,5.970177E-1,-1.0070741E-1,8.556528E-1,1.1645195E0,5.3859836E-1,4.7385864E-2,-6.958464E-1,3.193629E-1,4.30005E-1,9.091993E-1,8.980561E-1,5.864459E-2,2.9898098E-1,6.594386E-1,-6.7453906E-2,1.0284914E-1,4.4487754E-1,-3.962086E-1,7.865548E-2,7.940599E-1,8.5969514E-1,1.1076567E0,2.6912047E-2,4.8421726E-2,9.644828E-3,4.4372972E-2,3.1048113E-2,4.4605907E-2,2.546676E-2,-5.6989897E-2,1.4379302E-2,5.0137457E-2,3.329818E-2,-6.127112E-2,8.908369E-3,-8.3815515E-2,2.6738364E-2,5.4466452E-2,4.344746E-2,-9.108061E-2,4.8717078E-2,6.087066E-2],"categories":[],"categories_nodes":[],"categories_segments":[],"categories_sizes":[],"default_left":[0,0,0,0,0,0,0,0,0,0,0,0,0,0,0,0,0,0,0,0,0,0,0,0,0,0,0,0,0,0,0,0,0,0,0,0,0,0,0,0,0,0,0,0,0,0,0,0,0,0,0],"id":20,"left_children":[1,-1,3,5,7,9,-1,11,-1,13,15,17,19,21,-1,23,25,27,29,31,-1,33,35,-1,37,39,41,43,45,47,49,-1,-1,-1,-1,-1,-1,-1,-1,-1,-1,-1,-1,-1,-1,-1,-1,-1,-1,-1,-1],"loss_changes":[1.1503798E4,0E0,1.9558301E2,3.472357E1,3.8870605E1,4.7185627E1,0E0,3.0809082E1,0E0,5.236862E0,3.7398087E1,1.7647827E1,2.3010254E-1,6.832779E0,0E0,3.240513E1,8.0672655E0,1.1492548E1,5.9456787E0,3.0612946E-2,0E0,5.0241585E0,8.8349915E-1,0E0,1.5104449E1,6.311949E0,1.2829777E1,8.52079E0,2.8057652E0,1.5637207E1,8.1414795E-1,0E0,0E0,0E0,0E0,0E0,0E0,0E0,0E0,0E0,0E0,0E0,0E0,0E0,0E0,0E0,0E0,0E0,0E0,0E0,0E0],"parents":[2147483647,0,0,2,2,3,3,4,4,5,5,7,7,9,9,10,10,11,11,12,12,13,13,15,15,16,16,17,17,18,18,19,19,21,21,22,22,24,24,25,25,26,26,27,27,28,28,29,29,30,30],"right_children":[2,-1,4,6,8,10,-1,12,-1,14,16,18,20,22,-1,24,26,28,30,32,-1,34,36,-1,38,40,42,44,46,48,50,-1,-1,-1,-1,-1,-1,-1,-1,-1,-1,-1,-1,-1,-1,-1,-1,-1,-1,-1,-1],"split_conditions":[1E0,-6.1130255E-2,2E-1,1E0,1E0,2E-1,5.8251243E-2,1E0,5.9715968E-2,1E0,1E0,1.1547005E-1,2.5E-2,1E0,4.7385864E-2,1E-1,1E-1,1E-1,5.416667E-1,1E0,5.864459E-2,1.6666668E-2,2.5E-2,-6.7453906E-2,1E-1,4.1666668E-2,1E-1,2E-1,2E-1,3E-1,1E-1,2.6912047E-2,4.8421726E-2,9.644828E-3,4.4372972E-2,3.1048113E-2,4.4605907E-2,2.546676E-2,-5.6989897E-2,1.4379302E-2,5.0137457E-2,3.329818E-2,-6.127112E-2,8.908369E-3,-8.3815515E-2,2.6738364E-2,5.4466452E-2,4.344746E-2,-9.108061E-2,4.8717078E-2,6.087066E-2],"split_indices":[2,0,24,4,4,14,0,29,0,29,3,28,17,3,0,25,10,16,17,3,0,17,17,0,10,17,25,19,12,19,16,0,0,0,0,0,0,0,0,0,0,0,0,0,0,0,0,0,0,0,0],"split_type":[0,0,0,0,0,0,0,0,0,0,0,0,0,0,0,0,0,0,0,0,0,0,0,0,0,0,0,0,0,0,0,0,0,0,0,0,0,0,0,0,0,0,0,0,0,0,0,0,0,0,0],"sum_hessian":[8.878059E3,4.127437E3,4.7506216E3,4.8722067E2,4.263401E3,4.2722855E2,5.9992115E1,1.3647517E3,2.8986492E3,2.7952524E2,1.477033E2,7.9045404E2,5.742976E2,2.4178467E2,3.7740585E1,6.0844593E1,8.68587E1,8.933665E1,7.0111743E2,2.0792805E1,5.535048E2,8.222089E1,1.5956378E2,3.3091137E1,2.7753456E1,7.421869E1,1.2640017E1,4.6080437E1,4.3256207E1,5.6541046E2,1.3570695E2,4.8163996E0,1.5976404E1,7.078782E1,1.1433061E1,1.4007022E2,1.9493565E1,2.1357319E1,6.396137E0,5.9077366E1,1.5141319E1,5.6278973E0,7.01212E0,4.445801E1,1.622426E0,2.4527943E1,1.8728264E1,5.6413934E2,1.2711004E0,6.573707E1,6.996988E1],"tree_param":{"num_deleted":"0","num_feature":"30","num_nodes":"51","size_leaf_vector":"1"}},{"base_weights":[-1.1830621E-2,-6.0469218E-2,1.0372239E0,6.1662626E-1,5.898888E-2,3.3940265E-1,8.365742E-1,5.977341E-1,1.9021329E-2,9.245457E-1,5.101491E-1,3.4261027E-1,7.1466494E-1,-4.663117E-1,4.719836E-1,8.836668E-1,1.1637486E0,3.3197278E-1,1.0407472E0,2.4996725E-1,3.5713818E-2,7.3057735E-1,2.4913926E-1,-5.807698E-1,6.904178E-2,5.656344E-1,-2.4693598E-1,8.976588E-1,-9.400897E-2,6.006335E-2,1.0140688E-2,8.397849E-2,7.383113E-1,6.877694E-1,5.833782E-2,8.812439E-3,4.0025163E-2,3.385475E-2,5.1446892E-2,-8.331388E-2,4.4364765E-2,-1.2927234E-2,-5.7319164E-2,2.2429083E-2,5.2883428E-2,-1.0494169E-1,3.5882406E-2,4.6017174E-2,3.0795692E-2,1.496728E-2,-1.3224421E-1,4.6652716E-2,-3.1284858E-2,5.67572E-2,8.551916E-3],"categories":[],"categories_nodes":[],"categories_segments":[],"categories_sizes":[],"default_left":[0,0,0,0,0,0,0,0,0,0,0,0,0,0,0,0,0,0,0,0,0,0,0,0,0,0,0,0,0,0,0,0,0,0,0,0,0,0,0,0,0,0,0,0,0,0,0,0,0,0,0,0,0,0,0],"id":21,"left_children":[1,-1,3,5,-1,7,9,11,13,15,17,19,21,23,25,27,29,31,33,35,-1,37,39,41,-1,43,45,47,-1,-1,-1,49,51,53,-1,-1,-1,-1,-1,-1,-1,-1,-1,-1,-1,-1,-1,-1,-1,-1,-1,-1,-1,-1,-1],"loss_changes":[1.0717694E4,0E0,2.719331E2,7.0034515E1,0E0,4.2353664E1,1.797464E1,8.207863E0,5.0679E1,3.9073792E0,1.275753E1,2.953823E0,1.2504349E0,2.4334753E1,8.1664715E0,1.8519653E1,2.2987213E0,1.0541434E1,7.264061E-1,2.876739E0,0E0,2.2787323E0,1.1145742E1,1.8934597E1,0E0,5.6180573E0,2.7294405E1,2.2052917E0,0E0,0E0,0E0,3.9858055E1,1.1143198E1,2.459382E0,0E0,0E0,0E0,0E0,0E0,0E0,0E0,0E0,0E0,0E0,0E0,0E0,0E0,0E0,0E0,0E0,0E0,0E0,0E0,0E0,0E0],"parents":[2147483647,0,0,2,2,3,3,5,5,6,6,7,7,8,8,9,9,10,10,11,11,12,12,13,13,14,14,15,15,16,16,17,17,18,18,19,19,21,21,22,22,23,23,25,25,26,26,27,27,31,31,32,32,33,33],"right_children":[2,-1,4,6,-1,8,10,12,14,16,18,20,22,24,26,28,30,32,34,36,-1,38,40,42,-1,44,46,48,-1,-1,-1,50,52,54,-1,-1,-1,-1,-1,-1,-1,-1,-1,-1,-1,-1,-1,-1,-1,-1,-1,-1,-1,-1,-1],"split_conditions":[1E0,-6.0469218E-2,1E0,1E0,5.898888E-2,3.3333335E-2,1E-1,1E0,2E-1,3.6666667E-1,1E0,1E0,5.8333334E-2,1.5E-1,3.5E-1,3E-1,1.6833333E0,8E-1,1.3333334E-1,2.5E-2,3.5713818E-2,1.6666668E-2,1.5E-1,3.3333335E-2,6.904178E-2,1E0,2.5E-1,5E-2,-9.400897E-2,6.006335E-2,1.0140688E-2,3.6666667E-1,1.2E0,5E-1,5.833782E-2,8.812439E-3,4.0025163E-2,3.385475E-2,5.1446892E-2,-8.331388E-2,4.4364765E-2,-1.2927234E-2,-5.7319164E-2,2.2429083E-2,5.2883428E-2,-1.0494169E-1,3.5882406E-2,4.6017174E-2,3.0795692E-2,1.496728E-2,-1.3224421E-1,4.6652716E-2,-3.1284858E-2,5.67572E-2,8.551916E-3],"split_indices":[2,0,0,1,0,13,25,3,24,17,29,29,17,19,13,10,13,25,17,17,0,17,17,17,0,11,10,10,0,0,0,13,15,11,0,0,0,0,0,0,0,0,0,0,0,0,0,0,0,0,0,0,0,0,0],"split_type":[0,0,0,0,0,0,0,0,0,0,0,0,0,0,0,0,0,0,0,0,0,0,0,0,0,0,0,0,0,0,0,0,0,0,0,0,0,0,0,0,0,0,0,0,0,0,0,0,0,0,0,0,0,0,0],"sum_hessian":[8.529166E3,3.9826257E3,4.5465396E3,1.1522394E3,3.3943003E3,5.1087393E2,6.413655E2,2.8234576E2,2.2852815E2,5.0376776E2,1.3759773E2,8.997191E1,1.9237386E2,1.103078E2,1.1822036E2,4.342502E2,6.9517555E1,1.042245E2,3.3373234E1,7.3358765E1,1.6613146E1,1.8546501E2,6.9088507E0,1.04517006E2,5.7907906E0,1.04783806E2,1.3436556E1,4.327347E2,1.5155134E0,6.666463E1,2.8529322E0,6.547241E1,3.8752094E1,1.0478605E1,2.289463E1,6.586004E1,7.498724E0,1.6004553E2,2.5419476E1,1.32395E0,5.584901E0,6.75127E1,3.7004303E1,8.6191025E1,1.8592781E1,4.1990104E0,9.237545E0,3.983917E2,3.4342995E1,6.1508358E1,3.9640543E0,3.4187065E1,4.5650287E0,4.9747753E0,5.5038304E0],"tree_param":{"num_deleted":"0","num_feature":"30","num_nodes":"55","size_leaf_vector":"1"}},{"base_weights":[5.3873234E-3,-5.985383E-2,1.0267621E0,6.31461E-1,5.82529E-2,3.2492325E-1,8.572442E-1,4.8129067E-1,3.4366764E-2,9.2872745E-1,7.0438766E-1,2.465688E-1,6.5642345E-1,-2.5044122E-1,4.187071E-1,9.377813E-1,2.1616252E-1,-2.9983294E-1,7.827149E-1,1.8248269E-1,1.0365001E0,7.0658785E-1,3.3725542E-1,-3.4590286E-1,9.066996E-1,4.9216947E-1,-7.881646E-2,9.1981107E-1,5.3229064E-2,5.166592E-2,-7.3464714E-2,-8.779737E-2,3.4346256E-2,4.7580263E-1,8.828585E-1,5.150864E-3,5.0376683E-2,6.9260575E-2,9.657561E-3,3.0363828E-2,5.167752E-2,-7.575724E-2,3.3779737E-2,-7.8637395E-3,-6.638523E-2,6.388072E-2,1.7246203E-2,1.8989794E-2,4.619589E-2,4.6463996E-2,1.6955158E-2,3.2354545E-2,-4.3529745E-2,3.2466967E-2,-4.514419E-2,5.1764622E-3,4.5672726E-2],"categories":[],"categories_nodes":[],"categories_segments":[],"categories_sizes":[],"default_left":[0,0,0,0,0,0,0,0,0,0,0,0,0,0,0,0,0,0,0,0,0,0,0,0,0,0,0,0,0,0,0,0,0,0,0,0,0,0,0,0,0,0,0,0,0,0,0,0,0,0,0,0,0,0,0,0,0],"id":22,"left_children":[1,-1,3,5,-1,7,9,11,13,15,17,19,21,23,25,27,29,31,33,35,37,39,41,43,45,47,-1,49,-1,-1,-1,-1,51,53,55,-1,-1,-1,-1,-1,-1,-1,-1,-1,-1,-1,-1,-1,-1,-1,-1,-1,-1,-1,-1,-1,-1],"loss_changes":[1.0225487E4,0E0,2.4537549E2,8.0627014E1,0E0,2.258334E1,6.694519E0,1.3128723E1,1.9273407E1,2.733368E0,1.7416489E1,6.885745E0,2.7166367E0,1.1493149E1,1.17542925E1,4.40979E-2,1.1172393E1,8.102873E0,5.816414E0,8.450937E0,2.753765E0,4.521538E0,1.7933502E1,1.7239792E1,1.2240267E0,3.1913033E0,0E0,1.8881836E0,0E0,0E0,0E0,0E0,8.5612335E0,1.304859E1,3.525505E0,0E0,0E0,0E0,0E0,0E0,0E0,0E0,0E0,0E0,0E0,0E0,0E0,0E0,0E0,0E0,0E0,0E0,0E0,0E0,0E0,0E0,0E0],"parents":[2147483647,0,0,2,2,3,3,5,5,6,6,7,7,8,8,9,9,10,10,11,11,12,12,13,13,14,14,15,15,16,16,17,17,18,18,19,19,20,20,21,21,22,22,23,23,24,24,25,25,27,27,32,32,33,33,34,34],"right_children":[2,-1,4,6,-1,8,10,12,14,16,18,20,22,24,26,28,30,32,34,36,38,40,42,44,46,48,-1,50,-1,-1,-1,-1,52,54,56,-1,-1,-1,-1,-1,-1,-1,-1,-1,-1,-1,-1,-1,-1,-1,-1,-1,-1,-1,-1,-1,-1],"split_conditions":[1E0,-5.985383E-2,1E0,1.1547005E-1,5.82529E-2,6.666667E-2,1E-1,1E0,7.527727E-2,1E0,1.5491934E-1,1E0,3.3333335E-2,1E0,2.8333333E-1,2.9166666E-1,2E-1,1E0,1.1666667E-1,1E-1,7.5E-2,1.6666668E-2,2E-1,1E-1,5E-2,1E0,-7.881646E-2,4.1666666E-1,5.3229064E-2,5.166592E-2,-7.3464714E-2,-8.779737E-2,5E-2,1E-1,1.8333334E-1,5.150864E-3,5.0376683E-2,6.9260575E-2,9.657561E-3,3.0363828E-2,5.167752E-2,-7.575724E-2,3.3779737E-2,-7.8637395E-3,-6.638523E-2,6.388072E-2,1.7246203E-2,1.8989794E-2,4.619589E-2,4.6463996E-2,1.6955158E-2,3.2354545E-2,-4.3529745E-2,3.2466967E-2,-4.514419E-2,5.1764622E-3,4.5672726E-2],"split_indices":[2,0,0,28,0,12,15,5,27,8,27,26,13,7,13,17,13,1,17,17,17,17,24,12,17,8,0,13,0,0,0,0,17,16,13,0,0,0,0,0,0,0,0,0,0,0,0,0,0,0,0,0,0,0,0,0,0],"split_type":[0,0,0,0,0,0,0,0,0,0,0,0,0,0,0,0,0,0,0,0,0,0,0,0,0,0,0,0,0,0,0,0,0,0,0,0,0,0,0,0,0,0,0,0,0,0,0,0,0,0,0,0,0,0,0,0,0],"sum_hessian":[8.323815E3,3.8229211E3,4.500894E3,1.167969E3,3.3329253E3,4.9642694E2,6.7154205E2,3.2231287E2,1.7411406E2,4.541047E2,2.1743735E2,1.3875467E2,1.8355821E2,1.0020642E2,7.3907646E1,4.4809515E2,6.0095677E0,1.5527968E1,2.0190938E2,1.2948105E2,9.27362E0,1.5757751E2,2.59807E1,9.321727E1,6.989154E0,7.200938E1,1.8982676E0,3.9970285E2,4.8392292E1,4.3078995E0,1.7016679E0,2.1043227E0,1.3423646E1,5.108851E1,1.5082088E2,1.1913165E2,1.0349394E1,6.1062636E0,3.1673558E0,1.2305747E2,3.4520042E1,3.4753036E0,2.2505396E1,7.916746E1,1.4049809E1,3.4421895E0,3.5469646E0,5.8629272E1,1.3380105E1,3.9269934E2,7.0035176E0,8.173932E0,5.2497144E0,4.584675E1,5.241761E0,5.86306E0,1.4495781E2],"tree_param":{"num_deleted":"0","num_feature":"30","num_nodes":"57","size_leaf_vector":"1"}},{"base_weights":[-1.6600866E-3,-5.9279364E-2,1.0025518E0,5.811742E-1,5.780811E-2,2.9255468E-1,8.1202567E-1,5.538211E-1,-3.965158E-2,9.0286267E-1,4.9580553E-1,4.7774798E-1,5.0263263E-2,-2.609936E-1,5.5387044E-1,7.314399E-1,9.612719E-1,1.641932E-1,6.772975E-1,1.583947E-1,6.0110915E-1,-3.2937157E-1,6.820327E-2,7.3398876E-1,7.561485E-3,7.7078474E-1,-3.944508E-1,3.1281182E-1,9.6990556E-1,2.9978982E-1,-1.22616485E-1,1.0061618E0,4.6729156E-1,-4.0299786E-4,5.192988E-2,2.767973E-2,4.0099822E-2,-7.942748E-2,-7.9744E-3,4.4293936E-2,1.6454576E-2,-1.08362556E-1,3.9175455E-2,4.3429267E-2,2.596957E-2,-8.980149E-2,4.5543116E-2,-6.4296457E-3,4.1781716E-2,5.494973E-2,4.6778396E-2,2.0474639E-2,-1.06353045E-1,5.4858245E-2,1.6989628E-2,-2.6296753E-2,3.5114907E-2],"categories":[],"categories_nodes":[],"categories_segments":[],"categories_sizes":[],"default_left":[0,0,0,0,0,0,0,0,0,0,0,0,0,0,0,0,0,0,0,0,0,0,0,0,0,0,0,0,0,0,0,0,0,0,0,0,0,0,0,0,0,0,0,0,0,0,0,0,0,0,0,0,0,0,0,0,0],"id":23,"left_children":[1,-1,3,5,-1,7,9,11,13,15,17,19,-1,21,23,25,27,29,31,33,35,37,-1,39,41,43,45,47,49,51,-1,53,55,-1,-1,-1,-1,-1,-1,-1,-1,-1,-1,-1,-1,-1,-1,-1,-1,-1,-1,-1,-1,-1,-1,-1,-1],"loss_changes":[9.539571E3,0E0,2.803379E2,7.717319E1,0E0,4.49708E1,1.8078339E1,9.477676E0,3.0218107E1,4.3013306E0,8.684387E0,9.755646E0,0E0,1.9052485E1,6.144663E0,6.116089E0,1.7658691E0,1.9543644E1,6.030781E0,1.0415703E1,1.2742844E0,3.428592E1,0E0,2.5986004E0,2.9555712E1,2.6740952E0,1.0951102E1,1.5688157E0,5.8651733E-1,1.4526575E1,0E0,1.7991791E0,1.4213974E1,0E0,0E0,0E0,0E0,0E0,0E0,0E0,0E0,0E0,0E0,0E0,0E0,0E0,0E0,0E0,0E0,0E0,0E0,0E0,0E0,0E0,0E0,0E0,0E0],"parents":[2147483647,0,0,2,2,3,3,5,5,6,6,7,7,8,8,9,9,10,10,11,11,13,13,14,14,15,15,16,16,17,17,18,18,19,19,20,20,21,21,23,23,24,24,25,25,26,26,27,27,28,28,29,29,31,31,32,32],"right_children":[2,-1,4,6,-1,8,10,12,14,16,18,20,-1,22,24,26,28,30,32,34,36,38,-1,40,42,44,46,48,50,52,-1,54,56,-1,-1,-1,-1,-1,-1,-1,-1,-1,-1,-1,-1,-1,-1,-1,-1,-1,-1,-1,-1,-1,-1,-1,-1],"split_conditions":[1E0,-5.9279364E-2,1E0,1E0,5.780811E-2,3.3333335E-2,1E-1,1E0,1.1666667E-1,3E-1,2.581989E-1,1E0,5.0263263E-2,1E0,3.5E-1,8E-1,1.22474484E-1,5E-1,3.7282702E-1,1.6666668E-2,1.6666668E-2,2E-1,6.820327E-2,1E-1,7.6666665E-1,2.5E-2,5E-1,7.5E-2,4E-1,1E0,-1.22616485E-1,7E-1,5E-1,-4.0299786E-4,5.192988E-2,2.767973E-2,4.0099822E-2,-7.942748E-2,-7.9744E-3,4.4293936E-2,1.6454576E-2,-1.08362556E-1,3.9175455E-2,4.3429267E-2,2.596957E-2,-8.980149E-2,4.5543116E-2,-6.4296457E-3,4.1781716E-2,5.494973E-2,4.6778396E-2,2.0474639E-2,-1.06353045E-1,5.4858245E-2,1.6989628E-2,-2.6296753E-2,3.5114907E-2],"split_indices":[2,0,0,1,0,13,25,29,17,21,27,3,0,26,13,24,27,21,27,17,17,11,0,25,13,17,19,17,20,8,0,25,25,0,0,0,0,0,0,0,0,0,0,0,0,0,0,0,0,0,0,0,0,0,0,0,0],"split_type":[0,0,0,0,0,0,0,0,0,0,0,0,0,0,0,0,0,0,0,0,0,0,0,0,0,0,0,0,0,0,0,0,0,0,0,0,0,0,0,0,0,0,0,0,0,0,0,0,0,0,0,0,0,0,0,0,0],"sum_hessian":[8.021771E3,3.681382E3,4.340389E3,1.1608307E3,3.1795583E3,5.168775E2,6.439531E2,2.889574E2,2.2792012E2,4.9881033E2,1.4514279E2,2.4904837E2,3.9909027E1,1.6641812E2,6.1502007E1,1.3020364E2,3.686067E2,5.2012688E1,9.313011E1,7.003308E1,1.7901529E2,1.6046358E2,5.9545426E0,4.5994167E1,1.5507839E1,1.2611199E2,4.091648E0,5.332361E0,3.6327432E2,5.029183E1,1.7208596E0,3.4816757E1,5.8313354E1,5.972867E1,1.030441E1,1.4781036E2,3.120492E1,1.8082815E1,1.4238075E2,3.2583237E1,1.3410927E1,3.606517E0,1.1901322E1,8.902365E1,3.708834E1,1.7917837E0,2.2998643E0,3.3001637E0,2.0321972E0,6.98131E1,2.934612E2,4.891208E1,1.3797474E0,3.00645E1,4.752254E0,1.0920638E1,4.7392715E1],"tree_param":{"num_deleted":"0","num_feature":"30","num_nodes":"57","size_leaf_vector":"1"}},{"base_weights":[-3.7560505E-3,-5.8742892E-2,9.8556334E-1,3.4385344E-1,1.0644424E0,2.813669E-1,1.0805012E0,8.78965E-1,1.1435558E0,3.879463E-1,-2.723063E-1,1.8691553E-2,5.694559E-2,9.589426E-1,6.054022E-1,7.2347826E-1,5.737242E-2,1.3553964E-1,5.3001463E-1,-5.877397E-1,-6.187866E-4,8.3587104E-1,1.006465E0,-4.9134624E-1,6.750851E-1,2.5754612E-2,9.751751E-1,2.8350225E-1,-2.7239394E-1,4.4119176E-1,7.87769E-1,-4.816812E-2,-5.9621688E-2,3.780864E-1,-4.9543777E-1,8.826712E-1,3.4367096E-1,9.4312733E-1,1.0703425E0,-1.1229125E0,6.7778754E-1,4.798772E-1,9.176807E-1,4.1266683E-2,-8.738389E-2,5.6022312E-2,5.0365394E-1,1.5594142E-2,-4.714631E-2,-6.381652E-2,2.0867676E-2,2.3492698E-2,-8.813073E-3,4.2900354E-2,-1.6457325E-2,-4.643954E-2,5.9797056E-3,-7.238198E-2,4.3141577E-2,-5.784461E-2,2.7074212E-2,3.9777644E-2,4.8245214E-2,4.1206658E-2,-1.5642972E-3,1.5250524E-2,4.7351457E-2,5.3773798E-2,1.21418005E-2,-7.799577E-2,2.4478758E-2,1.4821094E-3,5.403428E-2,3.6548935E-2,1.1060334E-2,4.697935E-2,-3.6927343E-3,-9.385625E-4,4.7897488E-2],"categories":[],"categories_nodes":[],"categories_segments":[],"categories_sizes":[],"default_left":[0,0,0,0,0,0,0,0,0,0,0,0,0,0,0,0,0,0,0,0,0,0,0,0,0,0,0,0,0,0,0,0,0,0,0,0,0,0,0,0,0,0,0,0,0,0,0,0,0,0,0,0,0,0,0,0,0,0,0,0,0,0,0,0,0,0,0,0,0,0,0,0,0,0,0,0,0,0,0],"id":24,"left_children":[1,-1,3,5,7,9,11,13,15,17,19,-1,-1,21,23,25,-1,27,29,31,33,35,37,39,41,43,45,47,49,51,53,55,-1,57,59,61,63,65,67,69,71,73,75,-1,-1,-1,77,-1,-1,-1,-1,-1,-1,-1,-1,-1,-1,-1,-1,-1,-1,-1,-1,-1,-1,-1,-1,-1,-1,-1,-1,-1,-1,-1,-1,-1,-1,-1,-1],"loss_changes":[8.933769E3,0E0,2.1120654E2,2.0825031E1,5.360742E1,2.51544E1,1.0412331E0,2.3861572E1,3.4311523E0,1.2707375E1,5.9221797E0,0E0,0E0,4.204529E0,1.9853188E1,4.6515474E0,0E0,7.9051714E0,4.8651466E0,1.0376382E1,7.3324914E0,5.368515E0,1.4888306E0,1.2456005E1,1.095343E1,1.2909713E1,7.743664E-1,3.6237125E0,2.4789303E1,3.119793E0,4.760269E0,2.761647E0,0E0,2.0866524E1,1.2261334E1,8.3862305E-1,4.172367E0,5.0405884E-1,1.0133362E0,8.275246E0,1.5814476E0,8.633858E0,2.37574E0,0E0,0E0,0E0,1.5415663E0,0E0,0E0,0E0,0E0,0E0,0E0,0E0,0E0,0E0,0E0,0E0,0E0,0E0,0E0,0E0,0E0,0E0,0E0,0E0,0E0,0E0,0E0,0E0,0E0,0E0,0E0,0E0,0E0,0E0,0E0,0E0,0E0],"parents":[2147483647,0,0,2,2,3,3,4,4,5,5,6,6,7,7,8,8,9,9,10,10,13,13,14,14,15,15,17,17,18,18,19,19,20,20,21,21,22,22,23,23,24,24,25,25,26,26,27,27,28,28,29,29,30,30,31,31,33,33,34,34,35,35,36,36,37,37,38,38,39,39,40,40,41,41,42,42,46,46],"right_children":[2,-1,4,6,8,10,12,14,16,18,20,-1,-1,22,24,26,-1,28,30,32,34,36,38,40,42,44,46,48,50,52,54,56,-1,58,60,62,64,66,68,70,72,74,76,-1,-1,-1,78,-1,-1,-1,-1,-1,-1,-1,-1,-1,-1,-1,-1,-1,-1,-1,-1,-1,-1,-1,-1,-1,-1,-1,-1,-1,-1,-1,-1,-1,-1,-1,-1],"split_conditions":[1E0,-5.8742892E-2,2E-1,1E0,1E0,5E-2,3E-1,5E-2,1E-1,1E0,1E0,1.8691553E-2,5.694559E-2,3E-1,5.8333334E-2,1.1E0,5.737242E-2,3.3333335E-2,2E-1,3.3333335E-2,1E0,1.25E-1,1E-1,5E-1,3E-1,1E0,4.5E-1,5.8333334E-2,1E-1,3.3333335E-2,2.5E-2,2E-1,-5.9621688E-2,1E-1,8.3333336E-2,1E-1,2E-1,1.7320508E-1,7.856208E0,1E0,6E-1,5E-1,3.3E0,4.1266683E-2,-8.738389E-2,5.6022312E-2,1.55E0,1.5594142E-2,-4.714631E-2,-6.381652E-2,2.0867676E-2,2.3492698E-2,-8.813073E-3,4.2900354E-2,-1.6457325E-2,-4.643954E-2,5.9797056E-3,-7.238198E-2,4.3141577E-2,-5.784461E-2,2.7074212E-2,3.9777644E-2,4.8245214E-2,4.1206658E-2,-1.5642972E-3,1.5250524E-2,4.7351457E-2,5.3773798E-2,1.21418005E-2,-7.799577E-2,2.4478758E-2,1.4821094E-3,5.403428E-2,3.6548935E-2,1.1060334E-2,4.697935E-2,-3.6927343E-3,-9.385625E-4,4.7897488E-2],"split_indices":[2,0,24,6,6,10,11,10,25,3,3,0,0,21,17,24,0,13,11,17,5,17,25,11,15,7,10,17,25,13,17,11,0,25,13,25,11,28,28,8,11,24,21,0,0,0,10,0,0,0,0,0,0,0,0,0,0,0,0,0,0,0,0,0,0,0,0,0,0,0,0,0,0,0,0,0,0,0,0],"split_type":[0,0,0,0,0,0,0,0,0,0,0,0,0,0,0,0,0,0,0,0,0,0,0,0,0,0,0,0,0,0,0,0,0,0,0,0,0,0,0,0,0,0,0,0,0,0,0,0,0,0,0,0,0,0,0,0,0,0,0,0,0,0,0,0,0,0,0,0,0,0,0,0,0,0,0,0,0,0,0],"sum_hessian":[7.708872E3,3.5300295E3,4.1788423E3,4.5802234E2,3.72082E3,4.234822E2,3.454014E1,1.1161567E3,2.6046633E3,3.553738E2,6.81084E1,3.201951E0,3.1338188E1,8.6172235E2,2.5443442E2,2.5630236E1,2.579033E3,1.2868997E2,2.2668384E2,3.097854E1,3.712986E1,2.4522852E2,6.1649384E2,1.4838488E1,2.3959593E2,7.086954E0,1.8543282E1,9.466046E1,3.4029507E1,1.7060468E2,5.607917E1,1.6941347E1,1.4037194E1,2.1166319E1,1.5963539E1,2.2321146E2,2.2017057E1,3.1747095E2,2.990229E2,9.659798E0,5.1786895E0,1.3441505E2,1.0518087E2,5.253118E0,1.8338363E0,1.3123744E1,5.419536E0,9.3248314E1,1.4121462E0,1.3512074E1,2.0517431E1,1.6326497E2,7.339709E0,5.2979332E1,3.0998373E0,1.9850433E0,1.4956303E1,4.024018E0,1.7142302E1,9.675696E0,6.2878423E0,1.13569496E2,1.0964196E2,9.125669E0,1.2891388E1,2.4105535E0,3.150604E2,2.968815E2,2.1413786E0,7.6257377E0,2.0340605E0,2.3966892E0,2.7820005E0,6.7278915E1,6.713614E1,1.02958565E2,2.2223067E0,2.966658E0,2.452878E0],"tree_param":{"num_deleted":"0","num_feature":"30","num_nodes":"79","size_leaf_vector":"1"}},{"base_weights":[-7.8916E-3,-5.8244884E-2,9.6959794E-1,4.0559134E-1,1.0465821E0,3.1589985E-1,5.334561E-2,8.761384E-1,5.6545038E-2,4.9450472E-1,-4.3344386E-2,7.3182267E-1,1.0887333E0,3.1944767E-1,6.426742E-1,-1.5067448E-1,4.552419E-2,5.780062E-1,8.686775E-1,1.0259846E0,5.6838717E-2,3.7568194E-1,-7.548722E-2,2.8850973E-2,5.5960495E-2,-4.1520712E-1,3.5433137E-1,5.085011E-1,8.680456E-1,8.125498E-1,1.0168415E0,5.1635157E-2,1.5466689E-2,1.6921919E-2,4.719826E-2,-1.3652814E-2,-6.5563954E-2,9.146326E-3,6.6021465E-2,2.6592404E-2,-1.0109674E-1,4.509348E-2,-5.116623E-4,4.2307366E-2,-2.6330605E-2,3.7961263E-2,5.2745968E-2],"categories":[],"categories_nodes":[],"categories_segments":[],"categories_sizes":[],"default_left":[0,0,0,0,0,0,0,0,0,0,0,0,0,0,0,0,0,0,0,0,0,0,0,0,0,0,0,0,0,0,0,0,0,0,0,0,0,0,0,0,0,0,0,0,0,0,0],"id":25,"left_children":[1,-1,3,5,7,9,-1,11,-1,13,15,17,19,21,23,25,-1,27,29,31,-1,33,-1,-1,-1,35,37,39,41,43,45,-1,-1,-1,-1,-1,-1,-1,-1,-1,-1,-1,-1,-1,-1,-1,-1],"loss_changes":[8.32475E3,0E0,1.7281616E2,2.8183311E1,4.945508E1,2.7279465E1,0E0,3.49823E1,0E0,7.156807E0,1.4673592E1,1.418454E1,2.489624E-1,1.4155409E1,4.132744E0,1.7312004E1,0E0,6.2408752E0,2.2275085E0,7.101593E-1,0E0,2.4099636E0,0E0,0E0,0E0,1.0441075E1,7.161862E0,1.7015205E1,1.8707924E0,1.2651993E1,1.4971161E-1,0E0,0E0,0E0,0E0,0E0,0E0,0E0,0E0,0E0,0E0,0E0,0E0,0E0,0E0,0E0,0E0],"parents":[2147483647,0,0,2,2,3,3,4,4,5,5,7,7,9,9,10,10,11,11,12,12,13,13,14,14,15,15,17,17,18,18,19,19,21,21,25,25,26,26,27,27,28,28,29,29,30,30],"right_children":[2,-1,4,6,8,10,-1,12,-1,14,16,18,20,22,24,26,-1,28,30,32,-1,34,-1,-1,-1,36,38,40,42,44,46,-1,-1,-1,-1,-1,-1,-1,-1,-1,-1,-1,-1,-1,-1,-1,-1],"split_conditions":[1E0,-5.8244884E-2,2E-1,1E0,1E0,3.3333335E-2,5.334561E-2,1E0,5.6545038E-2,1E0,1E0,4E-1,9E-1,3.3333335E-2,5E-2,4.1666668E-2,4.552419E-2,3.4166667E-1,4.4166666E-1,7E-1,5.6838717E-2,2.5E-2,-7.548722E-2,2.8850973E-2,5.5960495E-2,3.3333335E-2,1.5E-1,4.5E-1,1.1E1,1E0,7E-1,5.1635157E-2,1.5466689E-2,1.6921919E-2,4.719826E-2,-1.3652814E-2,-6.5563954E-2,9.146326E-3,6.6021465E-2,2.6592404E-2,-1.0109674E-1,4.509348E-2,-5.116623E-4,4.2307366E-2,-2.6330605E-2,3.7961263E-2,5.2745968E-2],"split_indices":[2,0,24,4,4,13,0,29,0,5,29,21,11,17,17,17,0,17,17,20,0,17,0,0,0,17,19,13,24,26,21,0,0,0,0,0,0,0,0,0,0,0,0,0,0,0,0],"split_type":[0,0,0,0,0,0,0,0,0,0,0,0,0,0,0,0,0,0,0,0,0,0,0,0,0,0,0,0,0,0,0,0,0,0,0,0,0,0,0,0,0,0,0,0,0,0,0],"sum_hessian":[7.358775E3,3.3698538E3,3.9889211E3,4.7982983E2,3.5090913E3,4.2382617E2,5.600365E1,1.165172E3,2.3439192E3,2.8283368E2,1.409925E2,6.966845E2,4.684875E2,1.3109981E2,1.5173389E2,1.2748877E2,1.3503718E1,3.304747E2,3.662098E2,2.1284149E2,2.5564601E2,1.2796057E2,3.1392334E0,1.3530333E2,1.6430555E1,8.378057E1,4.37082E1,2.6881018E2,6.166452E1,2.7029892E2,9.591087E1,2.1042776E2,2.4137218E0,1.2158762E2,6.372946E0,7.343563E1,1.0344939E1,3.813215E1,5.576051E0,2.6713528E2,1.6748943E0,5.935192E1,2.3126006E0,2.6404266E2,6.2562637E0,1.5047275E1,8.08636E1],"tree_param":{"num_deleted":"0","num_feature":"30","num_nodes":"47","size_leaf_vector":"1"}},{"base_weights":[5.8546024E-3,-5.7775658E-2,9.6181154E-1,6.920312E-1,1.1223892E0,4.6908006E-1,9.2398566E-1,7.167288E-1,5.633576E-2,3.5719758E-1,9.8432356E-1,9.377953E-1,-6.041945E-1,1.3758828E-1,1.0051461E0,2.9261968E-1,8.097977E-1,9.969079E-1,2.997496E-3,8.4646904E-1,5.455591E-2,3.2296517E-1,-1.2438511E-1,4.9807888E-1,-7.854096E-2,5.8911264E-2,4.6279714E-1,4.3137848E-1,3.6523048E-2,8.8026506E-1,-2.4248819E-1,1.0098972E0,2.6868437E-3,9.016929E-1,6.943847E-1,-1.7984523E-2,4.546537E-2,4.7903992E-2,-2.1261361E-1,-2.5372931E-3,4.6161156E-2,2.2694474E-2,-8.3807535E-2,-2.5322882E-3,5.1777776E-2,2.9220263E-2,4.9853694E-2,-4.041533E-2,3.6005292E-2,5.1003058E-2,2.6630763E-2,4.5763154E-2,-8.54757E-2,2.044742E-2,5.173989E-2,3.197622E-2,-7.403867E-2],"categories":[],"categories_nodes":[],"categories_segments":[],"categories_sizes":[],"default_left":[0,0,0,0,0,0,0,0,0,0,0,0,0,0,0,0,0,0,0,0,0,0,0,0,0,0,0,0,0,0,0,0,0,0,0,0,0,0,0,0,0,0,0,0,0,0,0,0,0,0,0,0,0,0,0,0,0],"id":26,"left_children":[1,-1,3,5,7,9,11,13,-1,15,17,19,21,23,25,27,29,31,-1,33,-1,35,-1,37,-1,-1,39,41,43,45,47,49,-1,51,53,-1,-1,-1,55,-1,-1,-1,-1,-1,-1,-1,-1,-1,-1,-1,-1,-1,-1,-1,-1,-1,-1],"loss_changes":[7.9365347E3,0E0,1.6908667E2,7.536255E1,3.5029297E0,4.2846848E1,1.5704041E1,4.650094E0,0E0,1.780384E1,1.4888E0,9.035889E0,1.3083591E1,7.3653097E0,1.2361927E0,1.9235249E1,5.886585E0,1.5539246E0,0E0,3.1550598E0,0E0,2.567566E0,0E0,3.3374484E0,0E0,0E0,1.5218555E0,1.7425926E1,1.6726345E1,1.902832E0,3.62441E0,8.456421E-2,0E0,1.31493225E1,1.16525955E1,0E0,0E0,0E0,5.901645E0,0E0,0E0,0E0,0E0,0E0,0E0,0E0,0E0,0E0,0E0,0E0,0E0,0E0,0E0,0E0,0E0,0E0,0E0],"parents":[2147483647,0,0,2,2,3,3,4,4,5,5,6,6,7,7,9,9,10,10,11,11,12,12,13,13,14,14,15,15,16,16,17,17,19,19,21,21,23,23,26,26,27,27,28,28,29,29,30,30,31,31,33,33,34,34,38,38],"right_children":[2,-1,4,6,8,10,12,14,-1,16,18,20,22,24,26,28,30,32,-1,34,-1,36,-1,38,-1,-1,40,42,44,46,48,50,-1,52,54,-1,-1,-1,56,-1,-1,-1,-1,-1,-1,-1,-1,-1,-1,-1,-1,-1,-1,-1,-1,-1,-1],"split_conditions":[1E0,-5.7775658E-2,1E0,3E-1,1E-1,1E0,5.5E-1,5.5E-1,5.633576E-2,1E0,2E-1,1E0,3.5E0,1E-1,4.5E-1,1E-1,7E-1,5E-1,2.997496E-3,1E-1,5.455591E-2,3.2E0,-1.2438511E-1,1E0,-7.854096E-2,5.8911264E-2,1.55E0,1E0,4E-1,2E-1,3E-1,1.5E-1,2.6868437E-3,3E-1,1E0,-1.7984523E-2,4.546537E-2,4.7903992E-2,5E-2,-2.5372931E-3,4.6161156E-2,2.2694474E-2,-8.3807535E-2,-2.5322882E-3,5.1777776E-2,2.9220263E-2,4.9853694E-2,-4.041533E-2,3.6005292E-2,5.1003058E-2,2.6630763E-2,4.5763154E-2,-8.54757E-2,2.044742E-2,5.173989E-2,3.197622E-2,-7.403867E-2],"split_indices":[2,0,6,21,16,4,10,13,0,29,19,4,11,19,10,15,11,15,0,25,0,11,0,7,0,0,10,8,15,11,10,19,0,10,29,0,0,0,10,0,0,0,0,0,0,0,0,0,0,0,0,0,0,0,0,0,0],"split_type":[0,0,0,0,0,0,0,0,0,0,0,0,0,0,0,0,0,0,0,0,0,0,0,0,0,0,0,0,0,0,0,0,0,0,0,0,0,0,0,0,0,0,0,0,0,0,0,0,0,0,0,0,0,0,0,0,0],"sum_hessian":[7.146629E3,3.2265576E3,3.9200713E3,1.4646608E3,2.4554106E3,7.483654E2,7.162954E2,2.7667126E1,2.4277434E3,6.162443E2,1.3212103E2,7.1026337E2,6.032047E0,9.688902E0,1.7978222E1,5.4073737E2,7.5507E1,1.3026909E2,1.8519417E0,4.492126E2,2.6105075E2,4.5974665E0,1.4345803E0,8.585692E0,1.1032103E0,1.2740055E1,5.2381673E0,3.5026926E2,1.904681E2,7.092117E1,4.585833E0,1.2842961E2,1.8394803E0,3.2593307E2,1.232795E2,2.3028727E0,2.2945938E0,5.0007963E0,3.5848956E0,2.896877E0,2.3412902E0,3.4734384E2,